<?xml version="1.0"?>
<MethodSetup Method="BDT::BDTG">
  <GeneralInfo>
    <Info name="TMVA Release" value="4.0.7 [262151]"/>
    <Info name="ROOT Release" value="5.27/06 [334598]"/>
    <Info name="Creator" value="sixie"/>
    <Info name="Date" value="Fri Oct  7 10:53:34 2011"/>
    <Info name="Host" value="Linux lxbuild042.cern.ch 2.6.18-238.1.1.el5 #1 SMP Wed Jan 19 11:06:36 CET 2011 x86_64 x86_64 x86_64 GNU/Linux"/>
    <Info name="Dir" value="/build/sixie/releases/analysis/CMSSW_4_2_3_patch2/src/ElectronMVA"/>
    <Info name="Training events" value="132973"/>
    <Info name="TrainingTime" value="174.725"/>
    <Info name="AnalysisType" value="Classification"/>
  </GeneralInfo>
  <Options>
    <Option name="V" modified="Yes">False</Option>
    <Option name="VerbosityLevel" modified="No">Default</Option>
    <Option name="VarTransform" modified="No">None</Option>
    <Option name="H" modified="Yes">False</Option>
    <Option name="CreateMVAPdfs" modified="Yes">True</Option>
    <Option name="IgnoreNegWeightsInTraining" modified="No">False</Option>
    <Option name="NTrees" modified="Yes">1000</Option>
    <Option name="BoostType" modified="Yes">Grad</Option>
    <Option name="AdaBoostR2Loss" modified="No">quadratic</Option>
    <Option name="UseBaggedGrad" modified="Yes">False</Option>
    <Option name="GradBaggingFraction" modified="No">6.000000e-01</Option>
    <Option name="Shrinkage" modified="Yes">1.000000e-01</Option>
    <Option name="AdaBoostBeta" modified="No">1.000000e+00</Option>
    <Option name="UseRandomisedTrees" modified="No">False</Option>
    <Option name="UseNvars" modified="Yes">4</Option>
    <Option name="UseNTrainEvents" modified="No">132973</Option>
    <Option name="UseWeightedTrees" modified="No">True</Option>
    <Option name="UseYesNoLeaf" modified="No">True</Option>
    <Option name="NodePurityLimit" modified="No">5.000000e-01</Option>
    <Option name="SeparationType" modified="No">giniindex</Option>
    <Option name="nEventsMin" modified="No">78</Option>
    <Option name="nCuts" modified="Yes">2000</Option>
    <Option name="PruneStrength" modified="Yes">0.000000e+00</Option>
    <Option name="PruneMethod" modified="Yes">nopruning</Option>
    <Option name="PruneBeforeBoost" modified="No">False</Option>
    <Option name="PruningValFraction" modified="No">5.000000e-01</Option>
    <Option name="NNodesMax" modified="Yes">5</Option>
    <Option name="MaxDepth" modified="No">3</Option>
  </Options>
  <Variables NVar="13">
    <Variable VarIndex="0" Expression="SigmaIEtaIEta" Label="SigmaIEtaIEta" Title="SigmaIEtaIEta" Unit="" Internal="SigmaIEtaIEta" Type="F" Min="0.00043422" Max="0.0299997"/>
    <Variable VarIndex="1" Expression="DEtaIn" Label="DEtaIn" Title="DEtaIn" Unit="" Internal="DEtaIn" Type="F" Min="-0.00899982" Max="0.00899982"/>
    <Variable VarIndex="2" Expression="DPhiIn" Label="DPhiIn" Title="DPhiIn" Unit="" Internal="DPhiIn" Type="F" Min="-0.144653" Max="0.125809"/>
    <Variable VarIndex="3" Expression="D0" Label="D0" Title="D0" Unit="" Internal="D0" Type="F" Min="-0.0199941" Max="0.0199925"/>
    <Variable VarIndex="4" Expression="FBrem" Label="FBrem" Title="FBrem" Unit="" Internal="FBrem" Type="F" Min="-17.5361" Max="0.998993"/>
    <Variable VarIndex="5" Expression="EOverP" Label="EOverP" Title="EOverP" Unit="" Internal="EOverP" Type="F" Min="4.85312e-05" Max="41.6875"/>
    <Variable VarIndex="6" Expression="ESeedClusterOverPout" Label="ESeedClusterOverPout" Title="ESeedClusterOverPout" Unit="" Internal="ESeedClusterOverPout" Type="F" Min="0.000330985" Max="681.281"/>
    <Variable VarIndex="7" Expression="SigmaIPhiIPhi" Label="SigmaIPhiIPhi" Title="SigmaIPhiIPhi" Unit="" Internal="SigmaIPhiIPhi" Type="F" Min="0.00692668" Max="0.0867882"/>
    <Variable VarIndex="8" Expression="NBrem" Label="NBrem" Title="NBrem" Unit="" Internal="NBrem" Type="I" Min="0" Max="9"/>
    <Variable VarIndex="9" Expression="OneOverEMinusOneOverP" Label="OneOverEMinusOneOverP" Title="OneOverEMinusOneOverP" Unit="" Internal="OneOverEMinusOneOverP" Type="F" Min="-0.0779069" Max="0.0390458"/>
    <Variable VarIndex="10" Expression="ESeedClusterOverPIn" Label="ESeedClusterOverPIn" Title="ESeedClusterOverPIn" Unit="" Internal="ESeedClusterOverPIn" Type="F" Min="3.99052e-05" Max="38.9319"/>
    <Variable VarIndex="11" Expression="IP3d" Label="IP3d" Title="IP3d" Unit="" Internal="IP3d" Type="F" Min="-4.75952" Max="0.0398865"/>
    <Variable VarIndex="12" Expression="IP3dSig" Label="IP3dSig" Title="IP3dSig" Unit="" Internal="IP3dSig" Type="F" Min="-379.119" Max="12.3385"/>
  </Variables>
  <Spectators NSpec="0"/>
  <Transformations NTransformations="0"/>
  <MVAPdfs>
    <PDF Name="BDTG_PDFSig" MinNSmooth="0" MaxNSmooth="0" InterpolMethod="2" KDE_type="1" KDE_iter="1" KDE_border="1" KDE_finefactor="1.0000000000000000e+00">
      <Histogram Name="BDT_tr_S_original" NBins="2659" XMin="-9.9716401100158691e-01" XMax="9.9305087327957153e-01" HasEquidistantBins="1">
        0 0 0 0 0 0.00619248 0 0 0.0161498 0 0.00457661 0 0 0 0.0231359 0 0 0 0 0.0231359 0 0.0129819 0 0 0 0.0174384 0 0 0 0.0299481 0.00457661 0 0 0 0 0 0 0.0058405 0 0.0152595 0 0 0 0.00761759 0 0.0206758 0.0110516 0 0 0 0.00745913 0.00457661 0 0.00471662 0 0.00834262 0.0231359 0 0.0206758 0 0 0 0 0.00619248 0 0.00761759 0 0 0 0.00439604 0 0.00457661 0 0.00525303 0.0110516 0.0129819 0.0231359 0 0 0 0.00439604 0.00907731 0 0 0.0149355 0 0 0 0 0 0.00907731 0.0110516 0 0 0 0.011388 0.0299481 0 0 0 0 0.00619248 0 0 0 0 0.0388524 0.00471662 0 0.00525303 0 0 0 0 0 0 0 0 0 0 0.00457661 0 0 0 0 0 0 0 0 0 0.0189816 0 0.0110516 0 0 0 0 0.00471662 0 0 0 0.0299481 0 0.0110516 0 0 0.0208664 0.00907731 0 0 0 0.00439604 0 0 0 0 0 0 0 0.0129819 0 0.00471662 0 0 0 0.0174384 0 0 0 0 0 0 0 0 0 0.00907731 0 0 0.00834262 0.00525303 0 0 0 0 0 0 0 0.0152595 0.0189816 0 0 0.0631056 0 0.0187408 0 0 0.0110516 0.00457661 0 0 0 0 0.0152595 0 0 0 0 0.00525303 0 0 0 0 0 0.0232785 0 0.00907731 0 0 0 0 0 0.0259288 0 0.0191743 0 0 0.0101977 0.0152595 0 0 0 0 0.0127722 0 0 0 0.0319635 0 0 0 0 0.0374072 0 0.00471662 0.00907731 0 0.0135134 0 0 0 0 0.00457661 0 0 0 0 0 0.00439604 0.00834262 0 0 0 0.0129819 0 0.0152595 0 0 0 0 0 0 0 0 0 0 0 0 0 0 0 0 0 0 0 0 0 0 0 0 0 0 0 0 0 0 0 0 0.00439604 0 0 0 0.0110516 0 0 0 0 0 0.0110516 0 0.0336577 0 0 0 0 0 0 0.00907731 0.0299481 0.0399697 0 0 0.0387803 0.0231359 0.00761759 0 0 0 0 0 0 0 0 0 0 0 0 0 0 0.0129819 0 0 0.00834262 0 0.0299481 0 0 0 0.00439604 0 0 0 0 0 0 0 0 0 0 0 0 0.00834262 0 0 0 0 0 0 0.0221032 0.0134809 0 0 0 0 0 0 0 0 0 0 0.00619248 0 0 0.0179816 0 0.0530839 0 0 0 0 0 0 0 0 0 0 0.0299481 0 0 0 0 0.00619248 0 0.0132743 0 0 0 0.0399697 0 0 0 0.00907731 0 0 0 0 0 0.00457661 0 0 0 0.0206758 0 0 0 0 0.00745913 0.00457661 0 0.00471662 0 0 0 0.0132743 0 0 0 0 0.00525303 0 0.0110516 0 0 0 0 0 0 0 0 0 0 0 0 0 0 0 0 0 0.0231359 0 0 0 0.0110516 0 0 0 0 0 0 0.00457661 0 0.00457661 0.0110516 0.0231359 0 0 0 0.00890433 0.0231359 0 0 0 0 0 0 0 0.0152595 0 0 0 0 0 0 0 0 0 0.00745913 0 0 0 0 0 0 0 0 0.0300333 0.00457661 0.00761759 0.0231359 0 0 0 0 0 0 0.00834262 0.0058405 0.00471662 0 0 0.0058405 0 0 0 0 0.0166949 0 0 0 0 0 0 0 0 0 0 0 0 0.00761759 0 0 0 0 0 0 0 0 0 0.0189816 0.00761759 0 0 0.00525303 0 0 0 0 0 0 0.00907731 0 0.0357886 0.00457661 0.0110516 0 0 0 0.00619248 0 0 0.0159646 0 0.00834262 0 0 0 0 0 0 0 0 0 0.0058405 0 0 0.0152595 0 0 0 0.0231359 0 0.0199761 0 0 0 0 0 0.00619248 0 0 0 0.00761759 0 0 0 0 0 0 0 0.0231359 0.0399697 0 0 0.00525303 0 0 0 0.00907731 0 0 0.00745913 0.00439604 0.0152595 0 0 0 0 0 0 0 0.0123342 0 0.00907731 0 0 0 0.00761759 0.0189816 0 0 0 0 0 0 0.00525303 0 0.00525303 0.0189816 0.0152595 0 0 0 0 0.0152595 0 0 0 0 0 0 0 0 0.00761759 0.0189816 0.0280639 0.0383953 0 0 0 0.0189816 0 0 0 0 0 0.00525303 0 0 0.0231359 0.0058405 0 0 0 0 0 0 0 0 0 0.0118256 0 0 0.00619248 0.0530839 0 0 0 0.00525303 0.00761759 0 0 0.0129819 0 0 0.00907731 0 0 0.0231359 0 0 0 0 0 0 0.0231359 0 0.00761759 0.0110516 0 0.0365401 0.00619248 0 0 0 0.0299481 0.00907731 0 0 0 0 0 0.00619248 0 0 0 0.00439604 0 0 0 0 0 0 0 0 0 0 0.00890433 0 0 0.0129819 0.00525303 0.0129819 0 0 0 0 0 0 0 0 0 0 0 0.0154702 0 0.00907731 0 0.00761759 0 0.0129819 0 0 0 0 0 0 0 0 0.0799395 0 0 0 0 0.0399697 0 0.0129819 0 0.0110516 0.00457661 0 0.00439604 0 0 0.0110516 0 0 0 0 0 0.00619248 0.0205995 0 0 0.0231359 0 0 0.0058405 0.00907731 0 0.00982964 0.0211 0 0.00761759 0 0.0399697 0 0 0.0299481 0 0 0 0.0152698 0.0110516 0 0 0 0 0 0.0058405 0.00439604 0 0.00525303 0 0.0189816 0.0189816 0 0.0345239 0 0 0.0152595 0 0 0 0 0 0.00525303 0 0 0 0 0 0.0152595 0 0.0128094 0.00761759 0.00457661 0 0 0 0 0 0.0166949 0 0 0 0.0152595 0 0 0 0 0 0 0 0.0206758 0.0299481 0.0174384 0 0.0319635 0 0.0152595 0 0 0 0 0 0 0 0 0.00761759 0.00619248 0 0 0.00525303 0 0.0399697 0.00457661 0 0 0.0231359 0 0 0 0 0 0 0 0 0 0 0.0152595 0 0 0.0205125 0 0 0.0399697 0 0.00619248 0 0 0.00439604 0 0 0.0129819 0 0 0 0 0.00439604 0 0.00761759 0.0152595 0.00907731 0 0.00619248 0.0299481 0.00457661 0 0.00761759 0.00834262 0.00439604 0 0 0 0 0.0282413 0 0 0.0299481 0 0 0.00471662 0 0 0.0129819 0.00525303 0 0.0206758 0 0 0.0399697 0.0152595 0 0.0166949 0 0.0299481 0 0 0 0 0 0 0.00525303 0 0 0 0 0 0 0.0155961 0 0.00745913 0 0 0.0143303 0.0605692 0 0.0231359 0 0.00619248 0 0 0 0 0 0 0 0 0 0 0 0 0.00761759 0 0.0289764 0 0.00525303 0.0319243 0 0 0 0.0189816 0 0 0 0 0 0 0 0.0107536 0.0299481 0 0 0.0299481 0 0 0 0 0.00761759 0.0128706 0.0299481 0 0 0 0 0.0189816 0 0 0 0.0231359 0 0.0399697 0.00457661 0 0.0110516 0.00471662 0.00761759 0.00761759 0 0 0 0.0299481 0 0 0 0 0 0 0.00619248 0.0414213 0.021128 0.00761759 0 0.00439604 0.0279716 0 0.0399697 0 0 0 0 0 0.0151496 0.0189816 0 0.0152595 0.0399697 0 0 0 0 0 0.0129819 0.0307535 0 0 0.00439604 0 0.00907731 0 0.0399697 0 0 0 0.00525303 0.0118256 0 0.0101977 0 0 0 0.0137939 0 0 0.0152595 0.0299481 0 0 0.00619248 0.00619248 0 0.00439604 0.0233777 0 0.00907731 0 0.00525303 0.0189816 0.0399697 0.0110516 0 0 0.0181546 0.0289764 0 0.0189816 0.0152595 0 0 0 0 0 0.0300333 0 0.0399697 0 0 0 0 0 0.00439604 0.00996965 0 0 0 0.00619248 0.0110516 0 0 0 0 0 0 0 0 0 0 0 0.0152595 0.0189816 0 0.00525303 0 0 0.00834262 0 0 0.0206758 0.00907731 0.00619248 0 0 0.0248221 0 0.0399697 0 0 0.00761759 0 0 0 0 0.0110935 0 0.0299481 0 0 0.0299481 0 0.00907731 0.0399697 0 0 0 0 0.0110516 0.00761759 0 0.0299481 0.0058405 0.0206758 0.049047 0.00471662 0.00907731 0.0206758 0.0820833 0.0307535 0 0.0189816 0.0533258 0.0129819 0.0189816 0 0 0.049263 0.0231359 0 0 0.0176568 0 0.0206758 0 0 0 0 0 0 0 0.0228771 0.00761759 0 0 0 0.00890433 0.0399697 0.0128706 0 0.00439604 0.00439604 0 0 0.00761759 0 0.00879207 0.0127387 0 0 0.0189816 0.00471662 0 0 0.0299481 0 0 0.00907731 0 0 0 0.00439604 0 0 0.00745913 0.0375657 0.034045 0.00761759 0.00907731 0 0.0550994 0.0248221 0.00439604 0 0.0156282 0.0275319 0.00761759 0 0.00525303 0 0 0.0342411 0 0 0.00471662 0 0 0.00761759 0 0 0 0.0143303 0 0 0 0.00439604 0 0 0.0166949 0 0.0388524 0 0 0.0452228 0 0 0 0 0 0.0399697 0.0399697 0.00439604 0.0160066 0.0361177 0.0128094 0.00525303 0 0.00745913 0 0.0322132 0.0299481 0 0.0552292 0.00525303 0.00439604 0 0 0 0 0.0109091 0 0 0 0.0129819 0.0231359 0.0205125 0.0399697 0.0659335 0 0 0.0058405 0.00761759 0 0.0399697 0 0.00761759 0 0 0 0 0 0.0152595 0.0489297 0.0383953 0 0 0 0.00457661 0 0.0399697 0.0231359 0 0.0110516 0.00525303 0.0110516 0 0.0390254 0.0238239 0.0319279 0 0 0 0 0 0.00907731 0.0263111 0.0644728 0.00439604 0.00439604 0.0417736 0 0.00439604 0.00879207 0 0 0.00761759 0.0129819 0 0 0 0.0436484 0 0.0166949 0 0.00471662 0.0110516 0.0110516 0.0206758 0.00439604 0.0361406 0 0 0 0 0 0.0489424 0.0129819 0.0540667 0.0231359 0 0.0475873 0.00619248 0 0.0129192 0.0383711 0 0.0129192 0.00619248 0.0110516 0 0.0299481 0.00964907 0.0299481 0 0 0.00525303 0 0.00525303 0.0189816 0.0259637 0.00915321 0.0432214 0 0.00439604 0.0152595 0.00439604 0.011388 0.0334944 0.0299481 0 0 0.0104171 0.0152595 0.0358589 0 0 0 0 0.00619248 0.0163046 0.0140451 0 0.0196555 0.0299481 0.0152595 0.0110516 0.0129819 0.0152595 0.0203448 0 0.0417133 0.0189816 0.00745913 0 0.0168921 0 0 0.0220592 0 0.00619248 0 0 0 0.0129819 0.0322132 0.00761759 0.0326979 0.00525303 0 0.0175585 0.00745913 0.0174889 0.0282413 0 0.00525303 0 0.0129819 0 0 0.0979495 0.0110516 0.0356766 0.0529516 0.0596356 0 0.0283889 0.00525303 0 0.0110516 0 0.00745913 0.0376928 0.0445463 0 0.0143303 0 0.0399697 0.0058405 0 0 0.0235583 0 0.00907731 0.0152595 0.0452228 0.0189816 0 0.0299481 0 0.00439604 0.0129819 0.0121942 0.0390254 0 0 0.0394916 0 0 0.0299481 0 0 0 0.0156257 0.052742 0.00471662 0.00457661 0.0258525 0.0152595 0.0228771 0 0 0.0182349 0.0251741 0.00834262 0 0.0299481 0.0399697 0.0352011 0.00439604 0 0.00525303 0 0.0327756 0 0.0110516 0.00439604 0.0165364 0 0.00525303 0 0.0552292 0.00525303 0 0.0231359 0.0399697 0.0357886 0.00457661 0 0.0189816 0 0.00439604 0 0 0.0163046 0.0587594 0.0231359 0 0.00897264 0 0.00619248 0 0.0272924 0 0.0275319 0.00525303 0.00907731 0.0129819 0 0.0692567 0 0.00439604 0.0345247 0.00761759 0.00457661 0 0.0284295 0.025848 0.0707232 0 0.0409997 0.00457661 0 0.0499394 0.0299481 0.00439604 0.00471662 0 0 0.0529516 0.00471662 0.0453957 0.0299481 0.00439604 0 0.0242347 0 0 0.00761759 0.0357934 0.0134733 0.0152595 0.0665449 0.00761759 0.0884724 0.00761759 0.0231359 0.00907731 0.0110516 0 0.103075 0.00907731 0.0783651 0.0300333 0.0211 0.0058405 0.0399697 0.0233777 0.0399697 0.0528404 0.0429299 0.0263111 0.0366801 0.0299481 0.00439604 0 0 0.0231359 0.0129819 0 0.0631056 0.00439604 0.0123342 0.0342411 0.00619248 0.033312 0.0189816 0.00745913 0 0 0.00745913 0.0107691 0.0421175 0.00619248 0.0248455 0.0132743 0.0231359 0 0.0128094 0.0528404 0.00471662 0.0203498 0 0 0 0 0 0 0 0 0.00439604 0.0513758 0.0504606 0 0.0399697 0 0.0445463 0 0.0243368 0.05593 0.0375657 0.00745913 0.00761759 0 0 0.043602 0.0231359 0.0783651 0.0134733 0.00761759 0.0231359 0.0656612 0 0 0.0110516 0.025694 0.0399697 0.0058405 0 0.0189816 0.00457661 0.00996965 0 0.0299481 0.0206758 0.0105885 0.0152595 0.0198437 0.0143303 0.012033 0.0110516 0.0231359 0 0.00761759 0.0205228 0.0218052 0.0294606 0 0.00457661 0 0 0.0259637 0.0141831 0.0299481 0.0152595 0 0.030226 0.10078 0.00619248 0.0510213 0.00457661 0.00907731 0.0305293 0.0233777 0.0465435 0.055598 0 0.0468341 0.0528784 0.0152595 0.0205995 0.00907731 0.0105061 0.00761759 0.00761759 0 0.0152595 0 0.0583409 0.0129819 0.0746342 0.0541119 0.0836132 0 0.0851925 0.075326 0.0297352 0.0300333 0.00457661 0.00457661 0.0203298 0.0225507 0.0598962 0 0.012385 0.0189816 0.00761759 0.0374072 0.0342411 0 0.0292659 0 0.0898295 0.00761759 0.0137939 0 0.0461622 0.00525303 0.00761759 0.00457661 0.00619248 0.0107536 0 0.0187111 0.00761759 0.0189816 0.0152698 0.00439604 0.0615312 0.0199223 0 0.0110516 0.0143303 0.0299481 0.0189816 0.00745913 0.00439604 0.0462872 0.0526667 0.0497842 0.00471662 0.0452179 0.0429299 0.0134733 0.0207007 0.0166985 0.0248221 0.00457661 0.0974497 0.118965 0.030226 0.00525303 0.0227312 0.00525303 0.0107691 0.0387529 0.0475873 0.0212893 0.0452228 0.0243368 0.0186692 0 0.0241638 0.0152595 0.0129819 0.0196658 0.00525303 0.0182061 0.0240754 0.0445463 0 0.0408572 0 0.0110935 0 0.0307933 0.00761759 0.0174384 0.0475873 0.0509229 0.0408603 0.030226 0.00619248 0.0374072 0.0058405 0.0899294 0.00761759 0.00457661 0 0.0399697 0.027886 0.0231359 0.0523711 0.0231359 0.0230652 0.0196555 0.00457661 0.0134581 0.0226309 0 0 0.0279543 0.0624288 0.0242347 0.0510213 0.0110516 0.0788778 0.0240335 0.0665938 0.0501941 0.0218207 0.0742212 0.0582046 0.0571808 0.038156 0.00619248 0.0185107 0.0189816 0 0.0105885 0.0282413 0 0.00834262 0.11115 0.0281886 0.0363607 0.0448659 0.0399067 0.0619484 0.0572364 0.0910493 0.0339287 0.0861627 0.00457661 0.0303598 0.049123 0.0207007 0.122869 0.0660658 0.0110935 0.0110516 0.0522232 0.0288113 0.0418952 0.00457661 0.0458102 0.00761759 0.00619248 0.0165364 0.0544278 0.0231359 0.0367369 0.0298037 0.033312 0 0.0236021 0.0322132 0.00907731 0.00996965 0.0369633 0.0294877 0.0182061 0.0347539 0 0.0589514 0.00907731 0.00471662 0.0661762 0.0299481 0.0443658 0.0325455 0.0375099 0.0580032 0.0511379 0.0231359 0.00890433 0.0189816 0.0596988 0.0172667 0.00525303 0.0686782 0.0704887 0.0677941 0.0528251 0.0197012 0.0268891 0.0209172 0.0671646 0.0536992 0.0559175 0.00761759 0.00907731 0.00439604 0.0231359 0 0.0634452 0.0174472 0.0110516 0.00619248 0.0719291 0.047881 0.0518687 0.0642987 0.0352011 0.00471662 0.0234277 0.0493872 0.0675016 0.0468868 0.0342411 0.0443658 0.041792 0.0609056 0.0178541 0 0.0229068 0.0228772 0.00761759 0.0134581 0.0283187 0.0832345 0.0227827 0.0543117 0.0311541 0.0726468 0.046819 0.038156 0.0645991 0.0905732 0.042735 0.0169461 0.0552049 0.0659828 0.0295031 0.00911266 0.0443658 0.0214519 0.0518284 0.00471662 0.0652997 0.0058405 0.0983793 0.0759713 0.0229363 0.0375657 0.102421 0.0951583 0.0920113 0.0398235 0.0366813 0.0323033 0.027112 0 0.0561336 0.0709016 0.0227186 0.0640802 0.0580922 0.0373707 0.0312159 0.0675016 0.0293283 0.0166949 0.0841317 0.0790658 0.0152352 0.0328723 0.0786456 0.0532598 0.0695494 0.0618324 0 0.0362952 0.0289082 0.0662786 0.0950892 0.0269535 0.103697 0.104258 0.139451 0.0969402 0.0427986 0.0777682 0.0433184 0.0901815 0.0552395 0.079071 0.0871747 0.0136539 0.0480105 0.0255979 0.00525303 0.0822521 0.071116 0.0661126 0.0466941 0.0398604 0.0435769 0.0319841 0.0945978 0.038156 0.0624288 0.0594332 0.0584186 0.0675016 0.0575652 0.0219607 0.0826901 0.00525303 0.0452075 0.0299481 0.0411983 0.0357491 0.0750133 0.0607474 0.0317959 0.0548412 0.128645 0.144031 0.0531691 0.0286307 0.0181546 0.0572364 0.0826101 0.0280943 0.0944212 0.0290863 0.0984502 0.0406657 0.0458102 0.0473705 0.0305293 0.110433 0.0152595 0.0152595 0.0394993 0.12144 0.0953763 0.112338 0.0642545 0.0788905 0.0651274 0.0739563 0.0465003 0.100077 0.0101977 0.123105 0.0734353 0.0506508 0.0302105 0.0240754 0.0731555 0.0779905 0.0838923 0.0862636 0.0925075 0.0674568 0.0922656 0.0828433 0.139104 0.0686005 0.0803782 0.0574364 0.0152595 0.156397 0.0958464 0.107896 0.0765066 0.0773285 0.0900286 0.0985043 0.0621045 0.0802206 0.0557961 0.112205 0.0511287 0.0914218 0.115221 0.058729 0.0577269 0.143115 0.0831505 0.127185 0.0678694 0.107982 0.130696 0.0563236 0.00907731 0.0693685 0.1086 0.0729567 0.0710708 0.106934 0.0532019 0.099595 0.0621287 0.0722052 0.0494229 0.106328 0.0654854 0.0588566 0.058142 0.0742639 0.10054 0.135752 0.0421277 0.186746 0.0652318 0.12246 0.0793327 0.0342411 0.102924 0.0628785 0.131245 0.104036 0.0963866 0.0688701 0.119995 0.164211 0.151959 0.05697 0.205475 0.0485862 0.0482375 0.0628991 0.104089 0.0946415 0.148749 0.159964 0.0756666 0.128381 0.0998784 0.169933 0.0789109 0.0916683 0.0713435 0.0894047 0.13089 0.06898 0.0496846 0.0682921 0.140741 0.144544 0.0804383 0.0762389 0.0940101 0.0193138 0.109963 0.101017 0.0953964 0.101663 0.11128 0.141723 0.140278 0.0528866 0.131305 0.0789673 0.157469 0.193818 0.110905 0.245363 0.126112 0.085418 0.0893567 0.0673721 0.104583 0.0940729 0.117922 0.0926157 0.0531264 0.181978 0.118999 0.0783366 0.107944 0.276074 0.18942 0.102928 0.149974 0.105099 0.166695 0.0823744 0.0972818 0.152743 0.096319 0.15122 0.11782 0.137511 0.0460746 0.0920042 0.14925 0.164902 0.103153 0.144295 0.192803 0.0655516 0.0628793 0.178156 0.215464 0.0791982 0.18698 0.0968625 0.164749 0.148117 0.106781 0.147403 0.110259 0.15641 0.103877 0.199742 0.218048 0.06527 0.0951969 0.114732 0.158458 0.143086 0.140969 0.221891 0.185203 0.217542 0.0382945 0.0726468 0.0548596 0.0847086 0.153862 0.0922635 0.172222 0.154395 0.0695227 0.0858044 0.355544 0.151847 0.12874 0.128094 0.16515 0.190251 0.253609 0.187645 0.169973 0.157549 0.251719 0.137029 0.115365 0.178048 0.175217 0.124248 0.113151 0.2011 0.26064 0.154202 0.123326 0.141467 0.31806 0.237638 0.21475 0.14479 0.155899 0.261461 0.177423 0.179933 0.231539 0.164131 0.188252 0.243532 0.225747 0.0883275 0.126182 0.241078 0.360362 0.283495 0.166474 0.422929 0.308876 0.108586 0.248135 0.196038 0.170999 0.138343 0.335518 0.216412 0.233028 0.232584 0.296025 0.179581 0.226594 0.177779 0.155108 0.276002 0.194711 0.222816 0.2619 0.169312 0.200487 0.0809996 0.348816 0.174331 0.127709 0.419183 0.187412 0.257089 0.242809 0.321211 0.37783 0.251809 0.289658 0.238564 0.209772 0.291061 0.329016 0.257428 0.271367 0.250278 0.288302 0.26987 0.151088 0.200495 0.256941 0.212333 0.298187 0.226329 0.301902 0.310729 0.231777 0.44674 0.333121 0.371152 0.279855 0.259003 0.238537 0.251973 0.244098 0.370002 0.256985 0.223659 0.21457 0.236793 0.232546 0.471832 0.268971 0.315099 0.181757 0.429355 0.32628 0.286828 0.374325 0.227232 0.252599 0.371921 0.535651 0.357617 0.252735 0.442912 0.311422 0.215182 0.434108 0.339643 0.323849 0.442442 0.351763 0.378973 0.582316 0.356221 0.322726 0.347329 0.261863 0.432804 0.443238 0.376232 0.459089 0.566762 0.287023 0.448285 0.613233 0.365518 0.320217 0.387713 0.456313 0.4252 0.367134 0.540985 0.345738 0.618838 0.492037 0.590458 0.421027 0.481447 0.332408 0.360206 0.456778 0.482103 0.550696 0.544838 0.475584 0.622554 0.687479 0.521591 0.372298 0.534642 0.741001 0.491988 0.53911 0.881787 0.34258 0.481194 0.694269 0.65008 0.769564 0.480827 0.503258 0.54706 0.674891 0.645831 0.52441 0.629027 0.665064 0.804376 0.697392 0.639621 0.713854 0.698233 0.74596 0.523393 0.686618 0.672079 0.810273 0.70505 0.741926 0.63913 0.711289 0.738186 0.666334 0.826849 0.676588 0.896632 0.982761 0.9303 0.968275 1.12226 0.841954 0.797123 0.854341 0.950823 0.744169 0.717408 1.12358 0.830472 1.29498 1.00755 0.951864 0.883951 1.05056 1.05567 0.874621 1.11006 1.0213 1.05836 1.25523 1.08565 0.826393 0.876445 1.21073 1.42847 1.26851 1.06002 1.15875 1.00957 1.35747 1.18185 1.20265 1.12728 1.40486 1.14646 1.45389 1.34526 1.25238 1.61857 1.33384 1.45815 1.54091 1.43774 1.52514 1.6002 1.56332 1.60658 1.83293 1.59271 1.76044 1.74957 1.9459 1.59599 1.77146 1.86036 1.55483 2.33235 2.15734 1.80766 1.87641 1.94019 2.12854 2.03806 2.12898 2.24556 2.08307 2.4215 2.20659 2.66059 2.48273 2.57829 2.64458 2.45247 2.87738 2.71628 2.58914 3.07905 3.46731 3.20389 3.30094 3.35121 3.18668 3.51 3.11771 3.41509 3.69505 3.60929 3.79206 3.65243 4.04602 3.98496 4.40129 3.98084 4.31782 4.60397 4.29235 4.67615 5.22959 4.86655 5.33126 4.95899 5.30795 5.63035 6.32796 6.76999 5.73313 6.56029 6.40452 6.39198 6.58995 7.26178 7.88822 7.13919 7.20993 8.72475 8.2985 9.43321 9.14389 9.73027 9.729 10.5901 10.5482 10.1993 11.3037 11.98 12.5787 14.0705 14.9051 16.8745 17.1371 16.9302 18.112 19.9858 21.5656 23.7768 27.2056 26.2864 29.3365 29.298 32.4381 34.4502 36.064 40.5846 38.7759 46.1318 49.1945 48.7248 39.7711 36.1893 42.0989 30.4906 16.0898 14.9398 4.52135 2.54979 0.764723 0.293042 0.0888854 
      </Histogram>
    </PDF>
    <PDF Name="BDTG_PDFBkg" MinNSmooth="0" MaxNSmooth="0" InterpolMethod="2" KDE_type="1" KDE_iter="1" KDE_border="1" KDE_finefactor="1.0000000000000000e+00">
      <Histogram Name="BDT_tr_B_original" NBins="2659" XMin="-9.9716401100158691e-01" XMax="9.9305087327957153e-01" HasEquidistantBins="1">
        0.555907 1.05003 0.767396 0.882939 0.708723 0.25095 0.118362 1.1487 1.96454 1.98661 0.562651 1.27297 1.50846 1.86323 1.06375 0.918598 0.472013 1.00125 0.747196 0.99998 0.813916 1.08524 0.969041 1.06944 1.20059 0.819133 0.524707 0.615541 3.17478 2.22987 1.21106 2.53508 0.995782 0.759597 0.954116 0.683256 1.48719 1.85216 0.429657 0.947191 0.924277 0.426668 0 1.55247 0.758319 0.219534 0.812251 1.51095 0.96583 1.17284 2.39909 1.01849 0.921731 1.85142 0.610717 0.816264 1.65324 0.837591 1.47992 0.859529 0.655102 0.917457 1.04171 0.308306 0.553417 0.370827 0.370827 1.11221 0.328662 0.287715 1.33539 0.253994 1.06899 0.429657 1.13388 1.01456 0.41238 0.878759 1.63061 0.802208 0.69406 1.61773 0.498671 0.169353 0.126997 0.85446 0.421022 1.94042 1.11543 1.03386 1.24502 0.582408 0.588229 0.426455 1.19934 0.455411 0.964007 2.68325 0.562899 0.438144 0.610724 0.470362 0 0.959759 1.12813 0.196012 2.7795 1.0904 1.14499 0.118362 0.54503 0.799343 0.826486 0.618031 0.78325 1.89117 1.15243 0.216368 1.48462 0.435902 0.767553 0.169353 1.19421 1.3338 0.769818 0.118362 1.07163 0.118362 0.126997 1.3865 0.550344 0.556654 1.33546 0.871942 0.372109 0.30266 1.00217 0.0980058 1.13558 1.26274 0.118362 0 0.825606 0.118362 0.308306 0.575526 0.169353 0.316616 1.70176 0.216368 0.118362 0.267359 0 0.742537 0.267359 0 0.196012 0.821265 0.323009 0.871462 0 0 1.52297 0.547771 0.465897 0.821651 0.700771 1.02911 0 0.785781 1.04224 0.527662 0.614417 0.926161 0.420599 0.661592 0 0.245359 0.126997 0 0 0.470484 1.10544 0.126997 0 0.372109 0.31754 1.01545 0.498671 0.548019 1.18648 0.40286 0.225003 1.63075 0 0.914158 0 0 0.539384 0.933948 0.196012 0.792708 1.56884 0 0.435303 0 1.01792 0.169353 0.879006 0.665711 0.527662 1.6396 0.933981 0 0.844488 0.414465 0.491432 0.30266 0.245112 0.589869 0.126997 0.216368 0.373869 0 0.55361 0.253994 0.267359 1.27155 0.646025 0.118362 0.0980058 0.518992 0.2103 0.0980058 0.299458 1.25968 0.844598 0 0.196012 0 0.839402 0.33473 0.275863 0.337297 0 0.867594 0.854308 0.800519 0.169353 0.810399 0 0.126997 0.809215 0.981023 0.343117 0.553665 0.490471 1.82171 0.245112 1.34938 0.2103 0 0.85822 0.118362 0 0.126997 0.419528 0.498015 0.118362 1.09187 0.656253 0.868145 0.545245 0.602356 0.225003 0.631314 0.385721 0 0 0.468833 0.272821 0.363722 1.27887 0.496036 0.216368 0.41782 0.323009 0 0 0.938532 0.196012 0.267359 0.126997 0 0.399818 0.538962 0.673487 0 0.118362 0.72277 0 0.225003 0 0.853654 0 0.0980058 0 0.0980058 0.218611 0.600099 0.118362 0.118362 0.765052 0.429657 0.690623 0.769452 0.272821 0 1.27265 0.474088 0.521223 0 0.30266 0.216368 0.575481 0.836403 0.196012 0 0.616315 0.2103 0.118362 0.418248 0.219534 0.781834 0 0 1.11761 0 0.29635 0.169353 0.328662 0.225003 1.11628 1.26575 0.118362 0.118362 0.196012 0.600099 0.735583 1.65098 0.0980058 0.299458 0 0.977878 0.169353 0.308306 0.614399 0.447024 0.0980058 0.245359 0.627333 0.512959 0.592894 0.0980058 0.2103 0 0 0 0 0.626111 0.355726 0.37396 0 0.613759 0 0.343117 0.690328 0.747196 0 0.352 0.218611 0.600099 0.126997 0.372109 0.971295 0.429834 0.308306 0.245359 0.29635 0 0.225003 0.803968 0.2103 0.821651 0.219534 0.253994 0.243432 0.308306 0.287715 0.943216 0 0.216368 0.636754 0.640399 0.0980058 0.546525 0.983074 0.169353 0.765183 0.126997 0.512718 0.77842 0.447024 0.444537 0.727096 0 0.419528 0.772774 0.964187 0.935008 0 0.2103 0.225003 0.625668 1.40877 1.41185 0.429834 0.464893 0.343117 0.764351 1.31042 0.470115 0.275863 1.44773 0.722188 0.272821 0.0980058 0.225003 0.829315 0 0.287715 0.761487 0.722457 0.934829 0.196012 0.126997 0.118362 0.442174 0.435303 0.426668 0.0980058 0.598872 1.0094 0.549006 0.218611 0.999917 0.623059 0.497824 0.898649 0.245112 0.2103 0.570018 0.30266 0.218611 0.470362 1.12456 0 0.0980058 0.40286 0.621778 0.145426 0.645777 0.556654 0.421015 0 0.490223 0.680414 1.13866 0 0.716618 0.169353 0 0 0.867824 0.118362 0 0.868072 0.126997 0.655516 0.0980058 0.29635 0.430099 1.20987 0.272821 0 0.2103 0.951452 0.225003 0.0980058 1.16522 0.0980058 0.925693 0 0.0980058 0.343117 0.71465 0.219534 0.218611 0 0.600525 0 0.126997 0.0980058 0.616644 0.59189 0.287715 0 1.06668 0.46125 0.245112 0.517534 0.272821 0 0.196012 0 0.225003 0.361794 0.950812 0.240992 0.323009 0 0.30266 0.684179 0 0.767553 0.2103 0.169353 0.33473 0.126997 0 1.23095 0.40286 0.56812 0.245112 0.2103 0.353604 0.415546 1.08616 0.399818 0.559486 0 0.0980058 0.225003 0 0.879407 0.0980058 0.196012 0.373869 0.441123 0.118362 0.881407 0.243432 0.272423 1.07578 0.373869 0.779812 0.343117 0.0980058 0 0.219534 0.373869 0.441123 0.118362 0.471506 0 0.53789 0.169353 0 0 0.126997 0.118362 0.507249 0.2103 0.455411 0.500709 0.126997 0.385721 0.25095 0 0.253994 0.70552 0.2103 0.399818 0.781596 1.38978 0.25095 0.590375 0.225003 0.0980058 0.444537 0.0980058 0.573686 0.126997 0 0.218611 0.400665 0 0 0.498671 0.465205 0.308306 0.71465 0.702655 0.219534 0.490223 0.118362 0.429657 0.219534 0.216368 0.789681 0 0.55361 0 0.66464 0.591643 0.512959 0 0 0.225003 0.810799 0 0.2103 0.471875 0.118362 0.343117 0.421022 0.196012 0.225003 0.225003 0.126997 0.308306 0.467319 0.294017 0.118362 0 0.377948 0.219534 0.328662 0.399818 1.42085 0 0 0 0.399818 0 0.216368 0.397464 0.0980058 0 0.196012 0 0.545349 0.253994 0.0980058 0 0.245112 0.527662 0.0980058 0.126997 0.118362 1.35528 0.216368 0.118362 0.31754 0 0.517534 0.126997 0.30266 0.0980058 0.299458 0.372109 0.25095 0 0.0980058 0.727463 0.588229 0.352 0 0.423347 0.255598 0.0980058 0.31754 0.605319 0.762646 0.219534 0.818885 0.47568 0.255598 0 0.30266 0.82346 0.337896 0.674945 0 0.53789 0.30266 0.118362 0.406344 0.0980058 0.0980058 0.600099 0.600099 0.435902 0.0980058 0.236725 0 0 0.2103 0.118362 0 0.126997 0 0.272821 1.07206 0.0980058 0.0980058 0.636754 0.486163 0.169353 0 0.0980058 0.126997 0.622712 0.169353 0 0 0 0 0.353604 0.429834 0 0 0.372109 0.516253 0.275863 0 0.478997 0.0980058 0.2103 0.0980058 0.0980058 0.545643 0.421022 0.219534 0 0 0.216368 0.853654 0.0980058 0 0.118362 0.126997 2.28105 0.429657 0.275863 0.0980058 0 0.126997 0.126997 0.880407 0.500866 0.30266 0.575321 0.617034 0.0980058 0.323009 0.2103 0.31754 0.299458 0.705769 0.419528 0.372356 0.363722 0.343365 0 0.275863 0.61722 1.09217 0.30266 0.882147 0.245112 0.536484 0.118362 0.390538 0.751543 0.673522 0 0.370827 0.825102 0.733655 1.11218 0.299458 0.85822 0.0980058 0.925807 0 0.216368 0.118362 0.118362 0 0.435303 0.394225 0.225003 0.30266 0.245359 0.865146 0.196012 0.400665 0 0.126997 0.118362 0.196012 0.406344 0 0.0980058 0.337297 0.118362 0 0.0980058 0.126997 0 0.337297 0.2103 0.0980058 0.118362 0 0.343117 0 0.0980058 0.126997 0.504945 0 0.126997 0.245112 0 0.126997 0.722188 0.912822 0.0980058 0 0.647689 0 0 1.37416 0 0.126997 0.616611 0.126997 0.483121 0.551771 0.126997 0.600099 0.219534 0 0.169353 0 0.372109 0 0.126997 0 0.196012 0.267359 1.36135 0.0980058 0.373869 0.845458 0 0 0.2103 0.426455 0 0.25095 0.126997 0.225003 0.126997 0 0.126997 0 1.56018 0.87494 1.0916 0.590361 0.275863 0.2103 0.746784 0.517534 0.30266 0.2103 0.308306 0 0.533341 1.26472 0.196012 0.308306 0.30266 0.316616 0 0 0 0.118362 0.308306 0.118362 0.0980058 0.482723 0.2103 0.245112 1.32289 0.126997 0 0.839791 0.64493 0.196012 0.118362 0 0.512959 0.0980058 0.126997 0.727096 0 0.431321 0 0 1.31533 0.126997 0.314374 0.29635 0.455411 0.406344 0 0.219534 0 0 0.169353 0.0980058 0.2103 0 0.2103 0.126997 0.74645 0 0.372109 0 0.118362 0.379653 0.490223 0.328662 0.2103 0 0 0.196012 0.2103 0 0.490223 0 0 0.219534 0.118362 0.346531 1.57631 0.536484 0.30266 0.372356 0.923474 0.30266 0.85446 0.421022 0.272423 0.126997 0 0.953941 0.423347 0.372356 0 0.0980058 0.446962 0.118362 0.272821 0.299458 0 0.30266 0.253994 0.126997 0.275863 0.548019 0.30266 0.598503 0.255598 0.0980058 0.496036 0.630833 0.30266 0.373869 0.397464 0.0980058 0 0.29635 0.169353 0.864464 0.323009 0.0980058 0.275863 0 0.308306 0.337297 0.219534 0 0 0.245112 0.118362 0 0 0.2103 0.126997 0.196012 0.245359 0 0 0.492231 0 0.216368 0.30266 1.72153 0 0.308306 0.0980058 0 0.372109 0.546525 0 0.275863 0 0.2103 0 0.0980058 0 0 0.245112 0 0.216368 0 0.308306 0.337896 0.547597 0.572279 0.2103 0 0.394225 0.429657 0.420599 0.225003 0.0980058 0.600099 0.0980058 0.588477 0.732316 0 0.435303 0 0 0.118362 0.245112 0.269193 0.758071 0.118362 0.579842 0.218611 0 0.379653 0.328662 0 0.651456 0 0.2103 0.299458 0.219534 0.0980058 0.509592 0.394356 0.0980058 0 0 0.2103 0.0980058 0.727463 0 0 0.337297 0.783002 0.421022 0 0.118362 0.169353 0.118362 0.0980058 0.0980058 0.25095 0.653061 0.308306 0.343117 0.30266 0.365365 0.255598 0.126997 0.316616 0.455411 0.126997 0.31754 0.2103 0.517933 0.399818 1.27153 0.675193 0.2103 0.126997 0 0 0.605319 0.455411 0 0.218611 0 0.225003 0 0 0.588229 0 0.126997 0 0.517534 0.430099 0.50435 0 0.30266 0.0980058 0.225003 0.126997 0.225003 0.219534 0 0.400665 0.545643 0.2103 0.581127 0 0.225003 0.126997 0.610965 0 0.432736 0.126997 0.294017 0.287715 0.126997 0.253994 0.275863 0.275863 0.126997 0.196012 0.219534 0 0.314374 0.196012 0.372109 0 0.308306 0.0980058 0.796856 0.492355 0.0980058 0 0.294017 0.126997 0.0980058 0.245112 0 0.0980058 0.225003 0.0980058 0.225003 0 0.547771 0.625845 0.850431 0.797097 0.554264 0.372109 0.667047 0.431321 0.25095 0 0.126997 0.225003 0.0980058 0.2103 0.798722 0.126997 0.275863 0.784893 0.216368 0 0.520975 0 0 0.419528 1.11892 0.430099 0.518605 0.2103 0 0.533908 0.196012 0 0.453093 0.0980058 0.30266 0.0980058 0.243432 0.528105 0 0.343117 0 0.245359 0.236725 0 0.731522 0.675016 0.126997 0.512959 0.314374 1.28773 0.316616 0.275863 0 0.0980058 0.2103 0 0.225003 0.126997 0.400665 0.53789 0 0 0.926734 0.0980058 0.126997 0.118362 0 0 0.420599 0.245112 0.343365 0.749429 0 0 0.0980058 0.216368 0 0.562295 0 0 0.598503 0.25095 0.118362 0.545349 0.196012 0.36496 0 0 0.420599 0 0.0980058 0.533341 0 0.126997 0.225003 0.126997 0.287715 0.236725 0 0 0.126997 0.46148 0.643354 0.126997 0.394225 1.02721 0.518181 0.420599 0.992481 0 0.516412 0.2103 0.216368 0.30266 0.382595 0.30266 0.394356 1.4478 0 0.225003 0 0.0980058 0 0.846196 0 0 0.559486 0 0.0980058 0.126997 0.225003 0.225003 0.400665 0.547597 0 0.470362 0 0.337896 0.30266 0.53789 0 0.225003 0 0.639956 0.659576 0.0980058 0 0.126997 0.308306 0.54018 0 1.08893 0.0980058 0.0980058 1.14499 0 0 0 0.524461 0.337297 0.581127 0.406311 0.169353 0.219534 0.2103 0 0.126997 0 0 0.126997 0.370827 0.429657 0.0980058 0.2103 0 0.716626 0.0980058 0.272821 0 0 0.126997 0.588229 0.774439 0.245112 0.2103 0.118362 0.2103 0.245112 0.746784 0.429657 0.597112 0.126997 0.385721 0.216368 0.39619 0.693836 0.598503 0.545643 0.801942 0.435303 0.397464 0.245112 0.2103 0 0 0 0.126997 0 0.253994 0 0.337297 0 0 0 0.225003 1.07567 0.490471 0.118362 0.126997 0.698105 0.255598 0.196012 0.0980058 0.126997 0 0.533341 0 0.219534 0 0.486163 0 0.126997 0 0 0.126997 0.0980058 0.421022 0.2103 0 0.53789 0 0.522193 0 0.0980058 0.196012 0.2103 0.0980058 0.145426 0 0.363474 0.126997 1.1923 0.410345 0.225003 0.219534 0.0980058 0.118362 0.513551 0 0.236725 0.0980058 0.253994 0.879606 0.308306 0.643354 0.388887 0.219534 0.343117 0.839144 0.118362 0.126997 0 0.0980058 0.2103 0.0980058 0.0980058 0.126997 0.245112 0.373869 0.30266 0.118362 0.2103 0.421022 0.548019 0 0.30266 0.219534 0.196012 0 0.2103 0.308306 0.2103 0.126997 0 0.66464 0.0980058 0.25095 0.126997 0 0 0.613759 0.370827 0.236725 0 0.622712 0.31754 0.126997 0 0.219534 0 0.40286 0.0980058 0.0980058 0 0 0.219534 0 0 0 0.31754 0.477659 0.328662 0 0.308306 0.225003 1.14499 0.343365 0.299458 0.517534 0 0 0.0980058 0.219534 0.498015 0.253994 0.118362 0.90532 0.145426 0.0980058 0.512959 0.654837 0 0 0.343365 0.2103 0.854831 0.2103 0 0 0.40286 0.337896 0 0.126997 0.40286 0.219534 0.426455 0.2103 0 0 0.337297 0 0 0.126997 0.30266 0.126997 0 0.308306 0.225003 0.692349 0.118362 0 0.245112 0 0.0980058 0.523772 0.219534 0.126997 0.118362 0.421015 0 0 0.245112 0.0980058 0.590375 0 0 0.218611 0.196012 0.666133 0.253994 0.517534 0.2103 0 0.681806 0.245112 0 0.225003 0.225003 0 0.255598 0.468833 0.225003 0.727463 0.196012 0 0.245112 0.30266 0.753522 0.30266 0 0.423347 0.2103 0.245112 0.698105 0 0.126997 0.363474 1.24499 0.592479 0.537074 0.66464 0.0980058 0.470115 0.196012 0.126997 0.30266 0.126997 0 0.328662 0.0980058 0.444537 0.118362 0.578523 0.426668 0.61554 0.126997 0 0 0 0.353604 0.31754 0.370827 0.380991 0.126997 0.2103 0 0.464294 0.470115 0 0.871085 0.370429 0.0980058 0.225003 0.267359 0.348956 0.640399 0.521223 0.0980058 0 0 0 0.169353 0 0.0980058 0.118362 0.31754 1.24299 0.793131 0.948861 0.0980058 0.0980058 0.225003 0.169353 0.400665 0.482084 0 0.225003 0.582408 0 0.272821 0.0980058 0.674594 0.919037 0.126997 0 0 0 1.00157 0.126997 0.343365 0.767305 0.397464 0.343117 0.118362 0.483121 0.272821 0.31754 0.219534 0.575321 0 0.456259 0.490719 0.169353 0 0.126997 0.216368 0.400665 0 0.528105 0.695391 0.118362 0.0980058 0 0.225003 0.406344 0.60649 0.126997 0.245112 0.343117 0.328662 0.739627 0.253994 0.323009 0 0.0980058 0 0.31754 0.622394 0.126997 0.527839 0 0.287715 0.573774 0 0.25095 0.30266 0.225003 0.414465 0.722188 0.0980058 0.196012 0.126997 0.0980058 0.629828 0.41238 0.118362 0.0980058 0 0.687958 0.308306 0.126997 0.225003 0.0980058 0.337297 0.118362 0.0980058 0.385721 0 0.0980058 0 0.328662 0.2103 0.885493 0.30266 0 0.126997 0.397464 0 0.337297 0.126997 0.118362 0.245359 0 2.28997 0.126997 0.126997 0.743317 0.370827 0.391184 0.216368 0.742537 1.06555 1.11303 0.365365 0.31754 0 0.2103 0.225003 0.573686 0.0980058 0.30266 0.512471 0.946344 0 0 0.441123 0.2103 0.406311 0 0.126997 0.272821 0.225003 0.610965 0.562651 0.30266 0.363722 0.253994 0 0.780213 0.831156 0.126997 0.0980058 1.14491 0.126997 0.216368 0.657262 0 0 0.435902 0 0.337297 0.588725 0.546525 0.50665 0.509757 0.216368 0.346531 0 0.394356 0.59189 0.363474 1.09877 0.245112 0.722188 0.216368 0.820432 0.675193 0.126997 0 0.31754 0.406344 0.30266 0 0.943261 0.169353 0 0.287715 0.406344 0 0.665959 1.01798 0.686253 0 0 0.497824 0.370827 0.245359 0.629828 0.435902 0 0.774969 0.723018 0.314374 0.169353 0.2103 0.196012 0.421022 0.700123 1.236 0.346531 0.524707 0 0.512959 0.730182 0 0.430099 0.308306 0.308306 0.169353 0 0.588229 1.13232 0 0.0980058 0.225003 0.517534 0.2103 0.225003 0 0.346531 0.126997 0 0.225003 0.126997 0 0.323009 0.598503 0.294017 0.675193 0.61554 0.426668 0.618981 0.2103 0.236725 0.245112 0.126997 0.363474 0 0.245359 0.0980058 0.536484 0.0980058 0.532827 0 0 0 0.455659 0 0.219534 0 0.343117 0.216368 1.51959 0.370827 0.702655 0.314374 0.0980058 0.169353 0.31754 0.766059 0.2103 0.118362 0.219534 0.0980058 0.430099 0.308306 0.126997 0 0.2103 0.126997 0.365365 0.30266 0.118362 0.126997 0.604525 0.196012 0.30266 0.463722 0.751817 0.373869 0.0980058 0.972208 0.343117 0 0.343117 0.245112 0.671779 0.0980058 0.0980058 0.917751 0 0 0.126997 0 0.737068 0.718986 0.419528 0.671779 0.346531 0.0980058 0.689648 0.126997 0.267359 0.225003 0.126997 0.524707 0.59901 0.678768 0.400665 1.51541 0.0980058 0 0.275863 0.517535 0.372109 0.426668 0.497824 0.372109 0 0.529327 0.236725 0.400665 0.867578 0.118362 0.363722 0.565387 0.225003 0.845825 0.363474 0.498015 0.623085 0.66464 0.419528 0.253994 0.343117 0.126997 0.575481 0.643648 0.394225 0.732316 0.0980058 0.492231 0.972326 0.655436 0.490223 0.299458 0 0.399818 0 0.29635 0.663481 0.126997 0.588881 0.272821 1.03724 0.455411 0.196012 0.118362 0.429834 1.23505 0.522193 0.0980058 0.512588 0.126997 0.245112 0 0.2103 0.118362 0.245359 0.483121 0.272821 0.337297 0.757896 0.196012 0.435902 0.126997 0.126997 0.839733 0.0980058 0.419528 0.435303 0.169353 0.0980058 0 0.219534 0 0.5623 0.521223 0.455411 0 0.225003 0.346531 0.314374 0 0.126997 0.674768 0.0980058 0.126997 0.439068 0.236725 0.646202 0.363474 0.236725 0 0.569881 0.429657 0.771925 0.118362 0.118362 0.275863 0 0 0.559733 0.789552 1.10487 0.245112 1.25984 0.708723 0.0980058 0.337896 0.82346 0.510386 0.482723 0.126997 0.343365 0 0 0.337896 0.61554 0.269193 0.225003 2.30774 0.379653 1.37032 0.308306 0.377674 0.126997 0.548196 0.958912 0.726948 0.639337 0.346531 0.0980058 0.0980058 0.31754 0 0.236725 0.686483 0.118362 0.126997 0 0.225003 0.245112 0.343117 0.482723 0.400665 0.518992 0.126997 0.372356 0.419528 0.219534 0.377674 0.372356 0.216368 0.792708 0.836567 0 0.323009 0.118362 0.664845 0 0.126997 0.541939 0 0.0980058 0 0 0.41782 0 0.219534 0.0980058 0.423347 0.346531 0.864959 0.610118 0.343117 0 0.839144 0.435303 0.225003 0.216368 0.118362 0.964877 0.126997 0.196012 0 0.845645 0.245112 0.69406 0.435902 0.519028 0.216368 1.10393 0.793821 1.10097 0.363722 0.522193 0.337896 0.852875 0.118362 0.671779 0.876681 0.0980058 0.562899 0.346531 0.31754 0.379653 0.287715 0.346531 0.734301 0.225003 1.0943 0.999519 0.498671 0 0.394356 0.842333 0.126997 0.741421 0.126997 0.118362 0.126997 0.245359 1.52095 0.504317 0.373869 0.370429 0.539129 0.0980058 0.218611 0.352 0.343117 0.255598 0.481836 0.400665 0.118362 0.781596 0 0.2103 0.219534 0.470115 0.196012 0.29635 0.537074 0.465995 1.09119 0.118362 0.397464 0.263789 0.126997 0.551099 0.337297 0.118362 1.67829 0.631347 0.400665 0.607899 1.27413 0.337297 0 0.272821 0.808011 0.518605 0.287715 0.323009 0.867578 0.2103 0.314374 0.196012 0.421022 0.702695 0.272821 0.0980058 0.743783 0.498015 1.53764 0.399818 0.196012 0.314374 1.5252 0.644531 0.435902 0.853369 0.482084 0 0.874816 0.219534 0.923474 0 1.04706 0.30266 0.579842 0.913253 0.456259 0.527662 0.517933 0.352 0.618981 1.25932 0.245112 0 0.0980058 0.527662 0.126997 1.79119 0.0980058 0.0980058 1.07248 0.536484 0.225003 0 0.196012 0.546525 0.0980058 0.118362 0.845375 0.662932 0.749195 0 1.27584 0.372109 0.936303 0.54018 0.118362 0.37396 0.216368 0.423347 0.975856 0.742537 0.47568 0.627706 0.893021 0.499106 0.602117 0.225003 1.2836 0.216368 0.453732 0.499106 0.25095 0.548462 0.529857 0.29635 0.245359 1.1733 0.891541 0.245112 0.118362 0.874569 0.470115 0.2103 0.316616 0.337297 0.854831 0.870181 0.738405 0.746784 0.337297 0 0.429657 0.643561 0 0.337297 0.528105 0.216368 0.829371 0.556831 0.740581 0.825547 0.372109 0.216368 0.504671 0.225003 0.680414 0.806163 0.126997 1.1432 0.582408 0.253994 0.426455 0.461728 0.245359 0.752665 0.697016 0.499106 0.126997 0.645278 1.31676 0.373869 0.400665 0.610965 0.126997 1.31777 0.826374 0.429657 1.341 0.0980058 0.5623 0.819381 0.738562 0.966078 0.464294 0 0.455411 0.419528 0.664888 0.939345 0.438144 0.118362 0.463371 0.533308 1.14609 0.475953 0.429834 0.646025 0.343365 0.470362 0.961472 0.790142 0.752842 0.337297 0.31754 0.881256 0.56812 0.352 1.58249 0.619228 0.216368 0.380991 0.372109 1.13411 1.84854 1.00326 1.11465 1.14431 0.663711 0.527662 0.911493 1.06775 0.53339 1.07263 1.41749 0.749684 1.0428 0.447024 1.09371 0.414712 0.216368 0.590375 0.750304 0.80613 0.0980058 0.323009 0.549006 0.862145 1.06536 0.444537 0.726125 0.308306 0.287715 0.825102 0.126997 0.752852 0.196012 0.860484 0 1.21191 1.62682 0.623059 0.885068 0.987792 0.421022 0.415546 1.28878 0.967125 0.654846 0.99487 0.698204 1.06949 0.118362 0.363474 0.533908 0.126997 1.9558 0.597359 0.782433 1.53443 0.772774 1.1092 0.461728 1.0282 0.66296 1.36993 0.470362 0.527839 1.14251 0.972016 0.216368 1.31538 1.34007 1.64531 0.927534 1.95481 0.63643 0.575481 0.0980058 1.88041 0.343365 0.225003 1.12853 0.372109 0.545349 0.527839 1.29687 2.36079 1.70696 0.797495 0.470115 0.792033 1.1075 2.04077 1.24165 0.126997 1.56338 0.664888 0.803563 1.50615 0.533309 1.18043 1.91896 0.370827 0.372109 1.22321 1.19084 0.631322 1.08127 0.391184 1.22275 2.125 0.41238 1.21665 1.25319 1.37686 0.253994 1.89994 1.89476 1.21432 1.84355 0.758319 1.08494 1.14513 0.56812 0.225003 0.665959 1.65551 1.12984 0.798777 0.337297 1.51876 1.62953 0.809902 0.773465 1.26281 1.13412 3.3996 0.728839 0.646025 2.34436 1.1561 0.988295 1.44302 2.06873 1.82968 0.608833 0.553341 1.25649 2.78903 0.81348 0.800484 1.7657 0.423347 1.31191 2.11388 1.59906 0.879663 1.63149 1.43662 1.12644 1.18131 1.52386 1.25936 0.574021 0.820833 0.636968 0.953436 1.10488 1.39794 2.16252 2.21023 1.521 0.377948 1.03578 1.56025 1.32489 0.664888 3.57341 2.01384 1.39738 1.4781 1.5448 0.216368 1.56729 3.60335 2.20043 1.65588 3.73794 3.58966 2.8809 2.60075 1.12994 2.77843 2.84952 1.30479 2.87668 1.09279 2.10878 2.09422 0.925961 1.28416 3.05351 1.98356 2.0507 2.51197 1.99867 2.69089 1.47265 1.4455 3.57127 2.17458 1.6959 2.53395 2.73114 2.64755 1.68969 2.16354 1.82272 3.45624 3.1764 3.35592 2.66984 2.53952 2.93235 3.00075 2.45696 3.63138 3.57268 3.4889 4.23534 2.66328 3.0416 4.31486 5.48657 3.01839 3.17412 5.29452 4.3265 4.86492 5.23231 4.58848 5.19468 7.06259 5.72774 5.92402 6.56643 4.12527 4.94488 8.05569 4.76675 3.33516 1.92048 3.09552 2.35817 1.09086 2.38809 0.219534 0 0 0 0 
      </Histogram>
    </PDF>
  </MVAPdfs>
  <Weights NTrees="1000" TreeType="1">
    <BinaryTree type="DecisionTree" boostWeight="1.0000000000000000e+00" itree="0">
      <Node pos="s" depth="0" Seq="0" IVar="4" Cut="1.1901443451642990e-01" cType="0" nS="1.2637132031250000e+05" nB="6.6523544921875000e+03" nEv="1.3302367187500000e+05" nSuw="1.2631600000000000e+05" nBuw="6.6570000000000000e+03" nEvuw="1.3297300000000000e+05" sepI="4.7507919371128082e-02" sepG="5.4347235709428787e-03" res="4.4999119639396667e-01" rms="2.1796311438083649e-01" nType="0" CC="0.0000000000000000e+00">
        <Node pos="l" depth="1" Seq="0" IVar="-1" Cut="0.0000000000000000e+00" cType="1" nS="1.1995886718750000e+05" nB="3.6701315917968750e+03" nEv="1.2362899218750000e+05" nSuw="1.2074200000000000e+05" nBuw="3.6020000000000000e+03" nEvuw="1.2434400000000000e+05" sepI="2.8805358335375786e-02" sepG="-1.0000000000000000e+00" res="6.1362873762845993e-02" rms="1.6972140967845917e-01" nType="1" CC="0.0000000000000000e+00"/>
        <Node pos="r" depth="1" Seq="1" IVar="9" Cut="-4.9797901883721352e-03" cType="0" nS="6.4124555664062500e+03" nB="2.9822226562500000e+03" nEv="9.3946787109375000e+03" nSuw="5.5740000000000000e+03" nBuw="3.0550000000000000e+03" nEvuw="8.6290000000000000e+03" sepI="2.1667091548442841e-01" sepG="4.6398848295211792e-02" res="1.8256254494190216e-01" rms="4.6547922492027283e-01" nType="0" CC="0.0000000000000000e+00">
          <Node pos="l" depth="2" Seq="1" IVar="-1" Cut="0.0000000000000000e+00" cType="1" nS="5.2371259765625000e+03" nB="1.0395194091796875e+03" nEv="6.2766455078125000e+03" nSuw="4.5920000000000000e+03" nBuw="1.2380000000000000e+03" nEvuw="5.8300000000000000e+03" sepI="1.3818803429603577e-01" sepG="-1.0000000000000000e+00" res="3.9398681372404099e-02" rms="3.7173652648925781e-01" nType="1" CC="0.0000000000000000e+00"/>
          <Node pos="r" depth="2" Seq="3" IVar="-1" Cut="0.0000000000000000e+00" cType="1" nS="1.1753297119140625e+03" nB="1.9427032470703125e+03" nEv="3.1180329589843750e+03" nSuw="9.8200000000000000e+02" nBuw="1.8170000000000000e+03" nEvuw="2.7990000000000000e+03" sepI="2.3485767841339111e-01" sepG="-1.0000000000000000e+00" res="-1.4738386496901512e-02" rms="4.8462116718292236e-01" nType="-1" CC="0.0000000000000000e+00"/>
        </Node>
      </Node>
    </BinaryTree>
    <BinaryTree type="DecisionTree" boostWeight="1.0000000000000000e+00" itree="1">
      <Node pos="s" depth="0" Seq="0" IVar="4" Cut="1.1901443451642990e-01" cType="0" nS="1.2637132031250000e+05" nB="6.6523544921875000e+03" nEv="1.3302367187500000e+05" nSuw="1.2631600000000000e+05" nBuw="6.6570000000000000e+03" nEvuw="1.3297300000000000e+05" sepI="4.6404816210269928e-02" sepG="4.7078160569071770e-03" res="4.2075604200363159e-01" rms="2.1541777253150940e-01" nType="0" CC="0.0000000000000000e+00">
        <Node pos="l" depth="1" Seq="0" IVar="-1" Cut="0.0000000000000000e+00" cType="1" nS="1.1995886718750000e+05" nB="3.6701315917968750e+03" nEv="1.2362899218750000e+05" nSuw="1.2074200000000000e+05" nBuw="3.6020000000000000e+03" nEvuw="1.2434400000000000e+05" sepI="2.8805358335375786e-02" sepG="-1.0000000000000000e+00" res="5.7581085711717606e-02" rms="1.6972140967845917e-01" nType="1" CC="0.0000000000000000e+00"/>
        <Node pos="r" depth="1" Seq="1" IVar="9" Cut="-4.7345743514597416e-03" cType="0" nS="6.4124555664062500e+03" nB="2.9822226562500000e+03" nEv="9.3946787109375000e+03" nSuw="5.5740000000000000e+03" nBuw="3.0550000000000000e+03" nEvuw="8.6290000000000000e+03" sepI="2.1134419739246368e-01" sepG="4.1119769215583801e-02" res="1.7185372114181519e-01" rms="4.5972186326980591e-01" nType="0" CC="0.0000000000000000e+00">
          <Node pos="l" depth="2" Seq="1" IVar="-1" Cut="0.0000000000000000e+00" cType="1" nS="5.1981684570312500e+03" nB="1.0148845214843750e+03" nEv="6.2130532226562500e+03" nSuw="4.5560000000000000e+03" nBuw="1.2150000000000000e+03" nEvuw="5.7710000000000000e+03" sepI="1.3666485249996185e-01" sepG="-1.0000000000000000e+00" res="3.7439480423927307e-02" rms="3.6968210339546204e-01" nType="1" CC="0.0000000000000000e+00"/>
          <Node pos="r" depth="2" Seq="3" IVar="-1" Cut="0.0000000000000000e+00" cType="1" nS="1.2142869873046875e+03" nB="1.9673382568359375e+03" nEv="3.1816252441406250e+03" nSuw="1.0180000000000000e+03" nBuw="1.8400000000000000e+03" nEvuw="2.8580000000000000e+03" sepI="2.3575928807258606e-01" sepG="-1.0000000000000000e+00" res="-1.3330440968275070e-02" rms="4.8555049300193787e-01" nType="-1" CC="0.0000000000000000e+00"/>
        </Node>
      </Node>
    </BinaryTree>
    <BinaryTree type="DecisionTree" boostWeight="1.0000000000000000e+00" itree="2">
      <Node pos="s" depth="0" Seq="0" IVar="4" Cut="1.0975150763988495e-01" cType="0" nS="1.2637132031250000e+05" nB="6.6523544921875000e+03" nEv="1.3302367187500000e+05" nSuw="1.2631600000000000e+05" nBuw="6.6570000000000000e+03" nEvuw="1.3297300000000000e+05" sepI="4.5444846153259277e-02" sepG="4.0869205258786678e-03" res="3.9351031184196472e-01" rms="2.1317797899246216e-01" nType="0" CC="0.0000000000000000e+00">
        <Node pos="l" depth="1" Seq="0" IVar="-1" Cut="0.0000000000000000e+00" cType="1" nS="1.2089909375000000e+05" nB="3.8864716796875000e+03" nEv="1.2478556250000000e+05" nSuw="1.2156500000000000e+05" nBuw="3.8180000000000000e+03" nEvuw="1.2538300000000000e+05" sepI="3.0047984793782234e-02" sepG="-1.0000000000000000e+00" res="5.4176766425371170e-02" rms="1.7334353923797607e-01" nType="1" CC="0.0000000000000000e+00"/>
        <Node pos="r" depth="1" Seq="1" IVar="9" Cut="-6.4020399004220963e-03" cType="0" nS="5.4722265625000000e+03" nB="2.7658825683593750e+03" nEv="8.2381093750000000e+03" nSuw="4.7510000000000000e+03" nBuw="2.8390000000000000e+03" nEvuw="7.5900000000000000e+03" sepI="2.1267363429069519e-01" sepG="3.7753965705633163e-02" res="1.4470106363296509e-01" rms="4.6116551756858826e-01" nType="0" CC="0.0000000000000000e+00">
          <Node pos="l" depth="2" Seq="1" IVar="-1" Cut="0.0000000000000000e+00" cType="1" nS="4.5503876953125000e+03" nB="1.0408153076171875e+03" nEv="5.5912031250000000e+03" nSuw="3.9920000000000000e+03" nBuw="1.2270000000000000e+03" nEvuw="5.2190000000000000e+03" sepI="1.5027490258216858e-01" sepG="-1.0000000000000000e+00" res="3.3235903829336166e-02" rms="3.8765308260917664e-01" nType="1" CC="0.0000000000000000e+00"/>
          <Node pos="r" depth="2" Seq="3" IVar="-1" Cut="0.0000000000000000e+00" cType="1" nS="9.2183905029296875e+02" nB="1.7250671386718750e+03" nEv="2.6469062500000000e+03" nSuw="7.5900000000000000e+02" nBuw="1.6120000000000000e+03" nEvuw="2.3710000000000000e+03" sepI="2.2697813808917999e-01" sepG="-1.0000000000000000e+00" res="-1.6416439786553383e-02" rms="4.7642222046852112e-01" nType="-1" CC="0.0000000000000000e+00"/>
        </Node>
      </Node>
    </BinaryTree>
    <BinaryTree type="DecisionTree" boostWeight="1.0000000000000000e+00" itree="3">
      <Node pos="s" depth="0" Seq="0" IVar="4" Cut="8.1962712109088898e-02" cType="0" nS="1.2637132031250000e+05" nB="6.6523544921875000e+03" nEv="1.3302367187500000e+05" nSuw="1.2631600000000000e+05" nBuw="6.6570000000000000e+03" nEvuw="1.3297300000000000e+05" sepI="4.4641964137554169e-02" sepG="3.5942206159234047e-03" res="3.6810705065727234e-01" rms="2.1128645539283752e-01" nType="0" CC="0.0000000000000000e+00">
        <Node pos="l" depth="1" Seq="0" IVar="-1" Cut="0.0000000000000000e+00" cType="1" nS="1.2310389062500000e+05" nB="4.4820019531250000e+03" nEv="1.2758589062500000e+05" nSuw="1.2351100000000000e+05" nBuw="4.4520000000000000e+03" nEvuw="1.2796300000000000e+05" sepI="3.3269066363573074e-02" sepG="-1.0000000000000000e+00" res="5.0943575799465179e-02" rms="1.8239809572696686e-01" nType="1" CC="0.0000000000000000e+00"/>
        <Node pos="r" depth="1" Seq="1" IVar="9" Cut="-4.3422295711934566e-03" cType="0" nS="3.2674313964843750e+03" nB="2.1703522949218750e+03" nEv="5.4377836914062500e+03" nSuw="2.8050000000000000e+03" nBuw="2.2050000000000000e+03" nEvuw="5.0100000000000000e+03" sepI="2.2355765104293823e-01" sepG="3.9990678429603577e-02" res="7.7709652483463287e-02" rms="4.7281882166862488e-01" nType="0" CC="0.0000000000000000e+00">
          <Node pos="l" depth="2" Seq="1" IVar="-1" Cut="0.0000000000000000e+00" cType="1" nS="2.4752436523437500e+03" nB="5.8524487304687500e+02" nEv="3.0604885253906250e+03" nSuw="2.1290000000000000e+03" nBuw="7.2700000000000000e+02" nEvuw="2.8560000000000000e+03" sepI="1.5465858578681946e-01" sepG="-1.0000000000000000e+00" res="3.0470132827758789e-02" rms="3.9326655864715576e-01" nType="1" CC="0.0000000000000000e+00"/>
          <Node pos="r" depth="2" Seq="3" IVar="-1" Cut="0.0000000000000000e+00" cType="1" nS="7.9218768310546875e+02" nB="1.5851075439453125e+03" nEv="2.3772951660156250e+03" nSuw="6.7600000000000000e+02" nBuw="1.4780000000000000e+03" nEvuw="2.1540000000000000e+03" sepI="2.2078311443328857e-01" sepG="-1.0000000000000000e+00" res="-1.7842028290033340e-02" rms="4.6987563371658325e-01" nType="-1" CC="0.0000000000000000e+00"/>
        </Node>
      </Node>
    </BinaryTree>
    <BinaryTree type="DecisionTree" boostWeight="1.0000000000000000e+00" itree="4">
      <Node pos="s" depth="0" Seq="0" IVar="4" Cut="1.1901443451642990e-01" cType="0" nS="1.2637132031250000e+05" nB="6.6523544921875000e+03" nEv="1.3302367187500000e+05" nSuw="1.2631600000000000e+05" nBuw="6.6570000000000000e+03" nEvuw="1.3297300000000000e+05" sepI="4.4001583009958267e-02" sepG="3.2447257544845343e-03" res="3.4441658854484558e-01" rms="2.0976553857326508e-01" nType="0" CC="0.0000000000000000e+00">
        <Node pos="l" depth="1" Seq="0" IVar="-1" Cut="0.0000000000000000e+00" cType="1" nS="1.1995886718750000e+05" nB="3.6701315917968750e+03" nEv="1.2362899218750000e+05" nSuw="1.2074200000000000e+05" nBuw="3.6020000000000000e+03" nEvuw="1.2434400000000000e+05" sepI="2.8805358335375786e-02" sepG="-1.0000000000000000e+00" res="4.9384225159883499e-02" rms="1.6972140967845917e-01" nType="1" CC="0.0000000000000000e+00"/>
        <Node pos="r" depth="1" Seq="1" IVar="9" Cut="-7.5300307944417000e-03" cType="0" nS="6.4124555664062500e+03" nB="2.9822226562500000e+03" nEv="9.3946787109375000e+03" nSuw="5.5740000000000000e+03" nBuw="3.0550000000000000e+03" nEvuw="8.6290000000000000e+03" sepI="1.9803224503993988e-01" sepG="2.9537729918956757e-02" res="1.3777954876422882e-01" rms="4.4500812888145447e-01" nType="0" CC="0.0000000000000000e+00">
          <Node pos="l" depth="2" Seq="1" IVar="-1" Cut="0.0000000000000000e+00" cType="1" nS="5.5497490234375000e+03" nB="1.2817550048828125e+03" nEv="6.8315039062500000e+03" nSuw="4.8600000000000000e+03" nBuw="1.4770000000000000e+03" nEvuw="6.3370000000000000e+03" sepI="1.4884886145591736e-01" sepG="-1.0000000000000000e+00" res="2.9334168881177902e-02" rms="3.8580936193466187e-01" nType="1" CC="0.0000000000000000e+00"/>
          <Node pos="r" depth="2" Seq="3" IVar="-1" Cut="0.0000000000000000e+00" cType="1" nS="8.6270642089843750e+02" nB="1.7004677734375000e+03" nEv="2.5631743164062500e+03" nSuw="7.1400000000000000e+02" nBuw="1.5780000000000000e+03" nEvuw="2.2920000000000000e+03" sepI="2.2085508704185486e-01" sepG="-1.0000000000000000e+00" res="-1.7120165750384331e-02" rms="4.6995222568511963e-01" nType="-1" CC="0.0000000000000000e+00"/>
        </Node>
      </Node>
    </BinaryTree>
    <BinaryTree type="DecisionTree" boostWeight="1.0000000000000000e+00" itree="5">
      <Node pos="s" depth="0" Seq="0" IVar="4" Cut="1.1901443451642990e-01" cType="0" nS="1.2637132031250000e+05" nB="6.6523544921875000e+03" nEv="1.3302367187500000e+05" nSuw="1.2631600000000000e+05" nBuw="6.6570000000000000e+03" nEvuw="1.3297300000000000e+05" sepI="4.3335758149623871e-02" sepG="2.8174165636301041e-03" res="3.2226589322090149e-01" rms="2.0817242562770844e-01" nType="0" CC="0.0000000000000000e+00">
        <Node pos="l" depth="1" Seq="0" IVar="-1" Cut="0.0000000000000000e+00" cType="1" nS="1.1995886718750000e+05" nB="3.6701315917968750e+03" nEv="1.2362899218750000e+05" nSuw="1.2074200000000000e+05" nBuw="3.6020000000000000e+03" nEvuw="1.2434400000000000e+05" sepI="2.8805360198020935e-02" sepG="-1.0000000000000000e+00" res="4.7325361520051956e-02" rms="1.6972142457962036e-01" nType="1" CC="0.0000000000000000e+00"/>
        <Node pos="r" depth="1" Seq="1" IVar="9" Cut="-4.2441436089575291e-03" cType="0" nS="6.4124555664062500e+03" nB="2.9822226562500000e+03" nEv="9.3946787109375000e+03" nSuw="5.5740000000000000e+03" nBuw="3.0550000000000000e+03" nEvuw="8.6290000000000000e+03" sepI="1.9465500116348267e-01" sepG="2.6727695018053055e-02" res="1.2971533834934235e-01" rms="4.4119721651077271e-01" nType="0" CC="0.0000000000000000e+00">
          <Node pos="l" depth="2" Seq="1" IVar="-1" Cut="0.0000000000000000e+00" cType="1" nS="5.1074189453125000e+03" nB="9.6338287353515625e+02" nEv="6.0708017578125000e+03" nSuw="4.4740000000000000e+03" nBuw="1.1720000000000000e+03" nEvuw="5.6460000000000000e+03" sepI="1.3311804831027985e-01" sepG="-1.0000000000000000e+00" res="3.0665723606944084e-02" rms="3.6485347151756287e-01" nType="1" CC="0.0000000000000000e+00"/>
          <Node pos="r" depth="2" Seq="3" IVar="-1" Cut="0.0000000000000000e+00" cType="1" nS="1.3050366210937500e+03" nB="2.0188398437500000e+03" nEv="3.3238764648437500e+03" nSuw="1.1000000000000000e+03" nBuw="1.8830000000000000e+03" nEvuw="2.9830000000000000e+03" sepI="2.3150369524955750e-01" sepG="-1.0000000000000000e+00" res="-1.0901731438934803e-02" rms="4.8114830255508423e-01" nType="-1" CC="0.0000000000000000e+00"/>
        </Node>
      </Node>
    </BinaryTree>
    <BinaryTree type="DecisionTree" boostWeight="1.0000000000000000e+00" itree="6">
      <Node pos="s" depth="0" Seq="0" IVar="9" Cut="-7.5365477241575718e-03" cType="0" nS="1.2637132031250000e+05" nB="6.6523544921875000e+03" nEv="1.3302367187500000e+05" nSuw="1.2631600000000000e+05" nBuw="6.6570000000000000e+03" nEvuw="1.3297300000000000e+05" sepI="4.2750004678964615e-02" sepG="2.5440689641982317e-03" res="3.0157238245010376e-01" rms="2.0676073431968689e-01" nType="0" CC="0.0000000000000000e+00">
        <Node pos="l" depth="1" Seq="0" IVar="-1" Cut="0.0000000000000000e+00" cType="1" nS="1.1777842968750000e+05" nB="3.7876247558593750e+03" nEv="1.2156605468750000e+05" nSuw="1.1817100000000000e+05" nBuw="3.9510000000000000e+03" nEvuw="1.2212200000000000e+05" sepI="2.9090538620948792e-02" sepG="-1.0000000000000000e+00" res="4.5487958937883377e-02" rms="1.7055948078632355e-01" nType="1" CC="0.0000000000000000e+00"/>
        <Node pos="r" depth="1" Seq="1" IVar="4" Cut="1.6215229034423828e-01" cType="0" nS="8.5928916015625000e+03" nB="2.8647294921875000e+03" nEv="1.1457621093750000e+04" nSuw="8.1450000000000000e+03" nBuw="2.7060000000000000e+03" nEvuw="1.0851000000000000e+04" sepI="1.5814095735549927e-01" sepG="2.3003999143838882e-02" res="1.3727775216102600e-01" rms="3.9766940474510193e-01" nType="0" CC="0.0000000000000000e+00">
          <Node pos="l" depth="2" Seq="1" IVar="-1" Cut="0.0000000000000000e+00" cType="1" nS="7.4095742187500000e+03" nB="9.6926489257812500e+02" nEv="8.3788388671875000e+03" nSuw="7.1380000000000000e+03" nBuw="9.4000000000000000e+02" nEvuw="8.0780000000000000e+03" sepI="1.0229820758104324e-01" sepG="-1.0000000000000000e+00" res="3.1592808663845062e-02" rms="3.1984090805053711e-01" nType="1" CC="0.0000000000000000e+00"/>
          <Node pos="r" depth="2" Seq="3" IVar="-1" Cut="0.0000000000000000e+00" cType="1" nS="1.1833173828125000e+03" nB="1.8954645996093750e+03" nEv="3.0787819824218750e+03" nSuw="1.0070000000000000e+03" nBuw="1.7660000000000000e+03" nEvuw="2.7730000000000000e+03" sepI="2.2450691461563110e-01" sepG="-1.0000000000000000e+00" res="-1.3867298141121864e-02" rms="4.7382161021232605e-01" nType="-1" CC="0.0000000000000000e+00"/>
        </Node>
      </Node>
    </BinaryTree>
    <BinaryTree type="DecisionTree" boostWeight="1.0000000000000000e+00" itree="7">
      <Node pos="s" depth="0" Seq="0" IVar="4" Cut="1.4680323004722595e-01" cType="0" nS="1.2637132031250000e+05" nB="6.6523544921875000e+03" nEv="1.3302367187500000e+05" nSuw="1.2631600000000000e+05" nBuw="6.6570000000000000e+03" nEvuw="1.3297300000000000e+05" sepI="4.2207825928926468e-02" sepG="2.3440620861947536e-03" res="2.8225812315940857e-01" rms="2.0544542372226715e-01" nType="0" CC="0.0000000000000000e+00">
        <Node pos="l" depth="1" Seq="0" IVar="-1" Cut="0.0000000000000000e+00" cType="1" nS="1.1659207812500000e+05" nB="3.2054682617187500e+03" nEv="1.1979754687500000e+05" nSuw="1.1764800000000000e+05" nBuw="3.1190000000000000e+03" nEvuw="1.2076700000000000e+05" sepI="2.5948693975806236e-02" sepG="-1.0000000000000000e+00" res="4.4473376125097275e-02" rms="1.6108597815036774e-01" nType="1" CC="0.0000000000000000e+00"/>
        <Node pos="r" depth="1" Seq="1" IVar="9" Cut="-4.2441436089575291e-03" cType="0" nS="9.7792392578125000e+03" nB="3.4468859863281250e+03" nEv="1.3226125000000000e+04" nSuw="8.6680000000000000e+03" nBuw="3.5380000000000000e+03" nEvuw="1.2206000000000000e+04" sepI="1.6590151190757751e-01" sepG="1.8486253917217255e-02" res="1.3654716312885284e-01" rms="4.0731009840965271e-01" nType="0" CC="0.0000000000000000e+00">
          <Node pos="l" depth="2" Seq="1" IVar="-1" Cut="0.0000000000000000e+00" cType="1" nS="8.0900380859375000e+03" nB="1.2260668945312500e+03" nEv="9.3161054687500000e+03" nSuw="7.2110000000000000e+03" nBuw="1.4530000000000000e+03" nEvuw="8.6640000000000000e+03" sepI="1.1286187916994095e-01" sepG="-1.0000000000000000e+00" res="2.9059467837214470e-02" rms="3.3594921231269836e-01" nType="1" CC="0.0000000000000000e+00"/>
          <Node pos="r" depth="2" Seq="3" IVar="-1" Cut="0.0000000000000000e+00" cType="1" nS="1.6892009277343750e+03" nB="2.2208190917968750e+03" nEv="3.9100200195312500e+03" nSuw="1.4570000000000000e+03" nBuw="2.0850000000000000e+03" nEvuw="3.5420000000000000e+03" sepI="2.2974294424057007e-01" sepG="-1.0000000000000000e+00" res="-9.0261809527873993e-03" rms="4.7931507229804993e-01" nType="-1" CC="0.0000000000000000e+00"/>
        </Node>
      </Node>
    </BinaryTree>
    <BinaryTree type="DecisionTree" boostWeight="1.0000000000000000e+00" itree="8">
      <Node pos="s" depth="0" Seq="0" IVar="9" Cut="-1.0400456376373768e-02" cType="0" nS="1.2637132031250000e+05" nB="6.6523544921875000e+03" nEv="1.3302367187500000e+05" nSuw="1.2631600000000000e+05" nBuw="6.6570000000000000e+03" nEvuw="1.3297300000000000e+05" sepI="4.1686639189720154e-02" sepG="2.0852398592978716e-03" res="2.6416969299316406e-01" rms="2.0417305827140808e-01" nType="0" CC="0.0000000000000000e+00">
        <Node pos="l" depth="1" Seq="0" IVar="-1" Cut="0.0000000000000000e+00" cType="1" nS="1.2052460937500000e+05" nB="4.3095981445312500e+03" nEv="1.2483421093750000e+05" nSuw="1.2087700000000000e+05" nBuw="4.4410000000000000e+03" nEvuw="1.2531800000000000e+05" sepI="3.1358852982521057e-02" sepG="-1.0000000000000000e+00" res="4.2010053992271423e-02" rms="1.7708431184291840e-01" nType="1" CC="0.0000000000000000e+00"/>
        <Node pos="r" depth="1" Seq="1" IVar="4" Cut="1.7901182174682617e-01" cType="0" nS="5.8467099609375000e+03" nB="2.3427563476562500e+03" nEv="8.1894663085937500e+03" nSuw="5.4390000000000000e+03" nBuw="2.2160000000000000e+03" nEvuw="7.6550000000000000e+03" sepI="1.6524471342563629e-01" sepG="2.0348979160189629e-02" res="8.5883781313896179e-02" rms="4.0650302171707153e-01" nType="0" CC="0.0000000000000000e+00">
          <Node pos="l" depth="2" Seq="1" IVar="-1" Cut="0.0000000000000000e+00" cType="1" nS="4.9287470703125000e+03" nB="7.3865997314453125e+02" nEv="5.6674072265625000e+03" nSuw="4.6560000000000000e+03" nBuw="7.3200000000000000e+02" nEvuw="5.3880000000000000e+03" sepI="1.1334758996963501e-01" sepG="-1.0000000000000000e+00" res="2.5780644267797470e-02" rms="3.3667132258415222e-01" nType="1" CC="0.0000000000000000e+00"/>
          <Node pos="r" depth="2" Seq="3" IVar="-1" Cut="0.0000000000000000e+00" cType="1" nS="9.1796276855468750e+02" nB="1.6040963134765625e+03" nEv="2.5220590820312500e+03" nSuw="7.8300000000000000e+02" nBuw="1.4840000000000000e+03" nEvuw="2.2670000000000000e+03" sepI="2.1578866243362427e-01" sepG="-1.0000000000000000e+00" res="-1.5597490593791008e-02" rms="4.6453058719635010e-01" nType="-1" CC="0.0000000000000000e+00"/>
        </Node>
      </Node>
    </BinaryTree>
    <BinaryTree type="DecisionTree" boostWeight="1.0000000000000000e+00" itree="9">
      <Node pos="s" depth="0" Seq="0" IVar="4" Cut="8.1962712109088898e-02" cType="0" nS="1.2637132031250000e+05" nB="6.6523544921875000e+03" nEv="1.3302367187500000e+05" nSuw="1.2631600000000000e+05" nBuw="6.6570000000000000e+03" nEvuw="1.3297300000000000e+05" sepI="4.1305989027023315e-02" sepG="1.9742879085242748e-03" res="2.4728283286094666e-01" rms="2.0323875546455383e-01" nType="0" CC="0.0000000000000000e+00">
        <Node pos="l" depth="1" Seq="0" IVar="-1" Cut="0.0000000000000000e+00" cType="1" nS="1.2310389062500000e+05" nB="4.4820019531250000e+03" nEv="1.2758589062500000e+05" nSuw="1.2351100000000000e+05" nBuw="4.4520000000000000e+03" nEvuw="1.2796300000000000e+05" sepI="3.2438494265079498e-02" sepG="-1.0000000000000000e+00" res="4.0413524955511093e-02" rms="1.8010689318180084e-01" nType="1" CC="0.0000000000000000e+00"/>
        <Node pos="r" depth="1" Seq="1" IVar="9" Cut="-4.3422295711934566e-03" cType="0" nS="3.2674313964843750e+03" nB="2.1703522949218750e+03" nEv="5.4377836914062500e+03" nSuw="2.8050000000000000e+03" nBuw="2.2050000000000000e+03" nEvuw="5.0100000000000000e+03" sepI="2.0106595754623413e-01" sepG="1.9607719033956528e-02" res="3.2056406140327454e-02" rms="4.4840380549430847e-01" nType="0" CC="0.0000000000000000e+00">
          <Node pos="l" depth="2" Seq="1" IVar="-1" Cut="0.0000000000000000e+00" cType="1" nS="2.4752436523437500e+03" nB="5.8524487304687500e+02" nEv="3.0604885253906250e+03" nSuw="2.1290000000000000e+03" nBuw="7.2700000000000000e+02" nEvuw="2.8560000000000000e+03" sepI="1.5461707115173340e-01" sepG="-1.0000000000000000e+00" res="2.0342806354165077e-02" rms="3.9321377873420715e-01" nType="1" CC="0.0000000000000000e+00"/>
          <Node pos="r" depth="2" Seq="3" IVar="-1" Cut="0.0000000000000000e+00" cType="1" nS="7.9218768310546875e+02" nB="1.5851075439453125e+03" nEv="2.3772951660156250e+03" nSuw="6.7600000000000000e+02" nBuw="1.4780000000000000e+03" nEvuw="2.1540000000000000e+03" sepI="2.1601310372352600e-01" sepG="-1.0000000000000000e+00" res="-1.5343490988016129e-02" rms="4.6477210521697998e-01" nType="-1" CC="0.0000000000000000e+00"/>
        </Node>
      </Node>
    </BinaryTree>
    <BinaryTree type="DecisionTree" boostWeight="1.0000000000000000e+00" itree="10">
      <Node pos="s" depth="0" Seq="0" IVar="4" Cut="1.5606616437435150e-01" cType="0" nS="1.2637132031250000e+05" nB="6.6523544921875000e+03" nEv="1.3302367187500000e+05" nSuw="1.2631600000000000e+05" nBuw="6.6570000000000000e+03" nEvuw="1.3297300000000000e+05" sepI="4.0991067886352539e-02" sepG="1.8220810452476144e-03" res="2.3149433732032776e-01" rms="2.0246250927448273e-01" nType="0" CC="0.0000000000000000e+00">
        <Node pos="l" depth="1" Seq="0" IVar="-1" Cut="0.0000000000000000e+00" cType="1" nS="1.1534433593750000e+05" nB="3.0667871093750000e+03" nEv="1.1841112500000000e+05" nSuw="1.1645600000000000e+05" nBuw="2.9910000000000000e+03" nEvuw="1.1944700000000000e+05" sepI="2.5078995153307915e-02" sepG="-1.0000000000000000e+00" res="4.0717214345932007e-02" rms="1.5836349129676819e-01" nType="1" CC="0.0000000000000000e+00"/>
        <Node pos="r" depth="1" Seq="1" IVar="9" Cut="-4.2441436089575291e-03" cType="0" nS="1.1026980468750000e+04" nB="3.5855671386718750e+03" nEv="1.4612547851562500e+04" nSuw="9.8600000000000000e+03" nBuw="3.6660000000000000e+03" nEvuw="1.3526000000000000e+04" sepI="1.5334562957286835e-01" sepG="1.3149865902960300e-02" res="1.0998290777206421e-01" rms="3.9159369468688965e-01" nType="0" CC="0.0000000000000000e+00">
          <Node pos="l" depth="2" Seq="1" IVar="-1" Cut="0.0000000000000000e+00" cType="1" nS="9.2302822265625000e+03" nB="1.3090540771484375e+03" nEv="1.0539335937500000e+04" nSuw="8.2950000000000000e+03" nBuw="1.5390000000000000e+03" nEvuw="9.8340000000000000e+03" sepI="1.0704938322305679e-01" sepG="-1.0000000000000000e+00" res="2.5433624163269997e-02" rms="3.2718402147293091e-01" nType="1" CC="0.0000000000000000e+00"/>
          <Node pos="r" depth="2" Seq="3" IVar="-1" Cut="0.0000000000000000e+00" cType="1" nS="1.7966981201171875e+03" nB="2.2765131835937500e+03" nEv="4.0732111816406250e+03" nSuw="1.5650000000000000e+03" nBuw="2.1270000000000000e+03" nEvuw="3.6920000000000000e+03" sepI="2.2596122324466705e-01" sepG="-1.0000000000000000e+00" res="-9.3004219233989716e-03" rms="4.7535380721092224e-01" nType="-1" CC="0.0000000000000000e+00"/>
        </Node>
      </Node>
    </BinaryTree>
    <BinaryTree type="DecisionTree" boostWeight="1.0000000000000000e+00" itree="11">
      <Node pos="s" depth="0" Seq="0" IVar="9" Cut="-7.5365477241575718e-03" cType="0" nS="1.2637132031250000e+05" nB="6.6523544921875000e+03" nEv="1.3302367187500000e+05" nSuw="1.2631600000000000e+05" nBuw="6.6570000000000000e+03" nEvuw="1.3297300000000000e+05" sepI="4.0588889271020889e-02" sepG="1.6869122628122568e-03" res="2.1669033169746399e-01" rms="2.0146684348583221e-01" nType="0" CC="0.0000000000000000e+00">
        <Node pos="l" depth="1" Seq="0" IVar="-1" Cut="0.0000000000000000e+00" cType="1" nS="1.1777842968750000e+05" nB="3.7876247558593750e+03" nEv="1.2156605468750000e+05" nSuw="1.1817100000000000e+05" nBuw="3.9510000000000000e+03" nEvuw="1.2212200000000000e+05" sepI="2.8772499412298203e-02" sepG="-1.0000000000000000e+00" res="3.8780096918344498e-02" rms="1.6962458193302155e-01" nType="1" CC="0.0000000000000000e+00"/>
        <Node pos="r" depth="1" Seq="1" IVar="4" Cut="1.6215229034423828e-01" cType="0" nS="8.5928916015625000e+03" nB="2.8647294921875000e+03" nEv="1.1457621093750000e+04" nSuw="8.1450000000000000e+03" nBuw="2.7060000000000000e+03" nEvuw="1.0851000000000000e+04" sepI="1.4637635648250580e-01" sepG="1.2277600355446339e-02" res="8.2906015217304230e-02" rms="3.8259163498878479e-01" nType="0" CC="0.0000000000000000e+00">
          <Node pos="l" depth="2" Seq="1" IVar="-1" Cut="0.0000000000000000e+00" cType="1" nS="7.4095742187500000e+03" nB="9.6926489257812500e+02" nEv="8.3788388671875000e+03" nSuw="7.1380000000000000e+03" nBuw="9.4000000000000000e+02" nEvuw="8.0780000000000000e+03" sepI="1.0205323994159698e-01" sepG="-1.0000000000000000e+00" res="2.3944552987813950e-02" rms="3.1945773959159851e-01" nType="1" CC="0.0000000000000000e+00"/>
          <Node pos="r" depth="2" Seq="3" IVar="-1" Cut="0.0000000000000000e+00" cType="1" nS="1.1833173828125000e+03" nB="1.8954645996093750e+03" nEv="3.0787819824218750e+03" nSuw="1.0070000000000000e+03" nBuw="1.7660000000000000e+03" nEvuw="2.7730000000000000e+03" sepI="2.2130993008613586e-01" sepG="-1.0000000000000000e+00" res="-1.2410471215844154e-02" rms="4.7043588757514954e-01" nType="-1" CC="0.0000000000000000e+00"/>
        </Node>
      </Node>
    </BinaryTree>
    <BinaryTree type="DecisionTree" boostWeight="1.0000000000000000e+00" itree="12">
      <Node pos="s" depth="0" Seq="0" IVar="4" Cut="1.4680323004722595e-01" cType="0" nS="1.2637132031250000e+05" nB="6.6523544921875000e+03" nEv="1.3302367187500000e+05" nSuw="1.2631600000000000e+05" nBuw="6.6570000000000000e+03" nEvuw="1.3297300000000000e+05" sepI="4.0279544889926910e-02" sepG="1.5148832462728024e-03" res="2.0287707448005676e-01" rms="2.0069764554500580e-01" nType="0" CC="0.0000000000000000e+00">
        <Node pos="l" depth="1" Seq="0" IVar="-1" Cut="0.0000000000000000e+00" cType="1" nS="1.1659207812500000e+05" nB="3.2054682617187500e+03" nEv="1.1979754687500000e+05" nSuw="1.1764800000000000e+05" nBuw="3.1190000000000000e+03" nEvuw="1.2076700000000000e+05" sepI="2.5791777297854424e-02" sepG="-1.0000000000000000e+00" res="3.8415469229221344e-02" rms="1.6059818863868713e-01" nType="1" CC="0.0000000000000000e+00"/>
        <Node pos="r" depth="1" Seq="1" IVar="9" Cut="-4.0479712188243866e-03" cType="0" nS="9.7792392578125000e+03" nB="3.4468859863281250e+03" nEv="1.3226125000000000e+04" nSuw="8.6680000000000000e+03" nBuw="3.5380000000000000e+03" nEvuw="1.2206000000000000e+04" sepI="1.5626844763755798e-01" sepG="1.0347664356231689e-02" res="8.5739225149154663e-02" rms="3.9530804753303528e-01" nType="0" CC="0.0000000000000000e+00">
          <Node pos="l" depth="2" Seq="1" IVar="-1" Cut="0.0000000000000000e+00" cType="1" nS="8.0433750000000000e+03" nB="1.2105728759765625e+03" nEv="9.2539482421875000e+03" nSuw="7.1610000000000000e+03" nBuw="1.4360000000000000e+03" nEvuw="8.5970000000000000e+03" sepI="1.1217632889747620e-01" sepG="-1.0000000000000000e+00" res="2.2249400615692139e-02" rms="3.3492735028266907e-01" nType="1" CC="0.0000000000000000e+00"/>
          <Node pos="r" depth="2" Seq="3" IVar="-1" Cut="0.0000000000000000e+00" cType="1" nS="1.7358638916015625e+03" nB="2.2363129882812500e+03" nEv="3.9721767578125000e+03" nSuw="1.5070000000000000e+03" nBuw="2.1020000000000000e+03" nEvuw="3.6090000000000000e+03" sepI="2.2453498840332031e-01" sepG="-1.0000000000000000e+00" res="-8.7315570563077927e-03" rms="4.7385123372077942e-01" nType="-1" CC="0.0000000000000000e+00"/>
        </Node>
      </Node>
    </BinaryTree>
    <BinaryTree type="DecisionTree" boostWeight="1.0000000000000000e+00" itree="13">
      <Node pos="s" depth="0" Seq="0" IVar="9" Cut="-1.3790388591587543e-02" cType="0" nS="1.2637132031250000e+05" nB="6.6523544921875000e+03" nEv="1.3302367187500000e+05" nSuw="1.2631600000000000e+05" nBuw="6.6570000000000000e+03" nEvuw="1.3297300000000000e+05" sepI="3.9971217513084412e-02" sepG="1.4379498315975070e-03" res="1.8992310762405396e-01" rms="1.9992803037166595e-01" nType="0" CC="0.0000000000000000e+00">
        <Node pos="l" depth="1" Seq="0" IVar="-1" Cut="0.0000000000000000e+00" cType="1" nS="1.2253131250000000e+05" nB="4.7607407226562500e+03" nEv="1.2729205468750000e+05" nSuw="1.2276900000000000e+05" nBuw="4.8740000000000000e+03" nEvuw="1.2764300000000000e+05" sepI="3.2796975225210190e-02" sepG="-1.0000000000000000e+00" res="3.5929962992668152e-02" rms="1.8109935522079468e-01" nType="1" CC="0.0000000000000000e+00"/>
        <Node pos="r" depth="1" Seq="1" IVar="4" Cut="1.8138322234153748e-01" cType="0" nS="3.8400092773437500e+03" nB="1.8916132812500000e+03" nEv="5.7316225585937500e+03" nSuw="3.5470000000000000e+03" nBuw="1.7830000000000000e+03" nEvuw="5.3300000000000000e+03" sepI="1.6592903435230255e-01" sepG="1.2939309701323509e-02" res="1.1219343170523643e-02" rms="4.0734386444091797e-01" nType="0" CC="0.0000000000000000e+00">
          <Node pos="l" depth="2" Seq="1" IVar="-1" Cut="0.0000000000000000e+00" cType="1" nS="3.2107590332031250e+03" nB="5.7029852294921875e+02" nEv="3.7810576171875000e+03" nSuw="3.0140000000000000e+03" nBuw="5.6500000000000000e+02" nEvuw="3.5790000000000000e+03" sepI="1.2808060646057129e-01" sepG="-1.0000000000000000e+00" res="1.5376656316220760e-02" rms="3.5788351297378540e-01" nType="1" CC="0.0000000000000000e+00"/>
          <Node pos="r" depth="2" Seq="3" IVar="-1" Cut="0.0000000000000000e+00" cType="1" nS="6.2925024414062500e+02" nB="1.3213148193359375e+03" nEv="1.9505650634765625e+03" nSuw="5.3300000000000000e+02" nBuw="1.2180000000000000e+03" nEvuw="1.7510000000000000e+03" sepI="2.0127461850643158e-01" sepG="-1.0000000000000000e+00" res="-1.8188389018177986e-02" rms="4.4863641262054443e-01" nType="-1" CC="0.0000000000000000e+00"/>
        </Node>
      </Node>
    </BinaryTree>
    <BinaryTree type="DecisionTree" boostWeight="1.0000000000000000e+00" itree="14">
      <Node pos="s" depth="0" Seq="0" IVar="4" Cut="1.5606616437435150e-01" cType="0" nS="1.2637132031250000e+05" nB="6.6523544921875000e+03" nEv="1.3302367187500000e+05" nSuw="1.2631600000000000e+05" nBuw="6.6570000000000000e+03" nEvuw="1.3297300000000000e+05" sepI="3.9776433259248734e-02" sepG="1.3116082409396768e-03" res="1.7782951891422272e-01" rms="1.9944030046463013e-01" nType="0" CC="0.0000000000000000e+00">
        <Node pos="l" depth="1" Seq="0" IVar="-1" Cut="0.0000000000000000e+00" cType="1" nS="1.1534433593750000e+05" nB="3.0667871093750000e+03" nEv="1.1841112500000000e+05" nSuw="1.1645600000000000e+05" nBuw="2.9910000000000000e+03" nEvuw="1.1944700000000000e+05" sepI="2.4977460503578186e-02" sepG="-1.0000000000000000e+00" res="3.6781754344701767e-02" rms="1.5804259479045868e-01" nType="1" CC="0.0000000000000000e+00"/>
        <Node pos="r" depth="1" Seq="1" IVar="0" Cut="2.6954535394906998e-02" cType="1" nS="1.1026980468750000e+04" nB="3.5855671386718750e+03" nEv="1.4612547851562500e+04" nSuw="9.8600000000000000e+03" nBuw="3.6660000000000000e+03" nEvuw="1.3526000000000000e+04" sepI="1.4775817096233368e-01" sepG="9.0533485636115074e-03" res="7.4735045433044434e-02" rms="3.8439324498176575e-01" nType="0" CC="0.0000000000000000e+00">
          <Node pos="l" depth="2" Seq="1" IVar="-1" Cut="0.0000000000000000e+00" cType="1" nS="9.8166845703125000e+03" nB="2.3826071777343750e+03" nEv="1.2199291015625000e+04" nSuw="9.0120000000000000e+03" nBuw="2.4010000000000000e+03" nEvuw="1.1413000000000000e+04" sepI="1.2676058709621429e-01" sepG="-1.0000000000000000e+00" res="1.7482116818428040e-02" rms="3.5603454709053040e-01" nType="1" CC="0.0000000000000000e+00"/>
          <Node pos="r" depth="2" Seq="3" IVar="-1" Cut="0.0000000000000000e+00" cType="1" nS="1.2102960205078125e+03" nB="1.2029600830078125e+03" nEv="2.4132561035156250e+03" nSuw="8.4800000000000000e+02" nBuw="1.2650000000000000e+03" nEvuw="2.1130000000000000e+03" sepI="1.9908432662487030e-01" sepG="-1.0000000000000000e+00" res="-1.8718481063842773e-02" rms="4.4618865847587585e-01" nType="1" CC="0.0000000000000000e+00"/>
        </Node>
      </Node>
    </BinaryTree>
    <BinaryTree type="DecisionTree" boostWeight="1.0000000000000000e+00" itree="15">
      <Node pos="s" depth="0" Seq="0" IVar="9" Cut="-7.3027592152357101e-03" cType="0" nS="1.2637132031250000e+05" nB="6.6523544921875000e+03" nEv="1.3302367187500000e+05" nSuw="1.2631600000000000e+05" nBuw="6.6570000000000000e+03" nEvuw="1.3297300000000000e+05" sepI="3.9509955793619156e-02" sepG="1.2759369565173984e-03" res="1.6645804047584534e-01" rms="1.9877110421657562e-01" nType="0" CC="0.0000000000000000e+00">
        <Node pos="l" depth="1" Seq="0" IVar="-1" Cut="0.0000000000000000e+00" cType="1" nS="1.1748565625000000e+05" nB="3.7403012695312500e+03" nEv="1.2122596093750000e+05" nSuw="1.1789000000000000e+05" nBuw="3.9080000000000000e+03" nEvuw="1.2179800000000000e+05" sepI="2.8330720961093903e-02" sepG="-1.0000000000000000e+00" res="3.5069227218627930e-02" rms="1.6831731796264648e-01" nType="1" CC="0.0000000000000000e+00"/>
        <Node pos="r" depth="1" Seq="1" IVar="0" Cut="2.6335950940847397e-02" cType="1" nS="8.8856611328125000e+03" nB="2.9120529785156250e+03" nEv="1.1797713867187500e+04" nSuw="8.4260000000000000e+03" nBuw="2.7490000000000000e+03" nEvuw="1.1175000000000000e+04" sepI="1.3999411463737488e-01" sepG="8.9095085859298706e-03" res="5.1955930888652802e-02" rms="3.7415787577629089e-01" nType="0" CC="0.0000000000000000e+00">
          <Node pos="l" depth="2" Seq="1" IVar="-1" Cut="0.0000000000000000e+00" cType="1" nS="7.5230356445312500e+03" nB="1.6742620849609375e+03" nEv="9.1972978515625000e+03" nSuw="7.3900000000000000e+03" nBuw="1.5610000000000000e+03" nEvuw="8.9510000000000000e+03" sepI="1.1514358967542648e-01" sepG="-1.0000000000000000e+00" res="1.7266482114791870e-02" rms="3.3932814002037048e-01" nType="1" CC="0.0000000000000000e+00"/>
          <Node pos="r" depth="2" Seq="3" IVar="-1" Cut="0.0000000000000000e+00" cType="1" nS="1.3626251220703125e+03" nB="1.2377908935546875e+03" nEv="2.6004160156250000e+03" nSuw="1.0360000000000000e+03" nBuw="1.1880000000000000e+03" nEvuw="2.2240000000000000e+03" sepI="1.8746569752693176e-01" sepG="-1.0000000000000000e+00" res="-1.7812708392739296e-02" rms="4.3297308683395386e-01" nType="1" CC="0.0000000000000000e+00"/>
        </Node>
      </Node>
    </BinaryTree>
    <BinaryTree type="DecisionTree" boostWeight="1.0000000000000000e+00" itree="16">
      <Node pos="s" depth="0" Seq="0" IVar="4" Cut="8.1962712109088898e-02" cType="0" nS="1.2637132031250000e+05" nB="6.6523544921875000e+03" nEv="1.3302367187500000e+05" nSuw="1.2631600000000000e+05" nBuw="6.6570000000000000e+03" nEvuw="1.3297300000000000e+05" sepI="3.9300367236137390e-02" sepG="1.1765212984755635e-03" res="1.5585197508335114e-01" rms="1.9824320077896118e-01" nType="0" CC="0.0000000000000000e+00">
        <Node pos="l" depth="1" Seq="0" IVar="-1" Cut="0.0000000000000000e+00" cType="1" nS="1.2310389062500000e+05" nB="4.4820019531250000e+03" nEv="1.2758589062500000e+05" nSuw="1.2351100000000000e+05" nBuw="4.4520000000000000e+03" nEvuw="1.2796300000000000e+05" sepI="3.1741179525852203e-02" sepG="-1.0000000000000000e+00" res="3.3441331237554550e-02" rms="1.7816054821014404e-01" nType="1" CC="0.0000000000000000e+00"/>
        <Node pos="r" depth="1" Seq="1" IVar="0" Cut="2.6983911171555519e-02" cType="1" nS="3.2674313964843750e+03" nB="2.1703522949218750e+03" nEv="5.4377836914062500e+03" nSuw="2.8050000000000000e+03" nBuw="2.2050000000000000e+03" nEvuw="5.0100000000000000e+03" sepI="1.8787930905818939e-01" sepG="1.0675966739654541e-02" res="-1.0294158011674881e-02" rms="4.3345046043395996e-01" nType="0" CC="0.0000000000000000e+00">
          <Node pos="l" depth="2" Seq="1" IVar="-1" Cut="0.0000000000000000e+00" cType="1" nS="2.8828906250000000e+03" nB="1.4245200195312500e+03" nEv="4.3074106445312500e+03" nSuw="2.5340000000000000e+03" nBuw="1.4320000000000000e+03" nEvuw="3.9660000000000000e+03" sepI="1.7495402693748474e-01" sepG="-1.0000000000000000e+00" res="5.9524690732359886e-03" rms="4.1827505826950073e-01" nType="1" CC="0.0000000000000000e+00"/>
          <Node pos="r" depth="2" Seq="3" IVar="-1" Cut="0.0000000000000000e+00" cType="1" nS="3.8454083251953125e+02" nB="7.4583239746093750e+02" nEv="1.1303732910156250e+03" nSuw="2.7100000000000000e+02" nBuw="7.7300000000000000e+02" nEvuw="1.0440000000000000e+03" sepI="1.8577460944652557e-01" sepG="-1.0000000000000000e+00" res="-2.7441212907433510e-02" rms="4.3101578950881958e-01" nType="-1" CC="0.0000000000000000e+00"/>
        </Node>
      </Node>
    </BinaryTree>
    <BinaryTree type="DecisionTree" boostWeight="1.0000000000000000e+00" itree="17">
      <Node pos="s" depth="0" Seq="0" IVar="9" Cut="-1.3790388591587543e-02" cType="0" nS="1.2637132031250000e+05" nB="6.6523544921875000e+03" nEv="1.3302367187500000e+05" nSuw="1.2631600000000000e+05" nBuw="6.6570000000000000e+03" nEvuw="1.3297300000000000e+05" sepI="3.9149019867181778e-02" sepG="1.1170262005180120e-03" res="1.4593316614627838e-01" rms="1.9786112010478973e-01" nType="0" CC="0.0000000000000000e+00">
        <Node pos="l" depth="1" Seq="0" IVar="-1" Cut="0.0000000000000000e+00" cType="1" nS="1.2253131250000000e+05" nB="4.7607407226562500e+03" nEv="1.2729205468750000e+05" nSuw="1.2276900000000000e+05" nBuw="4.8740000000000000e+03" nEvuw="1.2764300000000000e+05" sepI="3.2493259757757187e-02" sepG="-1.0000000000000000e+00" res="3.2459434121847153e-02" rms="1.8025887012481689e-01" nType="1" CC="0.0000000000000000e+00"/>
        <Node pos="r" depth="1" Seq="1" IVar="4" Cut="1.8138322234153748e-01" cType="0" nS="3.8400092773437500e+03" nB="1.8916132812500000e+03" nEv="5.7316225585937500e+03" nSuw="3.5470000000000000e+03" nBuw="1.7830000000000000e+03" nEvuw="5.3300000000000000e+03" sepI="1.6104021668434143e-01" sepG="9.7784548997879028e-03" res="-1.1571547016501427e-02" rms="4.0129816532135010e-01" nType="0" CC="0.0000000000000000e+00">
          <Node pos="l" depth="2" Seq="1" IVar="-1" Cut="0.0000000000000000e+00" cType="1" nS="3.2107590332031250e+03" nB="5.7029852294921875e+02" nEv="3.7810576171875000e+03" nSuw="3.0140000000000000e+03" nBuw="5.6500000000000000e+02" nEvuw="3.5790000000000000e+03" sepI="1.2728917598724365e-01" sepG="-1.0000000000000000e+00" res="1.0906809009611607e-02" rms="3.5677608847618103e-01" nType="1" CC="0.0000000000000000e+00"/>
          <Node pos="r" depth="2" Seq="3" IVar="-1" Cut="0.0000000000000000e+00" cType="1" nS="6.2925024414062500e+02" nB="1.3213148193359375e+03" nEv="1.9505650634765625e+03" nSuw="5.3300000000000000e+02" nBuw="1.2180000000000000e+03" nEvuw="1.7510000000000000e+03" sepI="1.9773124158382416e-01" sepG="-1.0000000000000000e+00" res="-1.8624057993292809e-02" rms="4.4466981291770935e-01" nType="-1" CC="0.0000000000000000e+00"/>
        </Node>
      </Node>
    </BinaryTree>
    <BinaryTree type="DecisionTree" boostWeight="1.0000000000000000e+00" itree="18">
      <Node pos="s" depth="0" Seq="0" IVar="4" Cut="1.5606616437435150e-01" cType="0" nS="1.2637132031250000e+05" nB="6.6523544921875000e+03" nEv="1.3302367187500000e+05" nSuw="1.2631600000000000e+05" nBuw="6.6570000000000000e+03" nEvuw="1.3297300000000000e+05" sepI="3.9019674062728882e-02" sepG="1.0917289182543755e-03" res="1.3665458559989929e-01" rms="1.9753398001194000e-01" nType="0" CC="0.0000000000000000e+00">
        <Node pos="l" depth="1" Seq="0" IVar="-1" Cut="0.0000000000000000e+00" cType="1" nS="1.1534433593750000e+05" nB="3.0667871093750000e+03" nEv="1.1841112500000000e+05" nSuw="1.1645600000000000e+05" nBuw="2.9910000000000000e+03" nEvuw="1.1944700000000000e+05" sepI="2.4839723482728004e-02" sepG="-1.0000000000000000e+00" res="3.3741775900125504e-02" rms="1.5760622918605804e-01" nType="1" CC="0.0000000000000000e+00"/>
        <Node pos="r" depth="1" Seq="1" IVar="1" Cut="4.4392826966941357e-03" cType="1" nS="1.1026980468750000e+04" nB="3.5855671386718750e+03" nEv="1.4612547851562500e+04" nSuw="9.8600000000000000e+03" nBuw="3.6660000000000000e+03" nEvuw="1.3526000000000000e+04" sepI="1.4398686587810516e-01" sepG="8.1298947334289551e-03" res="4.2597677558660507e-02" rms="3.7945601344108582e-01" nType="0" CC="0.0000000000000000e+00">
          <Node pos="l" depth="2" Seq="1" IVar="-1" Cut="0.0000000000000000e+00" cType="1" nS="1.0523035156250000e+04" nB="2.7788107910156250e+03" nEv="1.3301845703125000e+04" nSuw="9.4600000000000000e+03" nBuw="2.8130000000000000e+03" nEvuw="1.2273000000000000e+04" sepI="1.2929734587669373e-01" sepG="-1.0000000000000000e+00" res="1.1338542215526104e-02" rms="3.5957938432693481e-01" nType="1" CC="0.0000000000000000e+00"/>
          <Node pos="r" depth="2" Seq="3" IVar="-1" Cut="0.0000000000000000e+00" cType="1" nS="5.0394488525390625e+02" nB="8.0675640869140625e+02" nEv="1.3107012939453125e+03" nSuw="4.0000000000000000e+02" nBuw="8.5300000000000000e+02" nEvuw="1.2530000000000000e+03" sepI="2.0242844521999359e-01" sepG="-1.0000000000000000e+00" res="-3.6138851195573807e-02" rms="4.4992047548294067e-01" nType="-1" CC="0.0000000000000000e+00"/>
        </Node>
      </Node>
    </BinaryTree>
    <BinaryTree type="DecisionTree" boostWeight="1.0000000000000000e+00" itree="19">
      <Node pos="s" depth="0" Seq="0" IVar="9" Cut="-3.5621442366391420e-03" cType="0" nS="1.2637132031250000e+05" nB="6.6523544921875000e+03" nEv="1.3302367187500000e+05" nSuw="1.2631600000000000e+05" nBuw="6.6570000000000000e+03" nEvuw="1.3297300000000000e+05" sepI="3.8795266300439835e-02" sepG="1.0337977437302470e-03" res="1.2793652713298798e-01" rms="1.9696514308452606e-01" nType="0" CC="0.0000000000000000e+00">
        <Node pos="l" depth="1" Seq="0" IVar="-1" Cut="0.0000000000000000e+00" cType="1" nS="1.0961281250000000e+05" nB="2.9303198242187500e+03" nEv="1.1254313281250000e+05" nSuw="1.0990100000000000e+05" nBuw="3.1310000000000000e+03" nEvuw="1.1303200000000000e+05" sepI="2.4383796378970146e-02" sepG="-1.0000000000000000e+00" res="3.2989758998155594e-02" rms="1.5615311264991760e-01" nType="1" CC="0.0000000000000000e+00"/>
        <Node pos="r" depth="1" Seq="1" IVar="0" Cut="2.6384184136986732e-02" cType="1" nS="1.6758507812500000e+04" nB="3.7220344238281250e+03" nEv="2.0480541015625000e+04" nSuw="1.6415000000000000e+04" nBuw="3.5260000000000000e+03" nEvuw="1.9941000000000000e+04" sepI="1.1127345263957977e-01" sepG="5.3728772327303886e-03" res="5.2565131336450577e-02" rms="3.3357676863670349e-01" nType="0" CC="0.0000000000000000e+00">
          <Node pos="l" depth="2" Seq="1" IVar="-1" Cut="0.0000000000000000e+00" cType="1" nS="1.4380324218750000e+04" nB="2.1992736816406250e+03" nEv="1.6579597656250000e+04" nSuw="1.4570000000000000e+04" nBuw="2.0670000000000000e+03" nEvuw="1.6637000000000000e+04" sepI="8.9773707091808319e-02" sepG="-1.0000000000000000e+00" res="1.8040893599390984e-02" rms="2.9962262511253357e-01" nType="1" CC="0.0000000000000000e+00"/>
          <Node pos="r" depth="2" Seq="3" IVar="-1" Cut="0.0000000000000000e+00" cType="1" nS="2.3781833496093750e+03" nB="1.5227606201171875e+03" nEv="3.9009438476562500e+03" nSuw="1.8450000000000000e+03" nBuw="1.4590000000000000e+03" nEvuw="3.3040000000000000e+03" sepI="1.7444220185279846e-01" sepG="-1.0000000000000000e+00" res="-1.5496809035539627e-02" rms="4.1766276955604553e-01" nType="1" CC="0.0000000000000000e+00"/>
        </Node>
      </Node>
    </BinaryTree>
    <BinaryTree type="DecisionTree" boostWeight="1.0000000000000000e+00" itree="20">
      <Node pos="s" depth="0" Seq="0" IVar="4" Cut="1.1901443451642990e-01" cType="0" nS="1.2637132031250000e+05" nB="6.6523544921875000e+03" nEv="1.3302367187500000e+05" nSuw="1.2631600000000000e+05" nBuw="6.6570000000000000e+03" nEvuw="1.3297300000000000e+05" sepI="3.8606155663728714e-02" sepG="9.6609996398910880e-04" res="1.1978439986705780e-01" rms="1.9648449122905731e-01" nType="0" CC="0.0000000000000000e+00">
        <Node pos="l" depth="1" Seq="0" IVar="-1" Cut="0.0000000000000000e+00" cType="1" nS="1.1995886718750000e+05" nB="3.6701315917968750e+03" nEv="1.2362899218750000e+05" nSuw="1.2074200000000000e+05" nBuw="3.6020000000000000e+03" nEvuw="1.2434400000000000e+05" sepI="2.7850301936268806e-02" sepG="-1.0000000000000000e+00" res="3.1459577381610870e-02" rms="1.6688409447669983e-01" nType="1" CC="0.0000000000000000e+00"/>
        <Node pos="r" depth="1" Seq="1" IVar="0" Cut="2.7248296886682510e-02" cType="1" nS="6.4124555664062500e+03" nB="2.9822226562500000e+03" nEv="9.3946787109375000e+03" nSuw="5.5740000000000000e+03" nBuw="3.0550000000000000e+03" nEvuw="8.6290000000000000e+03" sepI="1.6646802425384521e-01" sepG="8.5888719186186790e-03" res="7.0308432914316654e-03" rms="4.0800493955612183e-01" nType="0" CC="0.0000000000000000e+00">
          <Node pos="l" depth="2" Seq="1" IVar="-1" Cut="0.0000000000000000e+00" cType="1" nS="5.8560605468750000e+03" nB="2.0749599609375000e+03" nEv="7.9310205078125000e+03" nSuw="5.2070000000000000e+03" nBuw="2.1040000000000000e+03" nEvuw="7.3110000000000000e+03" sepI="1.5178315341472626e-01" sepG="-1.0000000000000000e+00" res="7.1598342619836330e-03" rms="3.8959357142448425e-01" nType="1" CC="0.0000000000000000e+00"/>
          <Node pos="r" depth="2" Seq="3" IVar="-1" Cut="0.0000000000000000e+00" cType="1" nS="5.5639508056640625e+02" nB="9.0726281738281250e+02" nEv="1.4636578369140625e+03" nSuw="3.6700000000000000e+02" nBuw="9.5100000000000000e+02" nEvuw="1.3180000000000000e+03" sepI="1.9091112911701202e-01" sepG="-1.0000000000000000e+00" res="-2.8601530939340591e-02" rms="4.3693378567695618e-01" nType="-1" CC="0.0000000000000000e+00"/>
        </Node>
      </Node>
    </BinaryTree>
    <BinaryTree type="DecisionTree" boostWeight="1.0000000000000000e+00" itree="21">
      <Node pos="s" depth="0" Seq="0" IVar="9" Cut="-7.0689711719751358e-03" cType="0" nS="1.2637132031250000e+05" nB="6.6523544921875000e+03" nEv="1.3302367187500000e+05" nSuw="1.2631600000000000e+05" nBuw="6.6570000000000000e+03" nEvuw="1.3297300000000000e+05" sepI="3.8447584956884384e-02" sepG="9.2294509522616863e-04" res="1.1214759200811386e-01" rms="1.9608055055141449e-01" nType="0" CC="0.0000000000000000e+00">
        <Node pos="l" depth="1" Seq="0" IVar="-1" Cut="0.0000000000000000e+00" cType="1" nS="1.1719585937500000e+05" nB="3.7043332519531250e+03" nEv="1.2090018750000000e+05" nSuw="1.1760100000000000e+05" nBuw="3.8670000000000000e+03" nEvuw="1.2146800000000000e+05" sepI="2.7904693037271500e-02" sepG="-1.0000000000000000e+00" res="3.0715640634298325e-02" rms="1.6704697906970978e-01" nType="1" CC="0.0000000000000000e+00"/>
        <Node pos="r" depth="1" Seq="1" IVar="0" Cut="2.5425584986805916e-02" cType="1" nS="9.1754619140625000e+03" nB="2.9480209960937500e+03" nEv="1.2123482421875000e+04" nSuw="8.7150000000000000e+03" nBuw="2.7900000000000000e+03" nEvuw="1.1505000000000000e+04" sepI="1.3345858454704285e-01" sepG="6.4610452391207218e-03" res="1.6210239380598068e-02" rms="3.6531984806060791e-01" nType="0" CC="0.0000000000000000e+00">
          <Node pos="l" depth="2" Seq="1" IVar="-1" Cut="0.0000000000000000e+00" cType="1" nS="6.8666694335937500e+03" nB="1.3010948486328125e+03" nEv="8.1677641601562500e+03" nSuw="6.8580000000000000e+03" nBuw="1.2180000000000000e+03" nEvuw="8.0760000000000000e+03" sepI="1.0432726889848709e-01" sepG="-1.0000000000000000e+00" res="1.4425846748054028e-02" rms="3.2299730181694031e-01" nType="1" CC="0.0000000000000000e+00"/>
          <Node pos="r" depth="2" Seq="3" IVar="-1" Cut="0.0000000000000000e+00" cType="1" nS="2.3087924804687500e+03" nB="1.6469261474609375e+03" nEv="3.9557185058593750e+03" nSuw="1.8570000000000000e+03" nBuw="1.5720000000000000e+03" nEvuw="3.4290000000000000e+03" sepI="1.7380708456039429e-01" sepG="-1.0000000000000000e+00" res="-1.5559787862002850e-02" rms="4.1690176725387573e-01" nType="1" CC="0.0000000000000000e+00"/>
        </Node>
      </Node>
    </BinaryTree>
    <BinaryTree type="DecisionTree" boostWeight="1.0000000000000000e+00" itree="22">
      <Node pos="s" depth="0" Seq="0" IVar="4" Cut="1.6532909870147705e-01" cType="0" nS="1.2637132031250000e+05" nB="6.6523544921875000e+03" nEv="1.3302367187500000e+05" nSuw="1.2631600000000000e+05" nBuw="6.6570000000000000e+03" nEvuw="1.3297300000000000e+05" sepI="3.8305696099996567e-02" sepG="8.9450477389618754e-04" res="1.0500428825616837e-01" rms="1.9571840763092041e-01" nType="0" CC="0.0000000000000000e+00">
        <Node pos="l" depth="1" Seq="0" IVar="-1" Cut="0.0000000000000000e+00" cType="1" nS="1.1405231250000000e+05" nB="2.9614531250000000e+03" nEv="1.1701376562500000e+05" nSuw="1.1525800000000000e+05" nBuw="2.8870000000000000e+03" nEvuw="1.1814500000000000e+05" sepI="2.4128895252943039e-02" sepG="-1.0000000000000000e+00" res="3.1326197087764740e-02" rms="1.5533478558063507e-01" nType="1" CC="0.0000000000000000e+00"/>
        <Node pos="r" depth="1" Seq="1" IVar="1" Cut="5.7157729752361774e-03" cType="1" nS="1.2319005859375000e+04" nB="3.6909011230468750e+03" nEv="1.6009906250000000e+04" nSuw="1.1058000000000000e+04" nBuw="3.7700000000000000e+03" nEvuw="1.4828000000000000e+04" sepI="1.3448929786682129e-01" sepG="6.4837690442800522e-03" res="2.4147698655724525e-02" rms="3.6672782897949219e-01" nType="0" CC="0.0000000000000000e+00">
          <Node pos="l" depth="2" Seq="1" IVar="-1" Cut="0.0000000000000000e+00" cType="1" nS="1.2107975585937500e+04" nB="3.1385300292968750e+03" nEv="1.5246505859375000e+04" nSuw="1.0898000000000000e+04" nBuw="3.1960000000000000e+03" nEvuw="1.4094000000000000e+04" sepI="1.2571501731872559e-01" sepG="-1.0000000000000000e+00" res="7.4369465000927448e-03" rms="3.5456314682960510e-01" nType="1" CC="0.0000000000000000e+00"/>
          <Node pos="r" depth="2" Seq="3" IVar="-1" Cut="0.0000000000000000e+00" cType="1" nS="2.1102978515625000e+02" nB="5.5237127685546875e+02" nEv="7.6340106201171875e+02" nSuw="1.6000000000000000e+02" nBuw="5.7400000000000000e+02" nEvuw="7.3400000000000000e+02" sepI="1.7375110089778900e-01" sepG="-1.0000000000000000e+00" res="-5.1125347614288330e-02" rms="4.1683462262153625e-01" nType="-1" CC="0.0000000000000000e+00"/>
        </Node>
      </Node>
    </BinaryTree>
    <BinaryTree type="DecisionTree" boostWeight="1.0000000000000000e+00" itree="23">
      <Node pos="s" depth="0" Seq="0" IVar="5" Cut="3.0625450611114502e+00" cType="1" nS="1.2637132031250000e+05" nB="6.6523544921875000e+03" nEv="1.3302367187500000e+05" nSuw="1.2631600000000000e+05" nBuw="6.6570000000000000e+03" nEvuw="1.3297300000000000e+05" sepI="3.8123693317174911e-02" sepG="8.4490672452375293e-04" res="9.8302774131298065e-02" rms="1.9525289535522461e-01" nType="0" CC="0.0000000000000000e+00">
        <Node pos="l" depth="1" Seq="0" IVar="-1" Cut="0.0000000000000000e+00" cType="1" nS="1.1989091406250000e+05" nB="4.4273803710937500e+03" nEv="1.2431829687500000e+05" nSuw="1.1929600000000000e+05" nBuw="4.7920000000000000e+03" nEvuw="1.2408800000000000e+05" sepI="3.0556254088878632e-02" sepG="-1.0000000000000000e+00" res="2.8410658240318298e-02" rms="1.7480348050594330e-01" nType="1" CC="0.0000000000000000e+00"/>
        <Node pos="r" depth="1" Seq="1" IVar="0" Cut="2.6348028331995010e-02" cType="1" nS="6.4804062500000000e+03" nB="2.2249738769531250e+03" nEv="8.7053798828125000e+03" nSuw="7.0200000000000000e+03" nBuw="1.8650000000000000e+03" nEvuw="8.8850000000000000e+03" sepI="1.3328075408935547e-01" sepG="8.7076853960752487e-03" res="-1.1541652493178844e-02" rms="3.6507636308670044e-01" nType="0" CC="0.0000000000000000e+00">
          <Node pos="l" depth="2" Seq="1" IVar="-1" Cut="0.0000000000000000e+00" cType="1" nS="5.7442519531250000e+03" nB="1.3058302001953125e+03" nEv="7.0500820312500000e+03" nSuw="6.3430000000000000e+03" nBuw="1.0990000000000000e+03" nEvuw="7.4420000000000000e+03" sepI="1.1064868420362473e-01" sepG="-1.0000000000000000e+00" res="7.7069578692317009e-03" rms="3.3263897895812988e-01" nType="1" CC="0.0000000000000000e+00"/>
          <Node pos="r" depth="2" Seq="3" IVar="-1" Cut="0.0000000000000000e+00" cType="1" nS="7.3615454101562500e+02" nB="9.1914355468750000e+02" nEv="1.6552980957031250e+03" nSuw="6.7700000000000000e+02" nBuw="7.6600000000000000e+02" nEvuw="1.4430000000000000e+03" sepI="1.8387840688228607e-01" sepG="-1.0000000000000000e+00" res="-3.1630970537662506e-02" rms="4.2881044745445251e-01" nType="-1" CC="0.0000000000000000e+00"/>
        </Node>
      </Node>
    </BinaryTree>
    <BinaryTree type="DecisionTree" boostWeight="1.0000000000000000e+00" itree="24">
      <Node pos="s" depth="0" Seq="0" IVar="4" Cut="1.5606616437435150e-01" cType="0" nS="1.2637132031250000e+05" nB="6.6523544921875000e+03" nEv="1.3302367187500000e+05" nSuw="1.2631600000000000e+05" nBuw="6.6570000000000000e+03" nEvuw="1.3297300000000000e+05" sepI="3.8015298545360565e-02" sepG="8.0908363452181220e-04" res="9.2085294425487518e-02" rms="1.9497512280941010e-01" nType="0" CC="0.0000000000000000e+00">
        <Node pos="l" depth="1" Seq="0" IVar="-1" Cut="0.0000000000000000e+00" cType="1" nS="1.1534433593750000e+05" nB="3.0667871093750000e+03" nEv="1.1841112500000000e+05" nSuw="1.1645600000000000e+05" nBuw="2.9910000000000000e+03" nEvuw="1.1944700000000000e+05" sepI="2.4608537554740906e-02" sepG="-1.0000000000000000e+00" res="2.9937250539660454e-02" rms="1.5687108039855957e-01" nType="1" CC="0.0000000000000000e+00"/>
        <Node pos="r" depth="1" Seq="1" IVar="1" Cut="-4.1545545682311058e-03" cType="0" nS="1.1026980468750000e+04" nB="3.5855671386718750e+03" nEv="1.4612547851562500e+04" nSuw="9.8600000000000000e+03" nBuw="3.6660000000000000e+03" nEvuw="1.3526000000000000e+04" sepI="1.3929006457328796e-01" sepG="6.7142401821911335e-03" res="1.1114202439785004e-02" rms="3.7321585416793823e-01" nType="0" CC="0.0000000000000000e+00">
          <Node pos="l" depth="2" Seq="1" IVar="-1" Cut="0.0000000000000000e+00" cType="1" nS="1.0386279296875000e+04" nB="2.7375463867187500e+03" nEv="1.3123826171875000e+04" nSuw="9.3340000000000000e+03" nBuw="2.8080000000000000e+03" nEvuw="1.2142000000000000e+04" sepI="1.2503625452518463e-01" sepG="-1.0000000000000000e+00" res="6.8776737898588181e-03" rms="3.5360467433929443e-01" nType="1" CC="0.0000000000000000e+00"/>
          <Node pos="r" depth="2" Seq="3" IVar="-1" Cut="0.0000000000000000e+00" cType="1" nS="6.4070056152343750e+02" nB="8.4802081298828125e+02" nEv="1.4887213134765625e+03" nSuw="5.2600000000000000e+02" nBuw="8.5800000000000000e+02" nEvuw="1.3840000000000000e+03" sepI="1.9904091954231262e-01" sepG="-1.0000000000000000e+00" res="-3.7304427474737167e-02" rms="4.4614002108573914e-01" nType="-1" CC="0.0000000000000000e+00"/>
        </Node>
      </Node>
    </BinaryTree>
    <BinaryTree type="DecisionTree" boostWeight="1.0000000000000000e+00" itree="25">
