<?xml version="1.0"?>
<MethodSetup Method="BDT::BDTG">
  <GeneralInfo>
    <Info name="TMVA Release" value="4.0.7 [262151]"/>
    <Info name="ROOT Release" value="5.27/06 [334598]"/>
    <Info name="Creator" value="sixie"/>
    <Info name="Date" value="Fri Oct  7 10:44:34 2011"/>
    <Info name="Host" value="Linux lxbuild042.cern.ch 2.6.18-238.1.1.el5 #1 SMP Wed Jan 19 11:06:36 CET 2011 x86_64 x86_64 x86_64 GNU/Linux"/>
    <Info name="Dir" value="/build/sixie/releases/analysis/CMSSW_4_2_3_patch2/src/ElectronMVA"/>
    <Info name="Training events" value="263323"/>
    <Info name="TrainingTime" value="323.245"/>
    <Info name="AnalysisType" value="Classification"/>
  </GeneralInfo>
  <Options>
    <Option name="V" modified="Yes">False</Option>
    <Option name="VerbosityLevel" modified="No">Default</Option>
    <Option name="VarTransform" modified="No">None</Option>
    <Option name="H" modified="Yes">False</Option>
    <Option name="CreateMVAPdfs" modified="Yes">True</Option>
    <Option name="IgnoreNegWeightsInTraining" modified="No">False</Option>
    <Option name="NTrees" modified="Yes">1000</Option>
    <Option name="BoostType" modified="Yes">Grad</Option>
    <Option name="AdaBoostR2Loss" modified="No">quadratic</Option>
    <Option name="UseBaggedGrad" modified="Yes">False</Option>
    <Option name="GradBaggingFraction" modified="No">6.000000e-01</Option>
    <Option name="Shrinkage" modified="Yes">1.000000e-01</Option>
    <Option name="AdaBoostBeta" modified="No">1.000000e+00</Option>
    <Option name="UseRandomisedTrees" modified="No">False</Option>
    <Option name="UseNvars" modified="Yes">4</Option>
    <Option name="UseNTrainEvents" modified="No">263323</Option>
    <Option name="UseWeightedTrees" modified="No">True</Option>
    <Option name="UseYesNoLeaf" modified="No">True</Option>
    <Option name="NodePurityLimit" modified="No">5.000000e-01</Option>
    <Option name="SeparationType" modified="No">giniindex</Option>
    <Option name="nEventsMin" modified="No">155</Option>
    <Option name="nCuts" modified="Yes">2000</Option>
    <Option name="PruneStrength" modified="Yes">0.000000e+00</Option>
    <Option name="PruneMethod" modified="Yes">nopruning</Option>
    <Option name="PruneBeforeBoost" modified="No">False</Option>
    <Option name="PruningValFraction" modified="No">5.000000e-01</Option>
    <Option name="NNodesMax" modified="Yes">5</Option>
    <Option name="MaxDepth" modified="No">3</Option>
  </Options>
  <Variables NVar="13">
    <Variable VarIndex="0" Expression="SigmaIEtaIEta" Label="SigmaIEtaIEta" Title="SigmaIEtaIEta" Unit="" Internal="SigmaIEtaIEta" Type="F" Min="0.000178762" Max="0.00999975"/>
    <Variable VarIndex="1" Expression="DEtaIn" Label="DEtaIn" Title="DEtaIn" Unit="" Internal="DEtaIn" Type="F" Min="-0.00699902" Max="0.00699973"/>
    <Variable VarIndex="2" Expression="DPhiIn" Label="DPhiIn" Title="DPhiIn" Unit="" Internal="DPhiIn" Type="F" Min="-0.149879" Max="0.149948"/>
    <Variable VarIndex="3" Expression="D0" Label="D0" Title="D0" Unit="" Internal="D0" Type="F" Min="-0.0199968" Max="0.0199917"/>
    <Variable VarIndex="4" Expression="FBrem" Label="FBrem" Title="FBrem" Unit="" Internal="FBrem" Type="F" Min="-6.96338" Max="0.999084"/>
    <Variable VarIndex="5" Expression="EOverP" Label="EOverP" Title="EOverP" Unit="" Internal="EOverP" Type="F" Min="0.000199951" Max="28.0938"/>
    <Variable VarIndex="6" Expression="ESeedClusterOverPout" Label="ESeedClusterOverPout" Title="ESeedClusterOverPout" Unit="" Internal="ESeedClusterOverPout" Type="F" Min="9.84333e-05" Max="1090.31"/>
    <Variable VarIndex="7" Expression="SigmaIPhiIPhi" Label="SigmaIPhiIPhi" Title="SigmaIPhiIPhi" Unit="" Internal="SigmaIPhiIPhi" Type="F" Min="0.00449116" Max="0.0272819"/>
    <Variable VarIndex="8" Expression="NBrem" Label="NBrem" Title="NBrem" Unit="" Internal="NBrem" Type="I" Min="0" Max="9"/>
    <Variable VarIndex="9" Expression="OneOverEMinusOneOverP" Label="OneOverEMinusOneOverP" Title="OneOverEMinusOneOverP" Unit="" Internal="OneOverEMinusOneOverP" Type="F" Min="-0.239157" Max="0.0910952"/>
    <Variable VarIndex="10" Expression="ESeedClusterOverPIn" Label="ESeedClusterOverPIn" Title="ESeedClusterOverPIn" Unit="" Internal="ESeedClusterOverPIn" Type="F" Min="0.000147225" Max="28.2173"/>
    <Variable VarIndex="11" Expression="IP3d" Label="IP3d" Title="IP3d" Unit="" Internal="IP3d" Type="F" Min="-0.0997658" Max="0.0950394"/>
    <Variable VarIndex="12" Expression="IP3dSig" Label="IP3dSig" Title="IP3dSig" Unit="" Internal="IP3dSig" Type="F" Min="-25.1038" Max="25.6281"/>
  </Variables>
  <Spectators NSpec="0"/>
  <Transformations NTransformations="0"/>
  <MVAPdfs>
    <PDF Name="BDTG_PDFSig" MinNSmooth="0" MaxNSmooth="0" InterpolMethod="2" KDE_type="1" KDE_iter="1" KDE_border="1" KDE_finefactor="1.0000000000000000e+00">
      <Histogram Name="BDT_tr_S_original" NBins="5266" XMin="-9.9412357807159424e-01" XMax="9.9896901845932007e-01" HasEquidistantBins="1">
        0 0 0 0 0 0 0 0 0 0 0 0 0 0 0 0 0 0 0 0 0 0 0 0 0 0 0 0 0 0 0 0 0 0 0 0 0 0 0 0 0 0 0 0 0 0 0 0 0 0 0 0 0 0 0 0 0 0 0 0 0 0 0 0 0 0 0 0 0 0 0 0 0.0118564 0 0 0 0 0 0 0.00664343 0 0 0 0 0.00490988 0 0 0 0 0 0 0 0 0 0 0 0 0 0 0 0 0 0 0 0 0 0 0 0 0 0 0 0 0 0 0.00973834 0 0 0 0 0.0139272 0 0.00664343 0 0 0.00664343 0 0 0 0 0 0 0 0 0 0 0 0 0 0 0 0.0118564 0 0.00563557 0 0 0 0 0 0 0 0 0 0 0 0 0 0 0 0 0 0 0 0 0 0 0 0 0 0 0 0 0 0 0 0 0 0 0 0 0 0 0 0 0 0 0 0 0 0 0 0 0.00800232 0 0 0 0 0 0 0 0 0 0 0 0 0 0 0.0203639 0 0 0 0 0 0 0 0 0 0 0 0 0 0 0 0 0 0 0 0.0137024 0 0 0 0 0 0 0 0 0 0 0.0203639 0 0 0 0.0126867 0 0 0 0 0 0 0 0 0 0 0 0 0 0 0 0 0 0 0 0 0 0.0118564 0 0 0 0 0 0 0 0 0 0 0 0 0 0 0 0 0 0 0 0 0 0 0 0 0 0 0.00955276 0 0 0 0 0 0 0 0 0 0 0 0 0 0.00817232 0.0050601 0 0 0 0 0 0 0 0 0 0 0 0 0 0 0 0 0 0 0 0 0 0 0 0 0 0 0 0 0 0 0 0 0 0 0 0 0 0 0.00895014 0 0 0 0 0 0 0 0 0 0 0 0 0 0 0 0 0 0 0 0 0.0203639 0 0 0.00973834 0 0 0.00471617 0 0 0 0 0 0 0 0 0 0 0 0 0 0 0 0 0 0 0 0 0 0.00563557 0 0 0 0 0 0 0 0 0 0 0.0221815 0 0 0 0 0 0 0.0118564 0.0203639 0 0 0 0 0 0 0 0 0 0 0 0 0 0 0 0 0 0 0 0 0.00490988 0 0 0 0 0 0 0 0 0.0203639 0 0 0 0 0 0 0 0 0 0 0 0 0 0 0 0 0.00471617 0 0 0 0 0 0 0.00471617 0 0 0 0 0 0 0 0 0 0 0 0 0 0 0 0 0 0 0.00471617 0 0 0 0 0.0122173 0 0 0 0 0 0 0 0 0 0 0 0.00490988 0 0 0 0 0 0 0 0 0 0.00973834 0 0 0 0 0 0 0 0 0 0 0 0 0 0 0 0 0 0 0 0 0 0 0 0 0 0 0 0 0 0 0 0 0 0 0 0 0 0.00817232 0 0 0 0 0 0 0 0.00471617 0 0.0118564 0 0 0 0 0 0 0 0 0 0 0 0 0 0 0 0 0 0 0 0 0 0 0 0 0 0 0 0 0 0 0.00626582 0.00817232 0 0 0 0 0 0 0 0 0 0 0 0 0 0 0 0 0 0 0 0 0 0 0 0 0 0 0 0 0 0 0 0 0 0 0 0 0 0 0 0 0 0 0 0 0 0.0248207 0 0 0 0 0.0163707 0 0 0 0 0 0 0 0 0 0 0 0 0 0 0 0 0 0 0 0 0 0 0 0 0.0428804 0 0 0.0248207 0 0 0 0 0 0 0 0 0 0 0.0118564 0.0118564 0 0 0 0 0 0 0 0 0 0 0 0 0.0163707 0 0 0 0 0 0 0 0.0139272 0 0 0 0 0 0 0 0 0 0 0 0 0 0 0 0 0 0 0 0 0 0 0 0 0 0 0 0 0 0 0 0 0.0050601 0 0.0122173 0 0 0 0 0 0 0 0 0 0 0.0428804 0 0 0 0 0 0 0 0 0 0 0 0 0 0 0 0 0 0 0 0 0 0 0 0 0 0.0203639 0 0 0 0 0 0 0 0 0 0 0 0 0 0 0 0 0 0 0 0 0 0 0.00471617 0 0 0 0 0 0 0 0 0 0 0 0 0 0.0118564 0 0 0 0 0 0 0 0 0 0 0 0 0 0 0 0.00563557 0 0 0 0 0 0 0 0 0 0 0 0 0 0 0 0 0 0 0 0 0 0 0 0 0 0 0 0 0 0 0 0 0 0 0 0 0 0 0 0.00471617 0 0 0 0 0 0.0139272 0 0.0221815 0 0 0 0 0 0 0 0 0 0 0 0 0 0 0.00471617 0 0 0 0 0 0 0 0 0 0 0 0 0 0 0.00490988 0 0 0 0.00563557 0 0 0 0 0 0 0.038523 0 0 0 0 0.0122173 0 0 0 0 0 0 0.00490988 0 0 0 0 0 0 0 0 0 0 0 0 0 0 0 0 0 0 0 0 0 0.0163707 0 0 0 0 0 0.00817232 0 0 0 0 0 0 0 0 0 0 0 0 0 0 0 0 0 0 0 0 0 0 0 0 0 0 0 0 0 0 0 0 0 0 0 0.0139272 0 0 0 0 0 0 0 0 0 0 0 0 0 0 0 0 0 0 0 0 0 0 0 0.00471617 0 0 0 0 0 0.00563557 0 0 0 0 0 0 0 0.0050601 0 0.00471617 0 0 0 0 0 0 0 0 0.0301023 0 0 0 0 0 0 0 0 0 0 0 0 0 0 0 0 0 0 0.00817232 0 0 0 0.0118564 0 0 0 0 0 0 0.0122173 0 0 0 0 0 0 0 0 0 0 0 0 0 0 0 0 0 0 0 0 0 0 0 0.0214308 0.0050601 0 0.0118564 0 0 0 0 0 0.00664343 0 0 0 0 0 0 0 0 0 0 0 0 0 0 0 0 0 0 0 0 0 0 0 0 0 0 0 0 0 0 0 0 0 0 0 0 0 0 0 0 0 0 0 0 0 0 0 0 0 0 0.0203639 0 0 0 0 0 0 0 0 0 0 0 0 0 0.00664343 0 0 0.0118564 0 0 0 0 0 0 0 0 0 0 0 0 0 0 0 0 0 0 0 0 0.0205707 0 0 0 0.0221815 0 0 0 0 0 0 0 0 0.00800232 0 0 0 0 0 0 0 0 0 0 0 0.00626582 0 0 0 0 0 0 0 0 0 0 0 0 0 0 0 0 0 0 0 0 0.00973834 0 0 0 0 0 0 0 0 0 0 0 0 0 0 0 0 0 0 0 0 0 0 0 0 0 0 0.0248207 0 0 0 0 0 0 0 0 0 0 0 0 0 0 0 0 0 0 0 0 0 0 0 0 0 0 0 0.032129 0 0 0 0 0 0 0 0 0 0 0 0 0 0 0 0 0 0 0 0 0 0 0 0 0 0 0 0 0 0 0 0 0.00800232 0 0 0 0.0139272 0 0 0 0 0 0 0 0 0 0 0 0 0 0 0 0 0 0 0 0 0.0118564 0 0 0 0 0 0 0 0 0 0 0 0.0118564 0 0 0 0 0 0.0203639 0 0 0 0 0 0 0.00973834 0 0 0 0 0 0 0 0 0 0 0.00817232 0 0 0 0 0 0 0 0 0 0.00490988 0 0 0 0 0 0 0 0 0 0 0 0 0 0 0 0 0.0203639 0 0.0179107 0 0 0 0 0 0 0 0 0 0 0 0 0 0 0 0 0 0 0 0 0 0 0 0 0 0 0 0 0 0 0 0 0.00563557 0 0 0.00626582 0 0 0 0 0 0.0428804 0 0 0 0 0 0 0 0 0 0.00817232 0 0 0 0 0 0 0 0 0 0 0 0 0 0 0 0 0 0 0 0 0 0 0.00817232 0 0.0113596 0 0 0 0 0 0 0 0 0 0 0 0 0 0 0 0 0 0 0 0 0 0 0 0 0 0 0 0 0 0.0139272 0 0 0 0.0050601 0 0 0 0 0 0 0 0 0 0 0 0 0 0 0 0 0 0 0 0 0 0 0 0 0 0.0118564 0 0 0 0 0.0122173 0 0 0 0 0 0 0 0 0 0 0 0 0 0 0.032129 0 0 0 0 0 0 0 0 0 0 0 0.0139272 0 0 0.032129 0 0 0 0 0.00973834 0 0 0 0 0 0 0 0 0 0 0.032129 0 0.00817232 0.032129 0 0 0 0.0137024 0 0 0 0 0 0 0.00817232 0 0 0.0118564 0 0 0 0 0 0 0 0 0 0 0 0 0 0 0 0 0 0 0.00817232 0 0 0 0 0 0 0 0 0 0.0109403 0 0 0.0118564 0 0 0 0 0 0 0 0 0 0 0 0 0 0 0 0 0 0 0 0 0 0 0 0 0 0 0 0 0 0 0 0 0 0 0 0.00471617 0 0 0 0 0 0 0 0 0 0 0 0 0 0 0 0 0 0.00471617 0.0117035 0 0 0 0 0 0 0 0 0.00973834 0 0 0 0 0 0.0139272 0 0 0 0 0 0 0 0 0 0 0 0 0 0 0 0 0 0 0.0163707 0 0 0 0 0 0 0 0 0 0 0 0 0 0 0 0.032129 0 0 0 0 0 0 0 0 0 0 0 0 0.00471617 0 0 0 0 0.0122173 0.0050601 0 0 0 0 0.00490988 0.0203639 0 0 0 0 0.048516 0 0 0 0 0 0 0 0 0 0 0 0 0 0 0.0163707 0 0 0 0 0 0 0 0 0 0 0 0 0 0 0 0 0 0 0 0 0 0 0 0 0 0 0 0 0 0 0 0 0 0.00626582 0 0 0 0 0 0 0 0 0 0 0 0 0 0 0 0.0163707 0 0.0139272 0 0 0 0 0 0 0 0 0 0 0 0 0 0 0 0 0 0 0 0 0 0 0.00800232 0.0109403 0 0 0 0 0 0 0 0.0248207 0 0 0.0220996 0 0 0 0.00626582 0 0 0 0 0 0 0 0 0 0 0 0 0 0 0 0 0 0 0.0163707 0 0 0 0 0 0.0163707 0 0 0 0 0 0 0 0 0 0 0 0 0 0 0 0 0 0 0 0 0 0 0 0 0 0 0 0 0.0137024 0 0 0 0 0.00563557 0 0 0 0 0 0 0 0 0 0 0 0.032129 0 0 0 0 0 0 0 0 0 0 0 0 0 0 0 0 0 0 0 0 0 0 0 0 0.00664343 0 0 0 0 0 0 0.0050601 0 0.0221815 0.0279433 0 0 0.00817232 0 0 0 0 0 0 0 0 0 0 0 0.00664343 0 0.00664343 0 0 0 0 0 0 0.0109403 0 0 0 0 0 0 0 0.0428804 0 0 0 0 0 0 0.0187083 0 0 0 0 0 0 0 0 0 0 0 0 0 0 0 0.0139272 0 0.0139272 0 0 0 0 0 0 0 0 0 0 0 0 0 0 0 0 0 0 0.0163707 0 0 0 0 0 0 0 0 0 0 0 0 0 0 0 0 0.00626582 0 0.0118564 0.0118564 0 0 0 0 0 0 0 0.00973834 0.032129 0.0139272 0.024543 0 0 0 0 0 0 0.00664343 0 0 0 0 0 0 0 0 0 0 0 0 0 0 0 0 0.00471617 0 0 0.0050601 0 0.0118564 0 0 0 0 0.00471617 0 0 0 0.0428804 0 0 0 0 0 0.0139272 0 0 0 0 0 0 0 0 0.00490988 0 0 0 0 0 0 0 0.00973834 0 0 0 0 0 0 0 0 0 0 0 0 0 0 0 0 0 0 0 0 0 0 0 0 0 0 0 0 0 0 0 0 0 0 0 0 0 0 0.00626582 0 0 0 0 0.00563557 0 0.0139272 0 0 0.00626582 0 0 0 0 0 0 0 0 0 0 0 0 0 0 0.0428804 0 0 0 0 0 0.00817232 0.0248207 0.00955276 0 0 0 0 0 0 0 0 0 0 0.0428804 0 0 0 0 0 0 0 0 0 0 0 0 0 0 0 0 0 0 0 0 0 0 0 0.00471617 0 0 0 0 0 0 0 0 0 0 0 0 0 0 0 0 0 0 0 0.0371891 0 0.00664343 0 0 0 0 0 0 0.00973834 0 0 0 0 0 0 0 0 0 0 0 0.00800232 0 0.0139272 0 0.00563557 0.00471617 0 0 0 0 0 0 0 0.00563557 0 0 0 0.0050601 0 0 0 0.0248207 0 0 0 0 0 0 0.0050601 0 0 0 0 0.032129 0 0 0 0 0 0 0 0 0.0428804 0 0 0 0 0 0.00817232 0 0.0118564 0 0 0.00490988 0 0 0 0.00626582 0 0 0 0 0 0.00800232 0 0 0 0 0 0 0 0 0 0 0 0 0 0 0 0 0 0 0 0 0 0 0 0 0 0 0 0 0 0 0.0139272 0 0 0 0 0 0.0050601 0.00664343 0 0 0.00563557 0 0 0 0.0301023 0 0 0 0 0 0 0 0 0 0 0 0 0 0 0 0 0 0 0 0 0.032129 0 0.0115367 0.00471617 0 0.0118564 0 0.00973834 0 0 0 0 0 0 0 0.00955276 0.00471617 0 0 0 0 0 0.0203639 0 0 0 0.0050601 0 0 0 0 0 0.00490988 0 0 0 0 0 0 0 0 0 0.00490988 0.0163707 0 0 0 0 0 0 0 0 0 0 0 0 0 0 0.0428804 0 0 0 0 0 0 0 0.0118564 0 0.00664343 0 0 0 0 0 0 0.00973834 0 0.0188023 0 0 0 0 0 0 0 0 0.0428804 0 0 0 0 0 0 0 0 0 0.00800232 0 0 0 0 0 0 0 0.0118564 0.00490988 0 0 0 0 0 0.032129 0 0.0163707 0.00626582 0 0 0 0 0.00664343 0 0 0 0 0 0 0.0050601 0 0 0 0 0.00817232 0 0 0 0 0 0.00626582 0 0 0 0 0 0 0 0 0 0.00955276 0 0 0 0 0.00563557 0 0 0 0 0 0 0.00471617 0 0 0 0 0 0 0 0 0 0 0 0 0.0139272 0 0 0 0.032129 0 0 0 0 0.00973834 0.0118564 0.00895014 0 0 0 0 0 0 0 0.0139272 0 0 0 0 0.00563557 0 0 0.0248207 0 0.00800232 0 0 0 0.0428804 0 0 0.00471617 0.00955276 0 0 0 0 0 0 0 0.00664343 0.024543 0 0 0.00664343 0 0 0 0.0221815 0 0 0 0 0 0 0 0 0.032129 0.0139272 0 0 0 0 0 0 0 0 0 0 0 0.032129 0 0 0 0 0.00817232 0 0 0 0 0 0 0 0 0 0.0139272 0 0 0.00626582 0 0 0 0 0 0 0 0.0163707 0 0 0 0.00626582 0.00626582 0 0.0144545 0 0 0 0 0 0 0 0 0 0 0 0 0 0.00664343 0.0139272 0 0.0122173 0 0 0 0 0 0 0.00996998 0 0 0 0 0 0 0 0 0 0 0 0.0050601 0 0 0.0130822 0 0.00664343 0 0.0118564 0.00973834 0 0 0.00973834 0 0 0 0 0.00817232 0 0 0 0.0139272 0 0 0 0 0.0163707 0.00973834 0 0 0 0 0 0 0 0 0 0 0 0 0 0 0 0 0 0 0.00895014 0.0203639 0 0 0 0 0 0 0 0 0 0 0 0 0 0 0 0 0 0 0 0 0 0 0 0.0214308 0 0.0163707 0 0 0 0 0 0 0 0.00817232 0.0115367 0 0 0 0 0 0 0 0.00626582 0 0 0 0.00490988 0 0 0.0203639 0 0 0 0 0.00817232 0.0203639 0 0 0 0 0 0 0 0 0 0 0 0.00471617 0 0.0050601 0 0 0 0 0 0 0 0 0.0109403 0 0 0 0 0 0 0 0 0.0050601 0 0.0428804 0 0.00955276 0 0 0 0 0.0118564 0 0 0 0 0.0248207 0.00973834 0 0 0 0 0 0 0 0 0 0 0 0 0 0 0 0 0 0 0 0 0.0203639 0.0428804 0 0 0 0.0139272 0 0 0 0 0 0 0.00817232 0 0.0221815 0 0 0 0 0.0142409 0.00664343 0 0 0.00471617 0 0 0 0.00471617 0 0 0 0 0 0 0 0 0 0 0 0.0203639 0.0163707 0 0 0 0 0.00626582 0 0.0050601 0 0.00800232 0.0428804 0.00664343 0 0 0 0 0 0.00973834 0.0118564 0 0 0 0 0.00490988 0 0.00471617 0 0.0248207 0 0 0 0 0.00973834 0 0 0.0118564 0 0 0 0 0 0 0.032129 0 0 0 0.0215948 0.00895014 0 0.0194767 0.00563557 0 0.00817232 0 0.00471617 0 0 0 0 0 0 0 0 0 0 0.00973834 0 0 0 0 0 0.0203639 0 0 0 0.0163707 0 0.00664343 0 0 0 0 0 0.00563557 0.00626582 0 0.00490988 0.00664343 0 0 0.00664343 0 0 0 0 0 0 0.0050601 0.00895014 0 0.0129092 0 0.0160232 0 0 0 0.0203639 0 0 0 0 0 0 0 0.00817232 0 0 0 0.00973834 0 0.00973834 0 0 0.00626582 0.0137024 0 0 0 0 0 0 0 0 0 0.0118564 0.0203639 0 0 0 0.0252738 0 0.032129 0 0 0 0 0 0 0 0.0138079 0 0 0.0248207 0 0 0 0 0 0 0.00490988 0.00563557 0 0.00471617 0 0.00626582 0.00563557 0 0 0 0 0 0 0 0 0.00563557 0 0.0248207 0.0050601 0 0 0 0.0163707 0 0.032129 0 0.0139272 0.00973834 0 0 0 0 0 0.0184999 0 0 0 0 0 0.00664343 0.0221815 0 0 0 0 0 0.00817232 0.00563557 0 0 0 0 0 0.032129 0.0139272 0 0 0 0 0 0 0 0 0 0 0 0 0 0.00563557 0.0115367 0 0 0 0 0.0266298 0.00563557 0.0147984 0.00563557 0.0117035 0.00664343 0 0 0 0 0 0 0.0109403 0 0 0 0 0 0 0.0139272 0 0.00817232 0 0 0.0163707 0.0115367 0 0 0 0 0 0 0 0 0.00563557 0 0 0 0 0 0.0163446 0 0 0 0.0282271 0 0.020193 0.0050601 0 0 0 0 0 0.0050601 0 0 0 0 0.0203896 0 0 0 0 0.00471617 0.0301023 0 0 0 0.00626582 0 0.00626582 0 0.0214308 0 0 0.00471617 0 0 0.00626582 0 0.00664343 0 0 0.032129 0 0 0 0.0128885 0.00817232 0 0 0 0 0 0 0 0 0.0118564 0.00664343 0 0 0.0304841 0 0.00471617 0 0 0.0144545 0 0 0 0 0 0 0 0 0 0 0 0 0 0.0118564 0.032129 0 0.00563557 0 0 0 0 0 0 0 0.00664343 0 0.0163707 0 0 0 0.034559 0 0 0.0298808 0 0 0.0101202 0 0 0.00664343 0 0 0 0 0 0.0163707 0 0.00471617 0 0 0 0 0 0.0132324 0 0.00955276 0 0 0.0203639 0 0 0 0 0 0 0.0206141 0.0221815 0 0 0.00817232 0 0.00996998 0.0248207 0 0 0 0 0 0 0 0 0 0 0 0.00471617 0.0118564 0.0139272 0.0153739 0.00664343 0 0 0 0.032993 0 0.00973834 0 0 0.00817232 0.00471617 0.00817232 0 0 0.0411914 0 0 0 0 0 0.00563557 0.00955276 0 0.0163707 0.0428804 0.0248207 0 0.0366771 0 0 0.0139272 0 0 0.00471617 0 0 0 0 0 0 0 0.0118564 0.0428804 0.0367346 0.0248207 0.0050601 0.0169165 0.0050601 0 0 0.00973834 0 0 0.00664343 0 0 0 0 0.0118564 0 0 0 0 0 0.0118564 0 0.0248207 0.0106957 0 0 0.00817232 0.0189873 0 0.0377645 0.0248207 0.0153739 0.00471617 0 0 0 0.032129 0.00563557 0.00664343 0.0163707 0 0 0.0122173 0 0 0 0 0 0.00471617 0.0203639 0.0342912 0 0 0 0.00817232 0 0.00563557 0.0163707 0 0 0 0 0 0 0.0137024 0.0137024 0.0283663 0 0 0 0 0.00664343 0.0248207 0 0 0.00973834 0 0 0 0.00973834 0 0.032129 0 0 0 0.0526188 0 0 0.0366771 0.00973834 0.00563557 0 0 0 0 0.00664343 0 0.0248207 0 0 0.0101202 0 0.00817232 0.00664343 0.0428804 0.0163707 0.0219296 0 0.0050601 0.00817232 0 0 0 0 0.00817232 0 0 0 0 0.0248207 0 0.0163707 0 0 0.0163707 0.00471617 0.0383948 0 0.00471617 0.00895014 0 0 0.00563557 0 0.0139272 0.0203639 0 0 0 0.00664343 0 0 0.00626582 0 0 0.0130822 0 0.0383561 0.00800232 0 0.0163707 0 0.0314641 0 0 0 0 0.0161746 0.0252738 0 0 0 0 0 0 0.0203639 0 0 0.032129 0.0428804 0 0 0 0.00490988 0.00973834 0 0.0195628 0 0 0.00973834 0.00563557 0 0 0 0 0.0139272 0.0203639 0 0 0.00817232 0.00895014 0 0 0 0 0.0118564 0 0.00664343 0 0.00817232 0 0 0.00563557 0.0153739 0 0.0248207 0.00626582 0.0248207 0 0.0367346 0.00977627 0 0 0.0118564 0 0 0 0 0.0163818 0.0248207 0.0128885 0 0 0 0 0.0138079 0 0.0203639 0.00471617 0.0218264 0.00955276 0.048516 0 0 0 0 0 0 0.00626582 0 0.00800232 0.0226365 0.00817232 0 0 0 0.0139272 0.0163818 0.00490988 0 0 0 0.0302979 0 0 0.00490988 0.00563557 0.00955276 0 0.0050601 0 0 0 0.027924 0 0 0 0.0118564 0 0.00563557 0.00800232 0 0.00490988 0 0 0.0477903 0.0428804 0 0 0.00955276 0.00471617 0.00626582 0 0 0.00490988 0 0 0.00943233 0.0115533 0.00471617 0 0.00490988 0.0188371 0.0210869 0 0 0.0118564 0 0.0285363 0.0118564 0 0.0203639 0 0 0.0393848 0 0 0.0153739 0.0050601 0.0203639 0 0.00471617 0.00817232 0.00490988 0 0 0 0.0118564 0 0.033786 0 0.0248207 0 0.0139272 0.0394664 0.0203639 0.00817232 0 0 0.00471617 0.0118564 0.0506043 0.0419052 0 0 0.00973834 0.00563557 0.0318379 0.032129 0 0 0.00664343 0 0.00471617 0.00471617 0.00471617 0.0387724 0 0.00817232 0.00563557 0.0342688 0.0118564 0 0.0050601 0 0 0 0.0248207 0 0.0163707 0 0.00563557 0 0 0 0.0237684 0 0 0 0.0266298 0.00973834 0 0 0.00817232 0 0.00664343 0.0257836 0 0 0 0 0.034559 0 0.0428804 0.0139272 0.0163707 0.0203639 0 0.0197256 0.00817232 0.00664343 0 0 0 0 0 0 0 0.0163707 0.0115367 0 0 0 0 0.0118564 0 0 0.0248207 0 0.00490988 0.0177407 0 0.0724303 0.0118564 0.0385632 0 0.00490988 0.00973834 0 0.00490988 0.0117035 0.00895014 0.0485335 0 0 0.0118564 0 0 0.0118564 0.0249267 0 0.00973834 0.020859 0.0304562 0 0.0270074 0.0118564 0 0.0248207 0 0.0367346 0.00817232 0.0203639 0 0.0460562 0 0.0139272 0 0.00817232 0.00563557 0.0348021 0.0139272 0 0 0.012279 0.0113596 0 0.00626582 0.0139272 0.00563557 0 0 0 0 0.00664343 0 0.0136379 0.0301023 0 0 0 0.0428804 0.0248207 0 0 0 0.00490988 0.0230141 0.0163707 0 0 0.0171889 0 0.058238 0 0 0 0 0 0 0.0248207 0 0 0 0 0 0.0139272 0.0248207 0.0563603 0 0.00817232 0 0 0 0 0.0428804 0 0.0250801 0 0 0.0214308 0.0139272 0.00817232 0.0198587 0 0.0050601 0 0.00664343 0 0.0186434 0.0248207 0 0.0139272 0.0118564 0 0.0203639 0.00800232 0 0.0248207 0.0428804 0 0.0341061 0 0 0 0 0.00817232 0.0118564 0 0 0.0428804 0.032129 0 0 0 0 0.00563557 0 0.032129 0.0338627 0 0.00973834 0.0337708 0 0.0750094 0.0337708 0.00471617 0 0.0407279 0.0252738 0 0.0313331 0.00664343 0.0498696 0.00563557 0.00471617 0.0139272 0.0050601 0 0.0426744 0.0278545 0 0 0 0 0 0 0.0165968 0 0.00973834 0 0.0050601 0 0 0.0195319 0 0 0 0 0.0266298 0 0.0139272 0 0 0 0.00943233 0.0165726 0 0 0 0.0282721 0.00664343 0.0250801 0 0.00563557 0.0370389 0.0163707 0.00973834 0.026614 0 0.00664343 0.0160042 0 0.00973834 0.0200287 0 0.00817232 0.0298808 0 0.0138079 0 0.0730641 0 0 0.0118564 0 0.0248207 0.0118564 0.032129 0 0 0.00895014 0.0139272 0 0.0205067 0.00490988 0.0450267 0 0 0.0287729 0.0314641 0.00471617 0.00981977 0 0.0576962 0 0 0 0.00490988 0.00563557 0.0550977 0 0 0.0139272 0.00973834 0.0118564 0.00817232 0.0163707 0 0.0259186 0 0.00800232 0 0 0 0.00664343 0.0370389 0 0.049621 0.00471617 0.00563557 0 0.00490988 0.00817232 0 0 0 0 0.0118564 0 0.0163707 0.0322204 0.0119014 0.0390524 0.00817232 0.0144545 0.00563557 0.0139272 0.0109403 0.113134 0 0.0109403 0 0.0340663 0.0109403 0 0.0139272 0.00955276 0.032129 0.0139272 0 0 0 0 0 0.00996998 0 0.0126867 0 0.00973834 0.00563557 0.0589206 0 0.0118564 0.0366771 0.0337649 0.00563557 0 0 0.00471617 0 0.0310948 0.00817232 0 0.0165726 0.0441851 0 0 0.0138079 0.0118564 0.0118564 0 0 0.0129122 0.00490988 0.026109 0.040009 0.0418673 0.0269161 0 0.0383948 0.0202813 0.110098 0.0314641 0.0479405 0.0599834 0.0138079 0 0.0144626 0.00471617 0.00471617 0.00817232 0 0 0.0240737 0.00626582 0 0 0.0309564 0 0 0 0.0220063 0.00973834 0.0163707 0 0 0.00626582 0 0 0.00626582 0.0205707 0.00471617 0.0632444 0 0.0189571 0.00490988 0.0118564 0 0.0531753 0.00973834 0 0 0.027311 0.00996998 0.0163707 0.00626582 0.0050601 0.0322204 0 0.00563557 0.0103517 0.0356717 0 0.0118564 0.0421598 0 0.0166176 0.0117035 0.0111757 0.0248207 0.0200287 0 0 0.0169165 0.00563557 0.0248675 0.0535883 0.00563557 0.0139272 0.0212806 0.00817232 0.0205707 0.0273349 0.00664343 0.024543 0.0428804 0 0.032823 0.0118564 0 0.00664343 0.0186885 0.00817232 0.0335964 0.0795575 0 0.0105455 0.00664343 0.0387724 0.0248207 0.0146458 0.0259995 0.00895014 0.0144545 0.0130624 0.0220996 0.0220063 0.0210869 0.032129 0.0392588 0 0 0.00563557 0.0132324 0.00490988 0 0 0.0220996 0.0181222 0.0495239 0.0395867 0.0279074 0.0361454 0.0265949 0.032129 0 0.00996998 0.0163818 0.0139272 0.032129 0.0161803 0 0 0.0050601 0 0.0156565 0.039222 0.0863687 0.00973834 0.0479405 0.0148158 0.0568077 0.00996998 0 0.0503794 0 0.0163707 0.00490988 0 0.00817232 0.0253319 0.00973834 0.0410843 0.00626582 0.0277873 0 0.00471617 0.026109 0 0.0317682 0.0823729 0.0118564 0.00563557 0.0115533 0.0137024 0.0117035 0.0187178 0.0259235 0.0109403 0.0674795 0.0688799 0.0118564 0.0252868 0.00626582 0.0163707 0.00817232 0.0358474 0.025803 0.0384862 0.00626582 0.0192911 0.0700944 0.00800232 0.0299786 0 0.0118564 0.0370389 0.0496864 0 0.00563557 0.0451846 0.0050601 0 0.0271502 0.0210608 0 0.0184999 0.0179107 0.0285755 0.00563557 0.0248207 0 0.0367346 0.0247449 0.0526996 0.00895014 0.0259995 0 0.0800107 0.00817232 0.0118564 0.0138079 0.0706133 0.0913964 0.00664343 0.0453614 0.0418673 0.0200287 0.0368451 0.0050601 0 0.0125316 0.0118564 0 0.0220063 0.0377645 0 0.0148158 0.0139272 0.0153739 0.0243533 0.0248207 0.0139272 0.0203217 0.0237128 0 0.0166134 0.0050601 0 0 0 0.0118564 0.0361466 0 0.00664343 0.024543 0.00817232 0.025424 0.0289789 0.025803 0.0160042 0.0861192 0 0.0200287 0.0325767 0.0771716 0.0840728 0.00626582 0.0378564 0.0203639 0.0526188 0.0198587 0.0586336 0.043109 0 0 0 0.0282271 0.0163707 0.0210869 0.020933 0.0473906 0.0117035 0.0193619 0.0341203 0.0555436 0 0.00973834 0.0550219 0.035522 0.00973834 0 0.0139272 0.0319198 0.037281 0.0146482 0.0433447 0.0317256 0.0139272 0.0284467 0.0771618 0.0248207 0.0237578 0.0148364 0.0929389 0.0598676 0.0417687 0.0219296 0.0132324 0.0266549 0.0451326 0.0624664 0 0.0205707 0.0460562 0.0412024 0.0189843 0.0160232 0.0230252 0.0202838 0.00955276 0.0631271 0 0.0050601 0.00490988 0.041755 0.0292593 0.0320495 0.0709219 0 0.0050601 0.00563557 0.0327264 0.090584 0 0.06498 0.00981977 0.0118564 0.0050601 0.0200901 0.0255986 0.0382852 0.00817232 0.0943602 0.00895014 0.0136663 0.0739408 0.0459369 0.0439854 0.0557046 0 0 0.0218747 0.0197256 0.0161746 0.00471617 0.00626582 0.114828 0.0194767 0.0144381 0.00490988 0.0797436 0.0230385 0.0565345 0.0215948 0.0184999 0.0229708 0.0622309 0.062438 0.0142681 0 0.0708011 0 0.0418673 0.0619021 0.00800232 0.00626582 0.0128885 0.0220996 0.042309 0.0318418 0.00563557 0.0930469 0.0259995 0.0366771 0 0.0109403 0.0382144 0.0050601 0 0.0189873 0.0362405 0.027924 0.0646474 0.0138079 0 0.0153739 0.0210869 0.0109403 0.0282382 0 0.124227 0.0295368 0.00817232 0.00664343 0.0519455 0 0.0306935 0.0118564 0.0113596 0.00817232 0.0050601 0.058474 0.00626582 0.0215948 0.0410041 0.0130624 0.0302979 0.00563557 0.0434861 0.0128885 0.0457537 0.0313301 0 0.0105455 0.00817232 0.0197083 0.046792 0.0629541 0.0908402 0.0434549 0.0452223 0.00471617 0.0203639 0.0549784 0.0225187 0.0245431 0.00817232 0.0477038 0.0434001 0.0607782 0.0297306 0.0657399 0.00626582 0.0163707 0.0552824 0.0430425 0.0188371 0.00973834 0.0569241 0.0385078 0.0421686 0.0210902 0.0226268 0.0513253 0.00664343 0.0695865 0.0794046 0.0403013 0.0129122 0 0.0494308 0.0364741 0.00664343 0.00977627 0.0177251 0.0244727 0.0404386 0.0163707 0.0113596 0.059932 0.0689265 0.0429957 0.00973834 0.0524625 0.0770914 0.0297306 0.0050601 0.0331833 0.0410774 0.0357295 0.0445718 0.0362294 0.0162695 0.0385394 0.070207 0.0598593 0.0304562 0.0163707 0.0243685 0.0512793 0.0887705 0.0244675 0.00973834 0.0626451 0.12184 0.0380104 0.0285129 0.00943233 0.0864651 0.0553783 0.0129092 0.0478349 0.0257836 0.0322204 0.0415382 0.0332872 0.00973834 0.0436389 0.0594796 0.0282271 0.0261445 0.131632 0.0275935 0.0641341 0.0575731 0.0401226 0.012279 0.0115533 0.02348 0.0139272 0.0403927 0.0379331 0.0442142 0.0569631 0.0181222 0.0830091 0.0719621 0.0410904 0.051325 0.0904754 0.0364793 0.026083 0.0370857 0.0748851 0.020193 0.0854894 0.0191707 0.0118564 0.0220996 0.037337 0.0122173 0.0898362 0.0448339 0.00563557 0.027524 0.0346855 0.0146458 0.0325101 0.0157558 0.0449192 0.0344467 0.0448661 0.0436943 0.0812276 0.0711595 0.044418 0.0287257 0.0168538 0.042963 0.100461 0.0728568 0.147655 0.00973834 0.0397804 0.0701904 0.0982367 0.0255885 0.103537 0.0334979 0.0291432 0.0552057 0.0689741 0.0887037 0.0179107 0.0606902 0.0768266 0.0633679 0.111581 0.0600594 0.07547 0.0425667 0.0269634 0.0514654 0.11591 0.0309224 0.0591499 0.0317248 0.0948281 0.0241354 0.0197256 0.0665115 0.0240642 0.0878463 0.029683 0.0938454 0.0290892 0.0244245 0.0493987 0.060538 0.0341114 0.10726 0.0163707 0.114138 0.0782913 0.048496 0.0603109 0.0705213 0.0849303 0.0205707 0.112685 0.0925253 0.0419002 0.0815219 0.0298485 0.063786 0.0546129 0.0126867 0.0695557 0.0643193 0.0379092 0.0874789 0.063159 0.100351 0.131635 0.0534095 0.0605925 0.0497367 0.103551 0.0286497 0.0430428 0.142698 0.093988 0.0512951 0.0261754 0.0733168 0.122162 0.077724 0.0489703 0.0163312 0.205399 0.0692052 0.0775222 0.0861649 0.0412024 0.0410062 0.0308437 0.106173 0.038713 0.0549328 0.0433047 0.13002 0.0794162 0.080853 0.0296576 0.0369365 0.0883892 0.104473 0.0772051 0.0675202 0.0564219 0.0901205 0.0535883 0.0573135 0.0334461 0.082957 0.0396702 0.0600547 0.0336529 0.0257836 0.0496342 0.1153 0.128106 0.0971986 0.0521139 0.104228 0.0804851 0.0866187 0.100934 0.13186 0.0627124 0.0642987 0.0642138 0.0776691 0.0961999 0.180321 0.0788049 0.0814048 0.041285 0.124733 0.0560571 0.0514171 0.0760231 0.0925752 0.107039 0.0934945 0.0975389 0.0875082 0.0528428 0.0635538 0.0463422 0.0920288 0.119691 0.172952 0.0442802 0.110091 0.0824162 0.100827 0.0822369 0.140521 0.0893122 0.0951206 0.080974 0.0462805 0.107415 0.104497 0.131388 0.0809006 0.157094 0.215864 0.0887847 0.0926717 0.0841833 0.0526933 0.174831 0.105665 0.122293 0.126506 0.0645414 0.128012 0.195323 0.0479282 0.105114 0.130458 0.0569813 0.0551678 0.0852143 0.0799744 0.213936 0.132964 0.144241 0.139021 0.16197 0.241765 0.158084 0.0743701 0.123085 0.120712 0.219229 0.0680925 0.153781 0.239266 0.103826 0.147169 0.103526 0.0603201 0.0617531 0.14024 0.0978093 0.12059 0.109714 0.113568 0.127991 0.0911515 0.0934599 0.120765 0.107031 0.146563 0.106397 0.118094 0.0706681 0.0887567 0.129622 0.207673 0.122275 0.0537735 0.0939273 0.175146 0.092784 0.153261 0.211601 0.204985 0.214766 0.315264 0.207226 0.0699785 0.0563232 0.184629 0.0878331 0.153075 0.1382 0.153228 0.109155 0.15196 0.178318 0.181067 0.219627 0.12501 0.282597 0.115506 0.238788 0.174053 0.145483 0.154596 0.188395 0.124563 0.208142 0.235716 0.068889 0.263691 0.185576 0.137972 0.26408 0.181924 0.149951 0.138446 0.100829 0.121555 0.084689 0.235296 0.17042 0.299618 0.246709 0.407323 0.252243 0.177252 0.243982 0.172336 0.202523 0.138657 0.260099 0.132488 0.222808 0.2265 0.13618 0.22798 0.233989 0.260698 0.161167 0.14665 0.139928 0.222383 0.210379 0.29936 0.0672639 0.264559 0.214993 0.246832 0.148611 0.247641 0.0889564 0.244008 0.234249 0.333953 0.166278 0.259435 0.256804 0.17859 0.228154 0.298378 0.225989 0.280818 0.188863 0.221667 0.325655 0.243914 0.250376 0.337191 0.394046 0.170922 0.34686 0.20229 0.393127 0.325026 0.305759 0.352618 0.283449 0.443392 0.441092 0.350602 0.286738 0.263603 0.282322 0.248006 0.376417 0.394126 0.248649 0.274939 0.305432 0.2541 0.299366 0.232111 0.325308 0.443712 0.246787 0.397391 0.376845 0.298387 0.333195 0.362372 0.247772 0.424534 0.303859 0.526271 0.382492 0.372395 0.260425 0.371223 0.441409 0.466567 0.43157 0.422446 0.351006 0.225695 0.449073 0.537978 0.452007 0.477201 0.421361 0.586089 0.481464 0.465166 0.516582 0.564162 0.553944 0.493843 0.571211 0.692464 0.356029 0.4551 0.499147 0.660694 0.361097 0.520157 0.320211 0.640489 0.570251 0.654638 0.686582 0.704197 0.565277 0.581835 0.740975 0.779391 0.625606 0.710374 0.708314 0.746096 0.718546 0.701847 0.966912 0.701578 0.62488 0.716582 0.826213 0.791686 0.642123 0.662471 0.699445 0.730301 0.726517 0.710696 0.649799 0.867089 0.951673 0.860432 1.13099 0.932428 1.09321 1.24059 0.85515 0.967963 1.08436 1.01851 1.2438 1.30801 1.26905 1.37876 1.17917 0.954024 1.23565 1.05481 1.27467 1.10875 1.15965 1.43012 1.43054 1.36972 1.37777 1.37175 1.26639 1.33734 1.51511 1.69482 1.45343 1.62627 1.56999 1.48196 1.42297 1.84927 1.51303 1.79794 2.23348 2.10484 1.95847 1.8221 1.8381 1.92197 1.99857 2.40968 2.06076 1.96122 2.26992 2.08215 2.60637 2.51356 2.66467 2.63623 3.27446 3.09556 3.01511 3.21859 2.78655 3.26959 3.44364 2.76223 3.10667 3.11911 3.92288 3.85517 3.87269 3.37609 3.8436 4.03045 4.17928 4.39097 4.5696 4.89362 4.70991 5.71334 5.10307 5.24578 5.9878 5.37456 5.86652 6.85615 6.69041 6.47508 7.60606 8.25404 8.82906 9.70491 9.70049 10.7382 11.4896 12.4271 13.846 14.3677 15.7059 17.6122 18.7856 21.9485 23.5233 27.0746 29.2675 30.9842 38.5528 43.1576 50.9872 51.8758 55.0036 64.2581 78.9058 92.7857 81.6065 95.3854 117.405 136.594 107.983 113.947 155.084 140.049 154.123 94.7447 93.0675 114.048 61.0005 42.1802 16.8419 13.5574 8.81235 3.61893 0.160909 0.0965646 0.0696477 0.0464576 0 0 
      </Histogram>
    </PDF>
    <PDF Name="BDTG_PDFBkg" MinNSmooth="0" MaxNSmooth="0" InterpolMethod="2" KDE_type="1" KDE_iter="1" KDE_border="1" KDE_finefactor="1.0000000000000000e+00">
      <Histogram Name="BDT_tr_B_original" NBins="5266" XMin="-9.9412357807159424e-01" XMax="9.9896901845932007e-01" HasEquidistantBins="1">
        2.52462 0 0 0 0 0 0 0 0.340124 0 3.97361 2.08261 0 0 1.20262 0 0 0 0 0.946811 0 0 0 0 0.946811 0 0 0 0 0 0 0 0 0 0 1.05036 0 0 0.78086 0 0.440737 0 1.86184 0 0 0 0 1.86184 2.1845 0 0 0.850647 0.946811 0 0.680248 1.43838 0 0 0 0.758676 0 0 0.440737 0 0 0 0 0 1.05036 0 0 0 0.41077 0.440737 2.14003 0 0.850647 0 0 0.887038 0.340124 1.31756 0 0 0 0 0 1.03925 0.850647 0 1.48073 0 5.02397 0 0.587731 1.39049 0.957368 0.729834 0 0.440737 0 0 0.729834 0 1.19077 0.340124 5.37194 0 2.23273 0.440737 1.61253 1.36814 0.340124 0 0 0 0.340124 0 0.41077 0 0 0 1.45595 0.729834 4.63394 0.850647 2.74411 0.41077 0 0.927855 2.23273 0.881473 0 0.587731 2.41895 0 0.850647 0 0 2.86261 0 0 1.39049 1.90101 1.17057 0.758676 0 0 0.340124 0.340124 0.680248 0.440737 0.587731 0.729834 1.80126 0 1.05036 4.11005 0 1.99189 2.23273 0 0 0 0 2.39997 0 0 0.850647 0.41077 0.758676 1.20262 0 0 0 1.49688 0.587731 0.340124 0 1.45967 0 0.587731 0 0 0.850647 0 0 0.587731 2.1845 0 1.90187 0 1.05036 0 0 0.440737 3.36829 0.850647 0.440737 0 0 0.340124 0.504694 0 0 0 0.340124 1.21103 0 1.63809 1.47477 1.62706 0 0.729834 0 0 1.61253 1.4102 2.82046 0 3.97361 1.20262 0.41077 0 0 0 0.340124 0 0.41077 0 0 0.440737 0 0.440737 0 1.90765 0.340124 0.587731 0.729834 0 1.8926 0.440737 0.340124 0.946811 0 0 0 0.587731 3.16258 1.34961 0 0 1.1406 0.729834 3.89024 1.19941 0 0 0 0 0 0.440737 0 2.00773 0 0.729834 1.79746 0.440737 0.340124 0 2.92578 1.45595 0.340124 0.340124 0 3.65019 0 0 0.761881 1.67665 2.8328 1.4911 0.87091 1.45595 0.340124 0 0.850647 0.440737 0 0 0.41077 0.587731 0 0 0.850647 0 0 0 0.41077 0.850647 0 0 0 0.440737 0.340124 1.8926 1.05036 0 0.340124 0.504694 0 0 0.850647 1.28168 0.729834 0 0.440737 0.750894 0 0 0.729834 0 0.41077 0 1.62698 0.761881 0 0 0.729834 0.41077 0.440737 0 2.3066 0 0.850647 1.49688 0 0 0.87091 1.47999 0 1.51277 0 0.340124 1.49688 0.440737 0.440737 0.41077 0.850647 0 0 0 0 0.680248 0 0 0 0 1.20262 0 0.587731 0 0 0 0 0 1.7802 0.750894 0 2.08261 0 1.19077 0 1.05036 0 0 0.440737 1.29138 0 0 0.340124 0 3.97361 0.440737 1.58048 0.440737 0 0.440737 2.00773 0 0 0.340124 0 0 0.850647 0.504694 0 0 0 0 0 0 1.90101 0.340124 1.8926 0.340124 1.86184 0 0.41077 0 1.05036 0.946811 2.3838 0.41077 0.504694 0 0.761881 0.850647 1.49688 1.05036 0.340124 0.850647 0.758676 0 0 0.587731 1.36814 1.19941 0.41077 0.440737 0 0 0.850647 0 0.340124 1.86672 0 0.440737 1.29749 0.41077 0 0 0 0.957368 0 0 0 0 0.957368 0.440737 0 0 0 0 0.340124 0 1.38755 1.29138 1.46113 1.45967 1.03925 0.729834 0.340124 0.729834 0 0.946811 0.41077 0 0 1.4102 0 1.63634 1.37938 0 0 0 2.08261 0 0 0 0 0 0 0 1.17057 1.54065 0.340124 0.761881 0.850647 0.78086 0.340124 0.440737 0.41077 0 0 0.440737 0.340124 0 1.05036 0.340124 3.97361 0 1.96064 0.340124 0 0 1.70129 0 1.82097 0.41077 0 0.957368 0.340124 1.4911 2.46056 1.39049 0 0 0.587731 0.440737 2.1845 0.850647 0 0.946811 0.440737 0.440737 1.03925 0 0 0.41077 0 0.440737 0 0 1.49688 0.41077 0 0 0.440737 1.05036 0.729834 0.41077 0 0.340124 0 0.440737 0.87091 1.86184 0 0.440737 0 0.340124 0.440737 0 0 0 0.41077 1.58048 0 0 0.729834 0 0 0 0.41077 0 0 0 0 0.761881 0.41077 2.14003 0 0 0.957368 0 0 0.729834 2.14126 0 0.440737 0 0 0 0 0 2.60819 0.440737 0.340124 0 2.543 0 0.340124 0.340124 3.63389 0 0 0 0 0 0.440737 1.05036 0.761881 0 1.1406 1.61687 0 0.83635 0 0.440737 3.75853 0 0 0 0 0 0 0 0 0 3.44201 0 0 0 0.957368 0.340124 0 0 0 0 0 0.680248 0 0 0 2.53035 1.03925 0 0.850647 0 0 1.29138 0.850647 0 2.59527 0.915464 1.29781 0 0.340124 0 1.49264 0.440737 0 0.761881 0.946811 0.758676 0 0 0.340124 0 1.81224 0 0 0 0.680248 1.74182 0 0 0 0.587731 0 0 0 0 0.87091 0 0 0.587731 0.41077 0 0 0 0.340124 2.3066 0 1.28694 0 1.06996 0 0.41077 1.05036 0 0 1.49688 0 0 0.587731 0 0 0.340124 0.946811 0 0 0.850647 0 0 0.881473 0 0 0 0 0.41077 1.06996 0 0.41077 0.440737 0 0.78086 0 0 0.750894 0 0 0 0.82154 0 0 0 0.41077 1.03925 0 0 0 0 0 0.41077 0 0.850647 0 0 0.850647 0 0 0 0 0.41077 0.440737 0 0.340124 0 0 0.41077 0 0 0 0 0 0 0 0 0 0 0.41077 0 0 0 0 0 1.29138 0 1.20262 1.4102 0 0 2.08261 0 0.761881 0 0.440737 0.729834 2.1845 0.440737 1.26142 0 0.957368 0.761881 0.340124 0.340124 0 0 0 0 0 0 0 0 0 0 0 0 0.587731 0.340124 0 0 0 0 0.440737 0.750894 1.46113 0 0 0.850647 0 0 0 0 0 0 0 0 0 1.09242 0 0.440737 0 0.587731 0 0 0 3.97361 2.23174 0 0 0 0 0 0 0 0.340124 1.3107 2.34414 0 0 0 0 0 0.850647 0 0 0 0 0.946811 0 1.06996 0 0 0 0 0 1.49264 0 1.49688 1.49264 0 1.39049 0.41077 0.850647 0 0 0 0 0.340124 0 0 0.41077 0 0 0.440737 0 3.97361 1.47999 0.340124 0 0 0 0 0 0 0.440737 0.729834 0.340124 0.41077 2.30337 0 0 0.957368 0 0 0 0.41077 0 0 0 0.440737 0 0 0.758676 0 0.340124 0.87091 2.1845 0 0.761881 0 0.440737 1.3107 0 0.340124 2.88448 0.587731 0 0.340124 0 0 0 0.761881 0 2.5699 0 1.46113 0.440737 0 0 0.758676 0 0 0.41077 0 0 0 0 0 1.20262 0 0 1.80801 0 0 0 0 0 0 0 0 0 0 0.440737 0 0.946811 0 0 0 2.08261 0 1.46113 0 0 0 0 0 1.05036 0 0 0 0 0 1.63634 0 0 0 0 0 1.35534 0 0 0.587731 0 0 0.440737 0 0 0 0 0 0 0 0 0 1.1406 0 0.850647 0 0.340124 0 0 0 0 0 0 0 0.729834 0.340124 0 1.05036 0 0 0 0 0 0 0 0 1.49688 0 0 0 1.58048 0 0 0 0 0.440737 0.915464 0 1.06996 0 2.16821 0 0.729834 0 0.340124 0.729834 0 0.440737 0 0 1.1406 0 0 0 0 2.27048 0 0 0 0.946811 0 0 0 0 0 0 0 0 0 2.81244 0 0 0.850647 0 0.340124 0 0 0 1.8926 0 0 0.729834 0.340124 0 0.41077 0 1.03925 0 0.946811 0 0.340124 0 0 0 1.05036 0 0 0 0 0.41077 0 2.36355 1.4102 0 0 0 0.340124 0 0 0 1.49688 0 1.05036 0 0 0.340124 0 0 0 0 0 0 1.90101 0 0.340124 0 0 0 0.887038 0 0 0.761881 0 0 1.71925 1.79218 1.05036 0 0.41077 0.998501 0 0 0 0 0 0.850647 0 0 0 0.41077 0.340124 0.87091 0 1.05036 0 0 0 0 0 0 1.63634 0 0.41077 0.946811 0 0 0 0.41077 0 0 1.05036 0.850647 0 0 0 0 0.440737 0 0 0.41077 0 0 0 0 0 0 0 0.946811 0 0.957368 0.340124 0 0 0.729834 0.340124 0 0 0 0.729834 0 0 0 0 0 0 0 0.340124 0 0 0.340124 0 0.729834 0 0.587731 0 1.45595 0 0 0 0.761881 0 1.06996 0 0 0 0.340124 0 0 0 0 0.440737 0.957368 0 0.340124 0.850647 0.340124 0 1.4911 0 0 0 0 0 0.340124 0.41077 1.34961 0 0 0 0 0.41077 0 0 0 0.957368 1.90101 0.761881 0.340124 0 0 0 0 0 1.03925 1.79218 0 1.89669 2.08261 0 1.05036 0 1.70215 0 0 0.440737 0.587731 0.729834 0 0.850647 0 0 0.440737 0 0 3.12186 0 0 0 0.750894 0 0.440737 0 0 0 0 0 2.8328 0 0 0.946811 0 0 0.850647 0 0 1.45595 0 0 0 0 0 1.49264 0 1.8926 0 0.440737 0.729834 0 0 0 0 0 0 0 0 0 0 0.340124 0 0.340124 0.680248 0.850647 0 2.30337 0 0 0.340124 0 0 1.05036 0.850647 1.05036 1.97822 0 0.957368 0.340124 0.851507 0 0 0 0 0 0 0 0 0 0 0.729834 0 0 1.60154 0 0.587731 1.49264 3.97361 1.05036 0.915464 0 0 0 0 0 0 1.05036 0 0.946811 0.340124 0 1.86184 0.340124 0 0 0.340124 0 0 0 2.25452 0 0 0 0 0 0 0 0 0.340124 0.87091 0 0.340124 0 0 0 0 0.850647 0 1.19077 0 1.3107 0.340124 0 0 0 0.340124 0.340124 0 0 0 0 0 0 0 0 0 0 0 0 0 0 0 1.05036 0.850647 1.20262 0 0 0 0.440737 0 0.851507 0 0 0 0 0 0 0 0.729834 0.340124 0 0 0 0 1.39049 0 0 0 0 0 0.946811 0 0 0 1.90765 0 0 0 0 0.440737 2.08261 0 0 0 0 0.41077 0.946811 0.340124 0 0 0 0 0 0.340124 0 0 0 0.850647 0 0 0 0 0 0 0 0 0 0.340124 0 0 0 0 0.957368 0.440737 0 0 0 0 0.850647 0 1.05036 1.58048 0 0.340124 0 0.587731 0 0 0 0 0 0.340124 0 0 0.440737 0 1.4911 0 0.78086 0 0 0.850647 0 0 0 0 0 0.340124 1.03925 0 0 0 0 0.761881 0 0 0 0 0.340124 0 0 0 1.49688 0 0 0.340124 0 0 0 0 0 0 0 0 0 0 1.05036 0 0 0.340124 0.440737 0 0 0 0 0.41077 0 0 0 0 0 0.729834 0.729834 0 0 0 0 0 0 0 0.440737 0 0 0 0 0.761881 0 0 0.83635 0 0 0 0 0.340124 0 0.850647 0.850647 0.957368 0 0 0 0 0 0 0 0 0 0.87091 2.1845 0 0 0 0 0 0 2.08261 0.850647 1.4102 0 0 0.729834 0 0 0 0 1.45595 0 0 0 0 0 0 0.850647 0 0 0 0 0 1.21103 0 0 0.729834 0.41077 0 0 0.587731 0 0 0.440737 0.761881 1.05036 0 0 0.729834 0 0 0 0 2.66837 0 0 0.946811 0 0 0 0.729834 0 0 0 0 0 0 0 0.340124 0 0 0.340124 0 0.41077 0 0 0 0 0 0 0.41077 0 1.4102 0 0.340124 0.340124 0 1.03925 0 0 0.440737 0 0 0 0 0 0 0.850647 0.82154 0 0.729834 0 0 0.41077 0 0 0 0 0 0 0 0.680248 0.340124 0 0 0.504694 0 0.41077 0 0 0 0 0 0 0 0 0.850647 0 0 0 0 0 0.440737 1.89669 0 2.1845 0 0.340124 0 0.340124 1.53454 0 0 0 0.946811 0 0 1.63634 0 0 2.77192 0.340124 0 0 0 0 0 0 0 0 0.850647 0 0 0 0.41077 0 0.881473 0.41077 0 0 0 0 1.67665 0.729834 0.41077 0 0 0.729834 1.45595 0.440737 1.39049 1.21103 1.20262 0 0.440737 0 0.340124 0 0 1.46113 0 0 0 0 0 0 0 0 0 0 0 0.41077 0 0 0.729834 0 0 2.47371 0 0 0 0.729834 0.946811 0.440737 0 0 1.4102 0 0 0 0.41077 0 2.81244 0 0.440737 0 0 0.78086 0 0.729834 0 0 0 0 0 0 0 0 0 0 0 0 0 0.340124 0 0.729834 0 0.729834 0 0.758676 1.8926 0 0 0 0 0 0 0.340124 0 0 0 0 0.850647 0 0 0 0 0 0 0 1.06996 0 0 0 0 0.587731 3.97361 0 0 0 1.58048 0 1.05036 0 0.340124 0 0.440737 0 0.850647 0 0 0 0 0 0 0 0 0.340124 0 0 0 0 0.850647 0.957368 0 1.7583 0 0.340124 0 0 0 0.340124 1.05036 0 0 0 0 0.440737 0 0 0 0 0 0 0 0 0 0 0 0 0.440737 0 0 0 0 0 0.41077 0 0.440737 0 0 0 0 0 1.81224 0 0 0 0 0 0 0 0.340124 0 0 0 0.850647 0.850647 1.8926 0.729834 0 0 0 0 0 0 0 0.440737 0 0 0.850647 0 0.41077 0 0 0 2.08261 0.761881 0 0 0 0 0 0 0.850647 0 0 0 0 0.587731 0.78086 1.05036 1.06996 0 1.8926 0 0 0 0 1.05036 0 0 0 0.761881 0 1.03925 0.340124 0 0 0 0 0 0.850647 0 0 0.340124 0 0 0.440737 0.758676 0 0.340124 0 1.45595 2.19106 0 0 0 0 0 0 0.761881 0.957368 0 0 0 0 0 0 0 0.87091 0 0.340124 0 0.340124 0 0 0 0 0.41077 0 0 0 2.47371 0 0 0 1.05036 0 0 0 0.850647 0.850647 0 0.340124 0.587731 0 0 0 0 0 0 0 1.05036 0 0 0.87091 0.850647 0.340124 0 0 4.89974 0 0 0 0 0.440737 0 0 0.440737 0 0.340124 0.729834 0 0 0 0 0 0 0 0.729834 0 0 0 0 0.340124 0 0 0 0 0 0 0 0.957368 0 0 0 0.440737 0 0 1.19077 0 2.95137 0 0 0 0.850647 0.761881 0 0 0.850647 1.45595 0 0 0 0.41077 0.41077 0 0 0 0 0 5.42956 0 0.850647 0 0 0 0 0.729834 0.761881 0 0 0 0 0 0.440737 0 0 0 0 0 0 0 0 3.97361 0 0 0 0 0 0.850647 0 0 0 0 0 0 0 0.927855 2.12157 0 0 0 0 0.729834 0 0 0.440737 0 0 0 0 0 0 0 0 0 0 0 0 0.340124 0.587731 0 0.850647 0 0 0 0 1.05036 0 0 0 0 0 0 0 0.440737 0.587731 1.05036 0 0 0 0.340124 0.440737 0 0 0 0 1.03925 0 0.440737 0.340124 0 0.340124 0.440737 0 2.08261 0.41077 0 3.11235 0 0 0.587731 1.20262 0 0 0 0.761881 0.340124 0.41077 0.440737 0 0 0 0 0 0.729834 0 0 0 0 0 0 0 0 0 0 0 0 1.05036 0 0 0 0 0 0 0 0.440737 0 0 0 0.504694 0 0 0 0 0 0 0 0 0 0 0.729834 0 0 0 0 0.729834 1.4102 0 0 0 0.750894 1.02847 0 0 0.41077 0 0.440737 0 0 1.03925 0 0 0 0 0 0 0 0 1.49688 0 0 0 0 0.340124 1.45595 0 0 0 1.28168 0 0.729834 0.440737 0.340124 0 0 0.587731 0 0 0.729834 0 0.340124 0 0 0 0 0 0 0 0 0 0 0 0 0 0.850647 0.340124 0 0 0 0 0.729834 0 0.340124 0.946811 1.35758 0 0 0.440737 0 0.41077 0 0 0 0.340124 0 0 0 0 0.340124 0 0 1.4102 0.440737 0 0 0 0 0 0 0 0 0 0 0 0 0 0 1.45595 0 0.83635 0 0 0 0 0 0.87091 0 0.340124 0.440737 0 0.850647 0 0 0 0.340124 1.05036 1.8926 0 0 0 0 0 1.03925 0 0 0 0.850647 0 0.340124 0 0 0 0 0.850647 0 0 0 0 0 0 0.440737 0 1.05036 0 0 0 0.340124 0 0 0 0.440737 0 0 0.340124 0 0.340124 0.340124 1.39049 0.729834 0 0 0 0.881473 0 0 0 0 0 0 0 0 0 0 0 0 0 0.340124 0 1.05036 0 0.587731 0 0 0 0 0 0 0.729834 0.41077 0 0.729834 0.41077 0 0 0 0 0 0 0 0.440737 0 0 0 0 0 0 0 0 1.03925 0.761881 0 0 1.1406 0.440737 0.340124 0 0 0 0 0 0 0.340124 0 0.440737 0.957368 0 0 0 0 0 1.05036 0 0 0 0 0 0 0 0.761881 0 0.758676 0.340124 0.340124 0 0 0 0.340124 0 0 0 0 1.52056 0 0.340124 0 0 0 0 0 0.850647 0 0 0.340124 0 0 0 0.41077 0 0 0 0 0.340124 0 0 0 0 0 0 0 0 0 0 0 0.340124 1.45595 0 0 0 0.750894 0 0 0 0 0 0 0 0 0.87091 0.850647 0 0.761881 0.587731 0 0.587731 0 0.440737 0 0 0 0 0 0 0 0 0 0 0 0 0 0 0 0.850647 0.41077 0.41077 0 0 0 0.340124 0 0.340124 0 0 0.504694 0 0 0 0 1.45595 0 0 0 0 1.8926 1.99793 0 0 0 0.340124 1.72156 0 0 0 0.587731 0 0 0 0 0 0 0 0 0 0.587731 1.58048 0 0 0 0 0 0 0 1.102 0 0 0.729834 0.41077 0 0.957368 0 0 0 0.87091 0.440737 0.340124 0 0 0 0 0 0.440737 2.30258 0 0.41077 0.729834 0 0.440737 0 0 1.29138 1.49171 0 0 0 0 0 0 0 0.340124 0 0 0 0 0 0 0 0 0 0 0.587731 0.440737 0 0 0 0 0 0 0 0 0 0 0 0.340124 0.850647 0 0.440737 0 1.63634 1.76909 1.06996 0 0 0 0 1.45595 0 0.340124 0 0 0 0 0 0.440737 0 0.440737 0 0 0 0 0 0 0 0 0 0 0 0.750894 0.440737 0 0 0.41077 0.340124 0.729834 0 1.3981 0.340124 0.87091 0 0.340124 0 0 0 0 0 0.41077 0.340124 0.340124 0 0 0 0 0 0 0.850647 0 0 0 0 0.340124 0 0 0 0 0 0 0 0 0.41077 0.729834 0.340124 0 0 0 0 0 0 0 0.850647 0 0 0 0 0 0 0 0 0 1.4102 0.41077 0 0 0 0 1.86184 0 0 0 0 0 0.340124 0 0 0 0 0 0 0 0.340124 0 0.729834 0 0 0.587731 0 1.7802 0 0 0.41077 0.440737 0 0.957368 0 0 0 0.340124 0 0.850647 0 0 0.41077 0 0.504694 0 0 0 0 1.8926 0 0 0 0 0 0 0 0 0 0 0 0 0 0.41077 0 0 0 0.850647 0 0 0 0 0 0 0 1.03925 1.05036 0 0 0 0 1.49688 0 0 0.340124 0.340124 0 0.340124 0 0 0 0 0 1.46113 0 0 0 0 0 0 0.587731 0 0 0.729834 0.587731 0 0 0 0 0.340124 0 0 0.850647 0 0.957368 0.340124 0 0 0 0 0 0.881473 0 0.340124 0 0.78086 0 0 0 0 0 0 0.340124 0 0.440737 0 1.05036 0.850647 0.440737 0 0 0.850647 0 0 0 0 0 0 0 0 0 0 1.49171 0 0.729834 0 0 0 0 0 0 0 0.340124 0 0.340124 0 0.850647 0.440737 0 0 0.440737 0 0 0.850647 2.20196 0 0 1.28694 0.41077 0.78086 0 0 0 0 0 0 0.440737 0 0 0.41077 0.41077 0 0 1.06996 0 0 0 0 0 0 0 0 0 0 0 0.340124 0 0 0 1.90101 0 1.49264 0 0 0 0.340124 0 0 0 0 0.957368 0.587731 0 0.761881 1.63634 0 0.41077 0.340124 0 0 0 0 0 0.440737 0 0 0 0 0 0 0.340124 0 0 0 0 0.340124 0 0 0 0 0 0.915464 0 0 0 0 0 0 0.440737 0 0 0 0 0 0 0.340124 0 0 0 0 0 0.87091 0 0 0 0.440737 0 0 0.440737 0 0 0 0 0 0.340124 0 0.340124 0 0 0.340124 0 0 0 1.05036 0.41077 0 0 0 0 0.340124 0 0 0 0 0 0 0.41077 0 0 0 0 0 0.340124 0 0.729834 0.851507 0 0 0 0 0 0 0.340124 0 0 0.340124 0 0.729834 0.340124 0.340124 0 0.850647 0 0.758676 0 0 1.49688 0.504694 0 0 0 0 0 0 0 0 0 0 0 0.729834 0 0 0.761881 0 0.340124 0.340124 0 0 0 0 1.05036 0 0.340124 0 0 0 0 0 0 0 0.440737 0 0 0.850647 0 1.28694 0 0.440737 0 0.41077 0 0 0 0 0 0.758676 0 0.340124 0 1.06996 0 0 0.41077 0.340124 1.1406 1.45595 0.946811 0 0.340124 0 0.729834 0 0 0.761881 0.729834 0 0 0 0 0.587731 0 0 0 0 0.761881 0 0.41077 2.23375 0 0 0 0.440737 0 1.05036 1.8926 2.5931 0 0 0 0 0 0 1.45595 0 0 0 0.340124 0 0 0 0 0 0.440737 0 0 0 1.05036 0 0.440737 2.8328 0 0 0 0 0.41077 0 0.440737 0.587731 0 0 0 0.680248 0 0 0 0 0.340124 1.05036 0 0 0.440737 0 0.998501 0 0 0.340124 1.63279 0 0 1.05036 0.340124 1.72156 0.440737 0 0 0.340124 0 0 0 0.78086 0 0 0 0 0.850647 0.340124 0.887038 0 0 0 0 0 0 0 0 0 0 0 0.340124 0.729834 0.850647 0.340124 0 0 0.729834 0.729834 0.41077 0 0 0 0 0 0 0 0 0 0.729834 0 0 0 0 0 0 0 0 0.440737 0 0 0 0 0.729834 0 0 0 0 0 0 0 0 0 0 0 0 0 0 0.761881 0 0 0 0 0 0 1.05036 0.729834 0 0.340124 0.82154 0 0 0 0.41077 0 0.850647 0 0 0 1.05036 0 0.440737 0 0.41077 0 0 0 0.340124 0 0 0 0.440737 0.850647 0 0 0 2.07883 0 0 0.440737 0 0 0.946811 0 0 0 0 0 0.41077 0 0 0 0 0.946811 0 0 0 0 0 0 0 0 0 0 0.850647 0 0.41077 0 0 0.340124 0.440737 0 0 0.41077 0 0 0.340124 0 0 1.35758 0 0 0 0 0 0.440737 0 0 0 0 0 0.587731 0.440737 0 0 0 0 0 0.340124 0 0 0.340124 0 1.62698 0 0.440737 1.86184 0 0.440737 0 0 0 0 0 0.340124 0 0 0.340124 0.41077 1.86184 0.680248 0 0.729834 0 0 0 0.440737 0 0 0.850647 0 0 0 1.3107 0 0 1.83276 0 0 0 0 0 1.09102 0.440737 0 0 0 0 0.340124 1.05036 0.440737 0 0 0.440737 0 0 1.05036 0.851507 0.440737 0 0 1.29138 0.440737 0 0 0 0 0.440737 0 0 0.41077 0.998501 0 0 0.850647 0 0 0.729834 1.05036 0.340124 0 0 0 0 0 0 0.340124 0 0 0 0 0 0 0 0 0.340124 0 0 0 0 0 0 0 0 0 0 0.340124 0.440737 0 0 0 0.41077 0 0 0 0 0 0 0 0 0 0.340124 0 0 0.340124 0 0 0 0.87091 0.340124 0 1.06996 0 0.41077 0 0 0 0 0 0 0 1.05036 1.05036 0 0 0 0 0 0 1.03925 1.05036 0 0 0 0 0 0 0 0 0 0 0 2.08261 0.440737 0 0 1.05036 0 0.340124 0.41077 1.45595 0.340124 0 1.21103 0 0.729834 0.729834 1.05036 0 0 0 0 0 0 0 0 0 0 0 0 0 0 0 0 0 0 0 0 0 0.440737 0 0 0 0 0 0 0 0.340124 0.340124 0 0 0.340124 0 0 0 1.26142 0 0 0 0.41077 0 0 0 0.729834 0 0 0.340124 0.440737 0 0.340124 0 0 0 0 0 0 0 0 0 0 0 0.440737 0 0.850647 0.87091 0 0.729834 0.41077 0 0.729834 0 0 0 0 0.440737 0 0 0 0 0 0.340124 0 0 0.957368 0 0.946811 0.87091 0 0 0 0 0 0 0 0 0 0 0 0 0 0 0.340124 0 0.587731 0 0 0 0.440737 0 0 0.41077 0.440737 0 0 0 0 0 0 0 0 0 0 0.41077 0 0.440737 0.340124 0 0 0 0 0 0 0 0 1.51069 0.729834 0 0.41077 0 2.52335 0 0 0.340124 1.22716 0 0.340124 0 0 0 0.504694 0 0 0 0 0 0 0 0 0 0 0.587731 0 0 0 0 0 0 0 1.20262 0 0 0.850647 0.340124 0 0 0 0.340124 0 0.440737 0 0.340124 0 0 0 0 0 0 1.05036 0.946811 0 0.587731 0 0.440737 1.80801 0.729834 0.440737 1.46113 1.83276 0 0 0.340124 0 0.729834 0 0 0 0 0 0 0.440737 0 0 0 0 0.680248 0.680248 0 0 0.887038 0 0 0 0 0 0.340124 0 1.4102 0 0 0.340124 0 1.03925 0 0 0 0.729834 0 0.850647 0.340124 0 0 0 0.440737 0 0.946811 0 0.340124 0 0 0 0 0.440737 0 0.440737 0 0 0 0 0.41077 1.05036 0 0 0.440737 0 0 0 0 1.49171 0 1.45595 0 0 0 0.41077 1.05036 0 0 0 0 0 0.340124 0 1.8926 0 0 0 0 0 0 0 0 1.45595 0.504694 0 0 0.440737 0.340124 0 0 0 0 0 0 0 0 0 0.729834 0 1.83122 0 0 0 0 0 0 0.340124 2.8328 1.05036 0 0 2.36793 0 0.440737 0 0 0 0 0 0.729834 0.750894 0 0 0 0 0.41077 1.06996 0 0 0 0 0 0 0 2.8328 0.729834 0 0.850647 0.761881 0 0 0 0 0 0.41077 0 0 0 1.1406 0 0.340124 0 0.340124 0.850647 0 0.340124 0.850647 0 0 0 0.729834 0 0 0 0 0.340124 0.758676 0 0.881473 0.440737 0.761881 0 0 0 0 0.440737 0.41077 0 1.03925 0 0.887038 0.957368 0 0 0 0 0 0.41077 0.850647 0.729834 1.38755 1.05036 0 0.761881 0 1.05036 1.06996 0 0.850647 0 0 0 0 0.340124 0.850647 0 0 0 0 1.99781 0.340124 0 2.1362 0 0 0 0 0.41077 0 0 0 0 0 0 0 0 0 0 0 1.4102 0 0 0 0.934221 0.440737 0 0 0 0 0 0 0.41077 0 0 0 0.440737 0 0.78086 0 1.45595 0.41077 0.41077 0 0.41077 0 0 0 0.729834 0 0.41077 0 0.729834 0 0 0 0 1.45595 0 0 0 0.587731 0.340124 0 1.03925 0 0 0 0 0 2.81485 0 0 0 0 0 0.761881 0 0 0 0 0 0.440737 0 0 0.41077 0 0 0 0.587731 0 1.45595 0 0.41077 0 0 0 0.340124 0 0 0 0 0 0 0 1.05036 0 1.39049 0 0.340124 0 0 0 0 0.850647 0 0.946811 0 0 0.87091 0.41077 0 0.340124 0 0.340124 0.758676 0 0.750894 0 0.850647 0.340124 0.41077 0 0 0.340124 0 0 0 1.19077 1.45595 0 0 0 0.440737 0.340124 1.03925 0.587731 0.729834 0.41077 0.680248 0 0 0 0 0 0 0 0 0.78086 0 1.03925 0 0 0.440737 0.957368 0 0 0.587731 0.340124 0 0 0 0 1.05036 0 0 0.729834 0 0 0.946811 0 0.440737 1.03925 0 0 0 0 0 0 0.440737 0 0.340124 0 0 0 0 0 0 0 0 0 0.340124 0 0 0.440737 0.440737 0.41077 0.957368 0 0 0 0 0 0 0 0.680248 0 0 0.440737 0 1.49688 0.750894 0 0.680248 0 0 0 0 0 0 0 0 0.340124 0.78086 0.440737 0 0.587731 0 0 0 0 0.946811 0 0.587731 1.29749 0 1.05036 0 0 0.946811 0 0 0.41077 0 0 0 0.41077 0 0 0 0 1.36859 0 0 0.881473 0 0 0 0 0 0 0 0 0 0 0 0 0.340124 0 0 0 0 1.63151 0.440737 0.680248 0 0.850647 0 0 0 0.729834 0.729834 0.41077 0 0 0 0 0 0.850647 1.05036 0 0 0 0 0.440737 0 0 0.440737 0 0.340124 0 0 0 0 0 0 1.35758 0 0.440737 0 0.340124 0 0.729834 0 0.927855 0.729834 0 0.340124 0.41077 0 0 0.78086 0 0.850647 0 0.850647 0 0 0 0.78086 0.440737 0.729834 0 0 0 0 0 0.729834 0 0 0.887038 0.761881 0 0 0 0.340124 0 0 0 0 0 0 0 0 0 0 1.19077 0 2.08261 0 0 0 0.729834 0 0 0 0 0.504694 0.729834 0 0 0.761881 0 0.78086 0 0 0.750894 0 0.41077 0 0.340124 0 1.20262 0.729834 0.41077 0.41077 0 0 0.440737 0 1.05036 0 0.340124 0 2.47371 1.18494 0 0 1.79746 0.440737 0 0 0 0 0 0.946811 0.729834 0 0 0 0 0 0.750894 0 0 0 0 0 0 0.340124 1.70869 0.41077 0.440737 0.340124 0 1.82828 1.46113 0 0.340124 0.440737 0 0 0.850647 0.881473 1.05036 0 0.340124 0 0 0.340124 0 0.440737 0 0 0 0 0 0 0.340124 0.340124 0 0 0.41077 0.927855 1.45595 1.79218 1.05036 0 0 0.440737 0.851507 0 1.46113 0 0 0 0 0.78086 0 0 0 0.850647 0 0.887038 0.340124 0 0 0.587731 1.05036 0 0.440737 0 0 0.340124 0 0 0 0 0.41077 0 0.957368 0 0 0 0 0 0 0.440737 0 0.340124 0.340124 0 0 0.78086 0.750894 0.850647 0.850647 0 0 0.41077 0 0.851507 0 0 0 0 0.750894 0 0 1.05036 0 1.05036 0.440737 1.102 0.729834 1.03925 1.45595 0.440737 0 0.41077 0 0 0 2.81384 1.48851 0 0 0 0 0 0 0 0 0.440737 0 0 0 0 0 0.440737 1.05036 0 0 0.41077 0.729834 0 0.440737 0 0 1.19077 0 2.1845 0 0 0.440737 0 0 0.340124 0 0 0.440737 0 0 0 0 0 0 1.05036 0.758676 0.340124 1.91016 0 0.587731 0.340124 1.05036 0 0 2.1845 0 1.20262 0 2.48927 0 0 2.08962 0 0.957368 0 0.340124 0 0 0.340124 1.73768 3.74583 2.08261 0 0 1.60074 0.440737 0 1.82097 0 1.21103 0 0 2.44369 0.850647 0.850647 0 0.340124 0.340124 0 0.440737 0 0.850647 0 0 0.587731 0 0 0 0.440737 2.18578 0 0 0 0 2.08261 1.03925 0.729834 1.05036 1.06996 0.340124 2.93326 0.440737 0.729834 0.41077 0 3.02816 0 0 0.440737 3.41129 1.86184 0.340124 0.440737 0 0 0.440737 0 2.36617 0 0.340124 0 1.3107 0.41077 0.41077 1.61253 0 0 0 0.41077 1.05036 0 0.340124 0 0 0.340124 1.79607 0.41077 0 1.28694 0 0 0 0 0.729834 0.340124 1.1406 0 0.440737 0 0.340124 1.49171 0.680248 0 0 0 0 0 0.340124 1.05036 1.17057 0 0.587731 0 0 0.851507 0.340124 1.0988 0 0 1.102 0 1.05036 0.41077 0 0.78086 0 0.440737 0 0 0 0 0.340124 0 0.587731 0 0 0 0 1.86184 0 2.42273 0.41077 1.86184 0 0.340124 1.79832 0.587731 0.87091 0.440737 1.83122 0.440737 0.750894 0 0.440737 0 1.3107 0 1.17057 1.36859 0.41077 1.45595 0 0 0.340124 1.20262 1.8899 0.340124 1.79607 0.440737 1.05036 2.08261 0 0 0.340124 0 0.340124 1.26228 0 2.29155 0.851507 0.440737 0.851507 0.340124 0.41077 0.340124 0.41077 0 0 0 0.41077 0.340124 0 0 0.440737 0.850647 0.440737 0.729834 1.31165 0.851507 1.7802 0.440737 0 0.440737 0 0 0 0 1.06996 1.48073 0 0 0.729834 0.78086 0.41077 1.75032 1.05036 0 1.51069 0.587731 0.340124 0.340124 1.55116 2.13844 0 0.41077 0 0.340124 0.587731 1.72156 1.72156 0.340124 0 0 0 0.680248 0.41077 0.440737 1.05036 0 1.06996 1.63809 0.41077 0 1.17057 1.51069 0.340124 0 0.850647 1.29138 1.2216 0 1.29224 0 1.46113 0 1.03925 0.41077 2.95801 0 1.4911 0.729834 0 0 2.04368 1.41008 0.850647 0 1.4911 0.850647 0 1.38755 3.09404 1.80126 0.340124 2.43653 1.41008 0.761881 0 1.29749 0.881473 0.761881 0 1.83122 0 0.680248 0 1.20262 0 0 0.440737 0 0.340124 1.102 0 1.99125 0 1.19077 1.51069 0.82154 0 4.29371 0.957368 0.440737 0 0.440737 3.59884 0 0 1.44213 0 1.23231 0.41077 0 0.83635 1.19077 0.729834 1.2216 0.851507 0 1.26228 0.440737 0 1.63809 0.680248 2.68341 2.1845 0.750894 0.851507 1.63634 0.887038 1.38755 0.340124 1.51069 1.4102 0.761881 1.73061 0 2.23002 2.13027 1.1406 0.946811 1.06996 0.850647 0 0 0.41077 1.67665 1.2216 0.340124 1.45967 0.729834 0 0 0.440737 2.08261 0 1.53089 0.440737 0.750894 2.48944 3.07769 0.41077 0.41077 0.440737 1.79607 1.20262 0 0.440737 0 1.31756 4.52052 0 0.340124 0.750894 0.750894 0.850647 0.851507 1.23231 1.75032 0 1.02847 0.729834 0 0 3.18303 2.12032 0.340124 2.29723 1.80126 0.78086 2.84644 0 0.680248 1.92636 1.16945 2.1362 1.4102 3.14879 3.37127 0 0.340124 0.440737 1.36859 0.41077 1.46113 0.680248 0.927855 1.35758 1.3605 0 2.3066 1.63809 1.92146 0.750894 0.440737 2.1895 1.03925 0.78086 1.3562 2.11378 0.440737 0.340124 0.761881 3.2713 3.92169 2.30337 1.4911 1.05036 1.06996 1.3605 0.340124 2.45445 1.39049 2.83262 1.56172 5.0667 5.0717 0.761881 0.41077 0 2.17135 1.92146 2.24199 2.22093 2.6519 0.680248 1.82085 4.9523 0.340124 2.96803 2.61281 3.25062 1.31756 3.5945 4.69554 2.74583 2.05937 0.758676 2.92089 2.88018 1.80801 1.45967 1.63151 2.31175 1.19163 2.80208 3.03992 2.02122 1.53089 5.43533 3.27424 1.52376 5.17362 0.340124 2.82972 3.17303 0.729834 3.01162 3.02139 4.48044 2.03783 5.06822 3.97033 2.51909 4.29297 3.18224 4.41538 5.78786 3.54766 4.8679 4.00979 2.44085 4.42563 3.88155 3.07599 3.36363 2.97013 6.09303 2.90118 3.58994 1.49171 1.70826 4.10091 3.22674 1.69771 1.1406 6.40597 0.41077 0.78086 5.99953 3.45534 2.68126 2.51003 4.60039 3.52214 3.86325 2.44063 4.84521 8.15641 6.21812 4.24479 4.12969 5.5316 4.47617 8.1364 2.38326 3.50255 11.4103 9.19633 9.37788 7.83073 11.0259 10.1109 7.54172 9.3769 18.4074 11.2702 14.2472 6.43088 13.2305 14.2536 14.3114 15.1866 14.2079 20.822 21.8196 23.3138 18.2047 20.9754 33.6018 33.0065 23.767 40.1121 26.2001 30.874 28.13 18.1012 12.736 11.6808 8.28384 5.33403 0 1.73823 0.881473 0.41077 0 0 0 0 0 0 
      </Histogram>
    </PDF>
  </MVAPdfs>
  <Weights NTrees="1000" TreeType="1">
    <BinaryTree type="DecisionTree" boostWeight="1.0000000000000000e+00" itree="0">
      <Node pos="s" depth="0" Seq="0" IVar="9" Cut="-3.7968810647726059e-02" cType="0" nS="2.5947282812500000e+05" nB="3.8205737304687500e+03" nEv="2.6329340625000000e+05" nSuw="2.5944500000000000e+05" nBuw="3.8780000000000000e+03" nEvuw="2.6332300000000000e+05" sepI="1.4300147071480751e-02" sepG="1.1075661750510335e-03" res="4.8548927903175354e-01" rms="1.1958321928977966e-01" nType="0" CC="0.0000000000000000e+00">
        <Node pos="l" depth="1" Seq="0" IVar="-1" Cut="0.0000000000000000e+00" cType="1" nS="2.5529048437500000e+05" nB="2.4854138183593750e+03" nEv="2.5777590625000000e+05" nSuw="2.5535900000000000e+05" nBuw="2.6440000000000000e+03" nEvuw="2.5800300000000000e+05" sepI="9.5487982034683228e-03" sepG="-1.0000000000000000e+00" res="6.6213965415954590e-02" rms="9.7717955708503723e-02" nType="1" CC="0.0000000000000000e+00"/>
        <Node pos="r" depth="1" Seq="1" IVar="4" Cut="6.2412977218627930e-02" cType="0" nS="4.1823427734375000e+03" nB="1.3351597900390625e+03" nEv="5.5175024414062500e+03" nSuw="4.0860000000000000e+03" nBuw="1.2340000000000000e+03" nEvuw="5.3200000000000000e+03" sepI="1.8342891335487366e-01" sepG="4.3565843254327774e-02" res="2.5801372528076172e-01" rms="4.2828601598739624e-01" nType="0" CC="0.0000000000000000e+00">
          <Node pos="l" depth="2" Seq="1" IVar="-1" Cut="0.0000000000000000e+00" cType="1" nS="3.2291884765625000e+03" nB="3.0158776855468750e+02" nEv="3.5307763671875000e+03" nSuw="3.1950000000000000e+03" nBuw="2.8600000000000000e+02" nEvuw="3.4810000000000000e+03" sepI="7.8120805323123932e-02" sepG="-1.0000000000000000e+00" res="5.4793030023574829e-02" rms="2.7950099110603333e-01" nType="1" CC="0.0000000000000000e+00"/>
          <Node pos="r" depth="2" Seq="3" IVar="-1" Cut="0.0000000000000000e+00" cType="1" nS="9.5315399169921875e+02" nB="1.0335720214843750e+03" nEv="1.9867259521484375e+03" nSuw="8.9100000000000000e+02" nBuw="9.4800000000000000e+02" nEvuw="1.8390000000000000e+03" sepI="2.4959039688110352e-01" sepG="-1.0000000000000000e+00" res="-2.5089292321354151e-03" rms="4.9959021806716919e-01" nType="-1" CC="0.0000000000000000e+00"/>
        </Node>
      </Node>
    </BinaryTree>
    <BinaryTree type="DecisionTree" boostWeight="1.0000000000000000e+00" itree="1">
      <Node pos="s" depth="0" Seq="0" IVar="9" Cut="-4.0279421955347061e-02" cType="0" nS="2.5947282812500000e+05" nB="3.8205737304687500e+03" nEv="2.6329340625000000e+05" nSuw="2.5944500000000000e+05" nBuw="3.8780000000000000e+03" nEvuw="2.6332300000000000e+05" sepI="1.4036651700735092e-02" sepG="9.6248683985322714e-04" res="4.5276582241058350e-01" rms="1.1847637593746185e-01" nType="0" CC="0.0000000000000000e+00">
        <Node pos="l" depth="1" Seq="0" IVar="-1" Cut="0.0000000000000000e+00" cType="1" nS="2.5564859375000000e+05" nB="2.5386330566406250e+03" nEv="2.5818723437500000e+05" nSuw="2.5572200000000000e+05" nBuw="2.6940000000000000e+03" nEvuw="2.5841600000000000e+05" sepI="9.7259767353534698e-03" sepG="-1.0000000000000000e+00" res="6.2002178281545639e-02" rms="9.8620362579822540e-02" nType="1" CC="0.0000000000000000e+00"/>
        <Node pos="r" depth="1" Seq="1" IVar="4" Cut="7.9694755375385284e-02" cType="0" nS="3.8242270507812500e+03" nB="1.2819405517578125e+03" nEv="5.1061674804687500e+03" nSuw="3.7230000000000000e+03" nBuw="1.1840000000000000e+03" nEvuw="4.9070000000000000e+03" sepI="1.8237130343914032e-01" sepG="3.9282377809286118e-02" res="2.3215986788272858e-01" rms="4.2704951763153076e-01" nType="0" CC="0.0000000000000000e+00">
          <Node pos="l" depth="2" Seq="1" IVar="-1" Cut="0.0000000000000000e+00" cType="1" nS="2.7887629394531250e+03" nB="2.2778355407714844e+02" nEv="3.0165463867187500e+03" nSuw="2.7410000000000000e+03" nBuw="2.1500000000000000e+02" nEvuw="2.9560000000000000e+03" sepI="6.9809406995773315e-02" sepG="-1.0000000000000000e+00" res="5.2029255777597427e-02" rms="2.6421469449996948e-01" nType="1" CC="0.0000000000000000e+00"/>
          <Node pos="r" depth="2" Seq="3" IVar="-1" Cut="0.0000000000000000e+00" cType="1" nS="1.0354642333984375e+03" nB="1.0541569824218750e+03" nEv="2.0896210937500000e+03" nSuw="9.8200000000000000e+02" nBuw="9.6900000000000000e+02" nEvuw="1.9510000000000000e+03" sepI="2.4887415766716003e-01" sepG="-1.0000000000000000e+00" res="-7.4591609882190824e-04" rms="4.9887290596961975e-01" nType="-1" CC="0.0000000000000000e+00"/>
        </Node>
      </Node>
    </BinaryTree>
    <BinaryTree type="DecisionTree" boostWeight="1.0000000000000000e+00" itree="2">
      <Node pos="s" depth="0" Seq="0" IVar="9" Cut="-2.9221506789326668e-02" cType="0" nS="2.5947282812500000e+05" nB="3.8205737304687500e+03" nEv="2.6329340625000000e+05" nSuw="2.5944500000000000e+05" nBuw="3.8780000000000000e+03" nEvuw="2.6332300000000000e+05" sepI="1.3812107034027576e-02" sepG="8.5453665815293789e-04" res="4.2236757278442383e-01" rms="1.1752492189407349e-01" nType="0" CC="0.0000000000000000e+00">
        <Node pos="l" depth="1" Seq="0" IVar="-1" Cut="0.0000000000000000e+00" cType="1" nS="2.5348559375000000e+05" nB="2.2641098632812500e+03" nEv="2.5574970312500000e+05" nSuw="2.5352000000000000e+05" nBuw="2.4400000000000000e+03" nEvuw="2.5596000000000000e+05" sepI="8.7744630873203278e-03" sepG="-1.0000000000000000e+00" res="5.8653581887483597e-02" rms="9.3672104179859161e-02" nType="1" CC="0.0000000000000000e+00"/>
        <Node pos="r" depth="1" Seq="1" IVar="4" Cut="6.2412977218627930e-02" cType="0" nS="5.9872377929687500e+03" nB="1.5564637451171875e+03" nEv="7.5437016601562500e+03" nSuw="5.9250000000000000e+03" nBuw="1.4380000000000000e+03" nEvuw="7.3630000000000000e+03" sepI="1.5477499365806580e-01" sepG="2.8368456289172173e-02" res="2.5215929746627808e-01" rms="3.9341452717781067e-01" nType="0" CC="0.0000000000000000e+00">
          <Node pos="l" depth="2" Seq="1" IVar="-1" Cut="0.0000000000000000e+00" cType="1" nS="4.6855805664062500e+03" nB="3.7563824462890625e+02" nEv="5.0612187500000000e+03" nSuw="4.6880000000000000e+03" nBuw="3.5600000000000000e+02" nEvuw="5.0440000000000000e+03" sepI="6.8135343492031097e-02" sepG="-1.0000000000000000e+00" res="5.0547625869512558e-02" rms="2.6102748513221741e-01" nType="1" CC="0.0000000000000000e+00"/>
          <Node pos="r" depth="2" Seq="3" IVar="-1" Cut="0.0000000000000000e+00" cType="1" nS="1.3016573486328125e+03" nB="1.1808254394531250e+03" nEv="2.4824829101562500e+03" nSuw="1.2370000000000000e+03" nBuw="1.0820000000000000e+03" nEvuw="2.3190000000000000e+03" sepI="2.4520827829837799e-01" sepG="-1.0000000000000000e+00" res="1.4638074208050966e-03" rms="4.9518510699272156e-01" nType="1" CC="0.0000000000000000e+00"/>
        </Node>
      </Node>
    </BinaryTree>
    <BinaryTree type="DecisionTree" boostWeight="1.0000000000000000e+00" itree="3">
      <Node pos="s" depth="0" Seq="0" IVar="9" Cut="-4.7706380486488342e-02" cType="0" nS="2.5947282812500000e+05" nB="3.8205737304687500e+03" nEv="2.6329340625000000e+05" nSuw="2.5944500000000000e+05" nBuw="3.8780000000000000e+03" nEvuw="2.6332300000000000e+05" sepI="1.3596192933619022e-02" sepG="7.4419623706489801e-04" res="3.9410039782524109e-01" rms="1.1660271883010864e-01" nType="0" CC="0.0000000000000000e+00">
        <Node pos="l" depth="1" Seq="0" IVar="-1" Cut="0.0000000000000000e+00" cType="1" nS="2.5651690625000000e+05" nB="2.6879526367187500e+03" nEv="2.5920485937500000e+05" nSuw="2.5658200000000000e+05" nBuw="2.8380000000000000e+03" nEvuw="2.5942000000000000e+05" sepI="1.0146753862500191e-02" sepG="-1.0000000000000000e+00" res="5.5573388934135437e-02" rms="1.0073109716176987e-01" nType="1" CC="0.0000000000000000e+00"/>
        <Node pos="r" depth="1" Seq="1" IVar="4" Cut="6.6122092306613922e-02" cType="0" nS="2.9559270019531250e+03" nB="1.1326210937500000e+03" nEv="4.0885480957031250e+03" nSuw="2.8630000000000000e+03" nBuw="1.0400000000000000e+03" nEvuw="3.9030000000000000e+03" sepI="1.8435841798782349e-01" sepG="3.5138897597789764e-02" res="1.7688994109630585e-01" rms="4.2936980724334717e-01" nType="0" CC="0.0000000000000000e+00">
          <Node pos="l" depth="2" Seq="1" IVar="-1" Cut="0.0000000000000000e+00" cType="1" nS="2.2108239746093750e+03" nB="2.2302020263671875e+02" nEv="2.4338442382812500e+03" nSuw="2.1690000000000000e+03" nBuw="2.0800000000000000e+02" nEvuw="2.3770000000000000e+03" sepI="8.2850374281406403e-02" sepG="-1.0000000000000000e+00" res="4.3774835765361786e-02" rms="2.8783741593360901e-01" nType="1" CC="0.0000000000000000e+00"/>
          <Node pos="r" depth="2" Seq="3" IVar="-1" Cut="0.0000000000000000e+00" cType="1" nS="7.4510296630859375e+02" nB="9.0960089111328125e+02" nEv="1.6547038574218750e+03" nSuw="6.9400000000000000e+02" nBuw="8.3200000000000000e+02" nEvuw="1.5260000000000000e+03" sepI="2.4683950841426849e-01" sepG="-1.0000000000000000e+00" res="-6.1884298920631409e-03" rms="4.9682945013046265e-01" nType="-1" CC="0.0000000000000000e+00"/>
        </Node>
      </Node>
    </BinaryTree>
    <BinaryTree type="DecisionTree" boostWeight="1.0000000000000000e+00" itree="4">
      <Node pos="s" depth="0" Seq="0" IVar="9" Cut="-2.9221506789326668e-02" cType="0" nS="2.5947282812500000e+05" nB="3.8205737304687500e+03" nEv="2.6329340625000000e+05" nSuw="2.5944500000000000e+05" nBuw="3.8780000000000000e+03" nEvuw="2.6332300000000000e+05" sepI="1.3431807979941368e-02" sepG="6.7241059150546789e-04" res="3.6779263615608215e-01" rms="1.1589568108320236e-01" nType="0" CC="0.0000000000000000e+00">
        <Node pos="l" depth="1" Seq="0" IVar="-1" Cut="0.0000000000000000e+00" cType="1" nS="2.5348559375000000e+05" nB="2.2641098632812500e+03" nEv="2.5574970312500000e+05" nSuw="2.5352000000000000e+05" nBuw="2.4400000000000000e+03" nEvuw="2.5596000000000000e+05" sepI="8.7744621559977531e-03" sepG="-1.0000000000000000e+00" res="5.3267620503902435e-02" rms="9.3672104179859161e-02" nType="1" CC="0.0000000000000000e+00"/>
        <Node pos="r" depth="1" Seq="1" IVar="4" Cut="7.9694755375385284e-02" cType="0" nS="5.9872377929687500e+03" nB="1.5564637451171875e+03" nEv="7.5437016601562500e+03" nSuw="5.9250000000000000e+03" nBuw="1.4380000000000000e+03" nEvuw="7.3630000000000000e+03" sepI="1.4785833656787872e-01" sepG="2.2593356668949127e-02" res="2.1680806577205658e-01" rms="3.8452351093292236e-01" nType="0" CC="0.0000000000000000e+00">
          <Node pos="l" depth="2" Seq="1" IVar="-1" Cut="0.0000000000000000e+00" cType="1" nS="4.4713417968750000e+03" nB="3.0117990112304688e+02" nEv="4.7725214843750000e+03" nSuw="4.4620000000000000e+03" nBuw="2.8700000000000000e+02" nEvuw="4.7490000000000000e+03" sepI="5.8915063738822937e-02" sepG="-1.0000000000000000e+00" res="4.6632211655378342e-02" rms="2.4272425472736359e-01" nType="1" CC="0.0000000000000000e+00"/>
          <Node pos="r" depth="2" Seq="3" IVar="-1" Cut="0.0000000000000000e+00" cType="1" nS="1.5158961181640625e+03" nB="1.2552838134765625e+03" nEv="2.7711799316406250e+03" nSuw="1.4630000000000000e+03" nBuw="1.1510000000000000e+03" nEvuw="2.6140000000000000e+03" sepI="2.3953267931938171e-01" sepG="-1.0000000000000000e+00" res="2.4983710609376431e-03" rms="4.8942074179649353e-01" nType="1" CC="0.0000000000000000e+00"/>
        </Node>
      </Node>
    </BinaryTree>
    <BinaryTree type="DecisionTree" boostWeight="1.0000000000000000e+00" itree="5">
      <Node pos="s" depth="0" Seq="0" IVar="9" Cut="-2.7406027540564537e-02" cType="0" nS="2.5947282812500000e+05" nB="3.8205737304687500e+03" nEv="2.6329340625000000e+05" nSuw="2.5944500000000000e+05" nBuw="3.8780000000000000e+03" nEvuw="2.6332300000000000e+05" sepI="1.3261494226753712e-02" sepG="5.8814301155507565e-04" res="3.4330016374588013e-01" rms="1.1515855789184570e-01" nType="0" CC="0.0000000000000000e+00">
        <Node pos="l" depth="1" Seq="0" IVar="-1" Cut="0.0000000000000000e+00" cType="1" nS="2.5296945312500000e+05" nB="2.2165166015625000e+03" nEv="2.5518596875000000e+05" nSuw="2.5299100000000000e+05" nBuw="2.4000000000000000e+03" nEvuw="2.5539100000000000e+05" sepI="8.6104432120919228e-03" sepG="-1.0000000000000000e+00" res="5.1160350441932678e-02" rms="9.2792473733425140e-02" nType="1" CC="0.0000000000000000e+00"/>
        <Node pos="r" depth="1" Seq="1" IVar="4" Cut="4.1674841195344925e-02" cType="0" nS="6.5033706054687500e+03" nB="1.6040570068359375e+03" nEv="8.1074277343750000e+03" nSuw="6.4540000000000000e+03" nBuw="1.4780000000000000e+03" nEvuw="7.9320000000000000e+03" sepI="1.4055572450160980e-01" sepG="1.9167115911841393e-02" res="2.0724083483219147e-01" rms="3.7490761280059814e-01" nType="0" CC="0.0000000000000000e+00">
          <Node pos="l" depth="2" Seq="1" IVar="-1" Cut="0.0000000000000000e+00" cType="1" nS="5.5261298828125000e+03" nB="5.8939263916015625e+02" nEv="6.1155229492187500e+03" nSuw="5.5070000000000000e+03" nBuw="5.4700000000000000e+02" nEvuw="6.0540000000000000e+03" sepI="8.2064755260944366e-02" sepG="-1.0000000000000000e+00" res="4.0414389222860336e-02" rms="2.8646945953369141e-01" nType="1" CC="0.0000000000000000e+00"/>
          <Node pos="r" depth="2" Seq="3" IVar="-1" Cut="0.0000000000000000e+00" cType="1" nS="9.7724060058593750e+02" nB="1.0146643066406250e+03" nEv="1.9919049072265625e+03" nSuw="9.4700000000000000e+02" nBuw="9.3100000000000000e+02" nEvuw="1.8780000000000000e+03" sepI="2.4212026596069336e-01" sepG="-1.0000000000000000e+00" res="-4.5338273048400879e-03" rms="4.9205717444419861e-01" nType="-1" CC="0.0000000000000000e+00"/>
        </Node>
      </Node>
    </BinaryTree>
    <BinaryTree type="DecisionTree" boostWeight="1.0000000000000000e+00" itree="6">
      <Node pos="s" depth="0" Seq="0" IVar="9" Cut="-4.7706380486488342e-02" cType="0" nS="2.5947282812500000e+05" nB="3.8205737304687500e+03" nEv="2.6329340625000000e+05" nSuw="2.5944500000000000e+05" nBuw="3.8780000000000000e+03" nEvuw="2.6332300000000000e+05" sepI="1.3111259788274765e-02" sepG="5.1412329776212573e-04" res="3.2048410177230835e-01" rms="1.1450441181659698e-01" nType="0" CC="0.0000000000000000e+00">
        <Node pos="l" depth="1" Seq="0" IVar="-1" Cut="0.0000000000000000e+00" cType="1" nS="2.5651690625000000e+05" nB="2.6879526367187500e+03" nEv="2.5920485937500000e+05" nSuw="2.5658200000000000e+05" nBuw="2.8380000000000000e+03" nEvuw="2.5942000000000000e+05" sepI="1.0060478001832962e-02" sepG="-1.0000000000000000e+00" res="4.9104034900665283e-02" rms="1.0030193626880646e-01" nType="1" CC="0.0000000000000000e+00"/>
        <Node pos="r" depth="1" Seq="1" IVar="4" Cut="6.2667578458786011e-02" cType="0" nS="2.9559270019531250e+03" nB="1.1326210937500000e+03" nEv="4.0885480957031250e+03" nSuw="2.8630000000000000e+03" nBuw="1.0400000000000000e+03" nEvuw="3.9030000000000000e+03" sepI="1.7341566085815430e-01" sepG="2.4937376379966736e-02" res="1.3994526863098145e-01" rms="4.1643208265304565e-01" nType="0" CC="0.0000000000000000e+00">
          <Node pos="l" depth="2" Seq="1" IVar="-1" Cut="0.0000000000000000e+00" cType="1" nS="2.2422905273437500e+03" nB="2.3788185119628906e+02" nEv="2.4801723632812500e+03" nSuw="2.1950000000000000e+03" nBuw="2.2200000000000000e+02" nEvuw="2.4170000000000000e+03" sepI="8.5596226155757904e-02" sepG="-1.0000000000000000e+00" res="3.7221252918243408e-02" rms="2.9256832599639893e-01" nType="1" CC="0.0000000000000000e+00"/>
          <Node pos="r" depth="2" Seq="3" IVar="-1" Cut="0.0000000000000000e+00" cType="1" nS="7.1363647460937500e+02" nB="8.9473919677734375e+02" nEv="1.6083757324218750e+03" nSuw="6.6800000000000000e+02" nBuw="8.1800000000000000e+02" nEvuw="1.4860000000000000e+03" sepI="2.4544465541839600e-01" sepG="-1.0000000000000000e+00" res="-6.8887295201420784e-03" rms="4.9542373418807983e-01" nType="-1" CC="0.0000000000000000e+00"/>
        </Node>
      </Node>
    </BinaryTree>
    <BinaryTree type="DecisionTree" boostWeight="1.0000000000000000e+00" itree="7">
      <Node pos="s" depth="0" Seq="0" IVar="9" Cut="-2.5920635089278221e-02" cType="0" nS="2.5947282812500000e+05" nB="3.8205737304687500e+03" nEv="2.6329340625000000e+05" nSuw="2.5944500000000000e+05" nBuw="3.8780000000000000e+03" nEvuw="2.6332300000000000e+05" sepI="1.3000344857573509e-02" sepG="4.6771633788011968e-04" res="2.9921340942382812e-01" rms="1.1401905119419098e-01" nType="0" CC="0.0000000000000000e+00">
        <Node pos="l" depth="1" Seq="0" IVar="-1" Cut="0.0000000000000000e+00" cType="1" nS="2.5250256250000000e+05" nB="2.1800949707031250e+03" nEv="2.5468267187500000e+05" nSuw="2.5252000000000000e+05" nBuw="2.3690000000000000e+03" nEvuw="2.5488900000000000e+05" sepI="8.4867700934410095e-03" sepG="-1.0000000000000000e+00" res="4.7696892172098160e-02" rms="9.2123664915561676e-02" nType="1" CC="0.0000000000000000e+00"/>
        <Node pos="r" depth="1" Seq="1" IVar="4" Cut="4.1674841195344925e-02" cType="0" nS="6.9702578125000000e+03" nB="1.6404786376953125e+03" nEv="8.6107363281250000e+03" nSuw="6.9250000000000000e+03" nBuw="1.5090000000000000e+03" nEvuw="8.4340000000000000e+03" sepI="1.3219833374023438e-01" sepG="1.5105648897588253e-02" res="1.8159621953964233e-01" rms="3.6359089612960815e-01" nType="0" CC="0.0000000000000000e+00">
          <Node pos="l" depth="2" Seq="1" IVar="-1" Cut="0.0000000000000000e+00" cType="1" nS="5.9480419921875000e+03" nB="6.0657946777343750e+02" nEv="6.5546215820312500e+03" nSuw="5.9350000000000000e+03" nBuw="5.6300000000000000e+02" nEvuw="6.4980000000000000e+03" sepI="7.8715391457080841e-02" sepG="-1.0000000000000000e+00" res="3.7130963057279587e-02" rms="2.8056263923645020e-01" nType="1" CC="0.0000000000000000e+00"/>
          <Node pos="r" depth="2" Seq="3" IVar="-1" Cut="0.0000000000000000e+00" cType="1" nS="1.0222158203125000e+03" nB="1.0338991699218750e+03" nEv="2.0561149902343750e+03" nSuw="9.9000000000000000e+02" nBuw="9.4600000000000000e+02" nEvuw="1.9360000000000000e+03" sepI="2.3943439126014709e-01" sepG="-1.0000000000000000e+00" res="-4.9127605743706226e-03" rms="4.8932033777236938e-01" nType="-1" CC="0.0000000000000000e+00"/>
        </Node>
      </Node>
    </BinaryTree>
    <BinaryTree type="DecisionTree" boostWeight="1.0000000000000000e+00" itree="8">
      <Node pos="s" depth="0" Seq="0" IVar="9" Cut="-2.7406027540564537e-02" cType="0" nS="2.5947282812500000e+05" nB="3.8205737304687500e+03" nEv="2.6329340625000000e+05" nSuw="2.5944500000000000e+05" nBuw="3.8780000000000000e+03" nEvuw="2.6332300000000000e+05" sepI="1.2878778390586376e-02" sepG="4.0724541759118438e-04" res="2.7938845753669739e-01" rms="1.1348470300436020e-01" nType="0" CC="0.0000000000000000e+00">
        <Node pos="l" depth="1" Seq="0" IVar="-1" Cut="0.0000000000000000e+00" cType="1" nS="2.5296945312500000e+05" nB="2.2165166015625000e+03" nEv="2.5518596875000000e+05" nSuw="2.5299100000000000e+05" nBuw="2.4000000000000000e+03" nEvuw="2.5539100000000000e+05" sepI="8.6068902164697647e-03" sepG="-1.0000000000000000e+00" res="4.6234402805566788e-02" rms="9.2773325741291046e-02" nType="1" CC="0.0000000000000000e+00"/>
        <Node pos="r" depth="1" Seq="1" IVar="4" Cut="7.9694755375385284e-02" cType="0" nS="6.5033706054687500e+03" nB="1.6040570068359375e+03" nEv="8.1074277343750000e+03" nSuw="6.4540000000000000e+03" nBuw="1.4780000000000000e+03" nEvuw="7.9320000000000000e+03" sepI="1.3411340117454529e-01" sepG="1.4295023865997791e-02" res="1.6617059707641602e-01" rms="3.6621496081352234e-01" nType="0" CC="0.0000000000000000e+00">
          <Node pos="l" depth="2" Seq="1" IVar="-1" Cut="0.0000000000000000e+00" cType="1" nS="4.8791870117187500e+03" nB="3.1588934326171875e+02" nEv="5.1950761718750000e+03" nSuw="4.8750000000000000e+03" nBuw="3.0000000000000000e+02" nEvuw="5.1750000000000000e+03" sepI="5.6818224489688873e-02" sepG="-1.0000000000000000e+00" res="3.9661914110183716e-02" rms="2.3836573958396912e-01" nType="1" CC="0.0000000000000000e+00"/>
          <Node pos="r" depth="2" Seq="3" IVar="-1" Cut="0.0000000000000000e+00" cType="1" nS="1.6241838378906250e+03" nB="1.2881676025390625e+03" nEv="2.9123515625000000e+03" nSuw="1.5790000000000000e+03" nBuw="1.1780000000000000e+03" nEvuw="2.7570000000000000e+03" sepI="2.3219855129718781e-01" sepG="-1.0000000000000000e+00" res="8.4312143735587597e-04" rms="4.8186984658241272e-01" nType="1" CC="0.0000000000000000e+00"/>
        </Node>
      </Node>
    </BinaryTree>
    <BinaryTree type="DecisionTree" boostWeight="1.0000000000000000e+00" itree="9">
      <Node pos="s" depth="0" Seq="0" IVar="9" Cut="-4.7706380486488342e-02" cType="0" nS="2.5947282812500000e+05" nB="3.8205737304687500e+03" nEv="2.6329340625000000e+05" nSuw="2.5944500000000000e+05" nBuw="3.8780000000000000e+03" nEvuw="2.6332300000000000e+05" sepI="1.2770448811352253e-02" sepG="3.5830403794534504e-04" res="2.6089745759963989e-01" rms="1.1300641298294067e-01" nType="0" CC="0.0000000000000000e+00">
        <Node pos="l" depth="1" Seq="0" IVar="-1" Cut="0.0000000000000000e+00" cType="1" nS="2.5651690625000000e+05" nB="2.6879526367187500e+03" nEv="2.5920485937500000e+05" nSuw="2.5658200000000000e+05" nBuw="2.8380000000000000e+03" nEvuw="2.5942000000000000e+05" sepI="9.9955452606081963e-03" sepG="-1.0000000000000000e+00" res="4.4734343886375427e-02" rms="9.9977724254131317e-02" nType="1" CC="0.0000000000000000e+00"/>
        <Node pos="r" depth="1" Seq="1" IVar="4" Cut="6.6122092306613922e-02" cType="0" nS="2.9559270019531250e+03" nB="1.1326210937500000e+03" nEv="4.0885480957031250e+03" nSuw="2.8630000000000000e+03" nBuw="1.0400000000000000e+03" nEvuw="3.9030000000000000e+03" sepI="1.6561920940876007e-01" sepG="1.7769210040569305e-02" res="1.1018022894859314e-01" rms="4.0696340799331665e-01" nType="0" CC="0.0000000000000000e+00">
          <Node pos="l" depth="2" Seq="1" IVar="-1" Cut="0.0000000000000000e+00" cType="1" nS="2.2108239746093750e+03" nB="2.2302020263671875e+02" nEv="2.4338442382812500e+03" nSuw="2.1690000000000000e+03" nBuw="2.0800000000000000e+02" nEvuw="2.3770000000000000e+03" sepI="8.2420349121093750e-02" sepG="-1.0000000000000000e+00" res="3.3091433346271515e-02" rms="2.8708943724632263e-01" nType="1" CC="0.0000000000000000e+00"/>
          <Node pos="r" depth="2" Seq="3" IVar="-1" Cut="0.0000000000000000e+00" cType="1" nS="7.4510296630859375e+02" nB="9.0960089111328125e+02" nEv="1.6547038574218750e+03" nSuw="6.9400000000000000e+02" nBuw="8.3200000000000000e+02" nEvuw="1.5260000000000000e+03" sepI="2.4408809840679169e-01" sepG="-1.0000000000000000e+00" res="-6.3297916203737259e-03" rms="4.9405273795127869e-01" nType="-1" CC="0.0000000000000000e+00"/>
        </Node>
      </Node>
    </BinaryTree>
    <BinaryTree type="DecisionTree" boostWeight="1.0000000000000000e+00" itree="10">
      <Node pos="s" depth="0" Seq="0" IVar="9" Cut="-2.5920635089278221e-02" cType="0" nS="2.5947282812500000e+05" nB="3.8205737304687500e+03" nEv="2.6329340625000000e+05" nSuw="2.5944500000000000e+05" nBuw="3.8780000000000000e+03" nEvuw="2.6332300000000000e+05" sepI="1.2696035206317902e-02" sepG="3.2887322595342994e-04" res="2.4364517629146576e-01" rms="1.1267668753862381e-01" nType="0" CC="0.0000000000000000e+00">
        <Node pos="l" depth="1" Seq="0" IVar="-1" Cut="0.0000000000000000e+00" cType="1" nS="2.5250256250000000e+05" nB="2.1800949707031250e+03" nEv="2.5468267187500000e+05" nSuw="2.5252000000000000e+05" nBuw="2.3690000000000000e+03" nEvuw="2.5488900000000000e+05" sepI="8.4867710247635841e-03" sepG="-1.0000000000000000e+00" res="4.3821699917316437e-02" rms="9.2123672366142273e-02" nType="1" CC="0.0000000000000000e+00"/>
        <Node pos="r" depth="1" Seq="1" IVar="4" Cut="7.9694755375385284e-02" cType="0" nS="6.9702578125000000e+03" nB="1.6404786376953125e+03" nEv="8.6107363281250000e+03" nSuw="6.9250000000000000e+03" nBuw="1.5090000000000000e+03" nEvuw="8.4340000000000000e+03" sepI="1.2713880836963654e-01" sepG="1.1068328283727169e-02" res="1.4501862227916718e-01" rms="3.5656529664993286e-01" nType="0" CC="0.0000000000000000e+00">
          <Node pos="l" depth="2" Seq="1" IVar="-1" Cut="0.0000000000000000e+00" cType="1" nS="5.2398872070312500e+03" nB="3.2827087402343750e+02" nEv="5.5681582031250000e+03" nSuw="5.2470000000000000e+03" nBuw="3.1100000000000000e+02" nEvuw="5.5580000000000000e+03" sepI="5.5126097053289413e-02" sepG="-1.0000000000000000e+00" res="3.6971405148506165e-02" rms="2.3478947579860687e-01" nType="1" CC="0.0000000000000000e+00"/>
          <Node pos="r" depth="2" Seq="3" IVar="-1" Cut="0.0000000000000000e+00" cType="1" nS="1.7303706054687500e+03" nB="1.3122077636718750e+03" nEv="3.0425783691406250e+03" nSuw="1.6780000000000000e+03" nBuw="1.1980000000000000e+03" nEvuw="2.8760000000000000e+03" sepI="2.2760349512100220e-01" sepG="-1.0000000000000000e+00" res="3.5709264921024442e-04" rms="4.7707808017730713e-01" nType="1" CC="0.0000000000000000e+00"/>
        </Node>
      </Node>
    </BinaryTree>
    <BinaryTree type="DecisionTree" boostWeight="1.0000000000000000e+00" itree="11">
      <Node pos="s" depth="0" Seq="0" IVar="2" Cut="5.5249955505132675e-02" cType="1" nS="2.5947282812500000e+05" nB="3.8205737304687500e+03" nEv="2.6329340625000000e+05" nSuw="2.5944500000000000e+05" nBuw="3.8780000000000000e+03" nEvuw="2.6332300000000000e+05" sepI="1.2607896700501442e-02" sepG="3.0145427444949746e-04" res="2.2755239903926849e-01" rms="1.1228489130735397e-01" nType="0" CC="0.0000000000000000e+00">
        <Node pos="l" depth="1" Seq="0" IVar="-1" Cut="0.0000000000000000e+00" cType="1" nS="2.5829345312500000e+05" nB="3.1955771484375000e+03" nEv="2.6148903125000000e+05" nSuw="2.5833000000000000e+05" nBuw="3.2890000000000000e+03" nEvuw="2.6161900000000000e+05" sepI="1.1066410690546036e-02" sepG="-1.0000000000000000e+00" res="4.2276874184608459e-02" rms="1.0519700497388840e-01" nType="1" CC="0.0000000000000000e+00"/>
        <Node pos="r" depth="1" Seq="1" IVar="3" Cut="3.2140857074409723e-03" cType="0" nS="1.1793670654296875e+03" nB="6.2499645996093750e+02" nEv="1.8043635253906250e+03" nSuw="1.1150000000000000e+03" nBuw="5.8900000000000000e+02" nEvuw="1.7040000000000000e+03" sepI="1.9201239943504333e-01" sepG="3.7136990576982498e-02" res="1.8538363277912140e-02" rms="4.3819218873977661e-01" nType="0" CC="0.0000000000000000e+00">
          <Node pos="l" depth="2" Seq="1" IVar="-1" Cut="0.0000000000000000e+00" cType="1" nS="6.8783770751953125e+02" nB="5.4714950561523438e+01" nEv="7.4255267333984375e+02" nSuw="6.6400000000000000e+02" nBuw="6.1000000000000000e+01" nEvuw="7.2500000000000000e+02" sepI="7.0541009306907654e-02" sepG="-1.0000000000000000e+00" res="3.9606992155313492e-02" rms="2.6559558510780334e-01" nType="1" CC="0.0000000000000000e+00"/>
          <Node pos="r" depth="2" Seq="3" IVar="-1" Cut="0.0000000000000000e+00" cType="1" nS="4.9152932739257812e+02" nB="5.7028149414062500e+02" nEv="1.0618107910156250e+03" nSuw="4.5100000000000000e+02" nBuw="5.2800000000000000e+02" nEvuw="9.7900000000000000e+02" sepI="2.1385270357131958e-01" sepG="-1.0000000000000000e+00" res="-1.9948797300457954e-02" rms="4.6244210004806519e-01" nType="-1" CC="0.0000000000000000e+00"/>
        </Node>
      </Node>
    </BinaryTree>
    <BinaryTree type="DecisionTree" boostWeight="1.0000000000000000e+00" itree="12">
      <Node pos="s" depth="0" Seq="0" IVar="9" Cut="-2.1134372800588608e-02" cType="0" nS="2.5947282812500000e+05" nB="3.8205737304687500e+03" nEv="2.6329340625000000e+05" nSuw="2.5944500000000000e+05" nBuw="3.8780000000000000e+03" nEvuw="2.6332300000000000e+05" sepI="1.2553322128951550e-02" sepG="2.8588448185473680e-04" res="2.1253830194473267e-01" rms="1.1204160749912262e-01" nType="0" CC="0.0000000000000000e+00">
        <Node pos="l" depth="1" Seq="0" IVar="-1" Cut="0.0000000000000000e+00" cType="1" nS="2.5051087500000000e+05" nB="2.0610893554687500e+03" nEv="2.5257195312500000e+05" nSuw="2.5060700000000000e+05" nBuw="2.2650000000000000e+03" nEvuw="2.5287200000000000e+05" sepI="8.0907214432954788e-03" sepG="-1.0000000000000000e+00" res="4.1937332600355148e-02" rms="8.9948438107967377e-02" nType="1" CC="0.0000000000000000e+00"/>
        <Node pos="r" depth="1" Seq="1" IVar="4" Cut="4.1674841195344925e-02" cType="0" nS="8.9619589843750000e+03" nB="1.7594842529296875e+03" nEv="1.0721443359375000e+04" nSuw="8.8380000000000000e+03" nBuw="1.6130000000000000e+03" nEvuw="1.0451000000000000e+04" sepI="1.1066101491451263e-01" sepG="8.7269404903054237e-03" res="1.3047268986701965e-01" rms="3.3265751600265503e-01" nType="0" CC="0.0000000000000000e+00">
          <Node pos="l" depth="2" Seq="1" IVar="-1" Cut="0.0000000000000000e+00" cType="1" nS="7.7225048828125000e+03" nB="6.6987921142578125e+02" nEv="8.3923837890625000e+03" nSuw="7.6470000000000000e+03" nBuw="6.1900000000000000e+02" nEvuw="8.2660000000000000e+03" sepI="6.7258328199386597e-02" sepG="-1.0000000000000000e+00" res="3.1328752636909485e-02" rms="2.5934210419654846e-01" nType="1" CC="0.0000000000000000e+00"/>
          <Node pos="r" depth="2" Seq="3" IVar="-1" Cut="0.0000000000000000e+00" cType="1" nS="1.2394543457031250e+03" nB="1.0896049804687500e+03" nEv="2.3290593261718750e+03" nSuw="1.1910000000000000e+03" nBuw="9.9400000000000000e+02" nEvuw="2.1850000000000000e+03" sepI="2.2688244283199310e-01" sepG="-1.0000000000000000e+00" res="-6.3489521853625774e-03" rms="4.7632178664207458e-01" nType="1" CC="0.0000000000000000e+00"/>
        </Node>
      </Node>
    </BinaryTree>
    <BinaryTree type="DecisionTree" boostWeight="1.0000000000000000e+00" itree="13">
      <Node pos="s" depth="0" Seq="0" IVar="9" Cut="-6.6356293857097626e-02" cType="0" nS="2.5947282812500000e+05" nB="3.8205737304687500e+03" nEv="2.6329340625000000e+05" nSuw="2.5944500000000000e+05" nBuw="3.8780000000000000e+03" nEvuw="2.6332300000000000e+05" sepI="1.2474337592720985e-02" sepG="2.5198914227075875e-04" res="1.9852161407470703e-01" rms="1.1168856918811798e-01" nType="0" CC="0.0000000000000000e+00">
        <Node pos="l" depth="1" Seq="0" IVar="-1" Cut="0.0000000000000000e+00" cType="1" nS="2.5790309375000000e+05" nB="3.0228286132812500e+03" nEv="2.6092592187500000e+05" nSuw="2.5794300000000000e+05" nBuw="3.1440000000000000e+03" nEvuw="2.6108700000000000e+05" sepI="1.0732734575867653e-02" sepG="-1.0000000000000000e+00" res="4.0522255003452301e-02" rms="1.0359890758991241e-01" nType="1" CC="0.0000000000000000e+00"/>
        <Node pos="r" depth="1" Seq="1" IVar="4" Cut="4.5395027846097946e-02" cType="0" nS="1.5697294921875000e+03" nB="7.9774499511718750e+02" nEv="2.3674746093750000e+03" nSuw="1.5020000000000000e+03" nBuw="7.3400000000000000e+02" nEvuw="2.2360000000000000e+03" sepI="1.7639683187007904e-01" sepG="1.7338031902909279e-02" res="3.1871009618043900e-02" rms="4.1999623179435730e-01" nType="0" CC="0.0000000000000000e+00">
          <Node pos="l" depth="2" Seq="1" IVar="-1" Cut="0.0000000000000000e+00" cType="1" nS="1.2233045654296875e+03" nB="1.9985665893554688e+02" nEv="1.4231612548828125e+03" nSuw="1.1920000000000000e+03" nBuw="1.8800000000000000e+02" nEvuw="1.3800000000000000e+03" sepI="1.1249928176403046e-01" sepG="-1.0000000000000000e+00" res="2.2312726825475693e-02" rms="3.3540913462638855e-01" nType="1" CC="0.0000000000000000e+00"/>
          <Node pos="r" depth="2" Seq="3" IVar="-1" Cut="0.0000000000000000e+00" cType="1" nS="3.4642498779296875e+02" nB="5.9788830566406250e+02" nEv="9.4431329345703125e+02" nSuw="3.1000000000000000e+02" nBuw="5.4600000000000000e+02" nEvuw="8.5600000000000000e+02" sepI="2.2922797501087189e-01" sepG="-1.0000000000000000e+00" res="-1.5881225466728210e-02" rms="4.7877758741378784e-01" nType="-1" CC="0.0000000000000000e+00"/>
        </Node>
      </Node>
    </BinaryTree>
    <BinaryTree type="DecisionTree" boostWeight="1.0000000000000000e+00" itree="14">
      <Node pos="s" depth="0" Seq="0" IVar="9" Cut="-2.1134372800588608e-02" cType="0" nS="2.5947282812500000e+05" nB="3.8205737304687500e+03" nEv="2.6329340625000000e+05" nSuw="2.5944500000000000e+05" nBuw="3.8780000000000000e+03" nEvuw="2.6332300000000000e+05" sepI="1.2438023462891579e-02" sepG="2.4270301219075918e-04" res="1.8543598055839539e-01" rms="1.1152588576078415e-01" nType="0" CC="0.0000000000000000e+00">
        <Node pos="l" depth="1" Seq="0" IVar="-1" Cut="0.0000000000000000e+00" cType="1" nS="2.5051087500000000e+05" nB="2.0610893554687500e+03" nEv="2.5257195312500000e+05" nSuw="2.5060700000000000e+05" nBuw="2.2650000000000000e+03" nEvuw="2.5287200000000000e+05" sepI="8.0909878015518188e-03" sepG="-1.0000000000000000e+00" res="4.0295071899890900e-02" rms="8.9949913322925568e-02" nType="1" CC="0.0000000000000000e+00"/>
        <Node pos="r" depth="1" Seq="1" IVar="1" Cut="-2.3246591445058584e-03" cType="0" nS="8.9619589843750000e+03" nB="1.7594842529296875e+03" nEv="1.0721443359375000e+04" nSuw="8.8380000000000000e+03" nBuw="1.6130000000000000e+03" nEvuw="1.0451000000000000e+04" sepI="1.0888373851776123e-01" sepG="8.2504348829388618e-03" res="1.0982175916433334e-01" rms="3.2997536659240723e-01" nType="0" CC="0.0000000000000000e+00">
          <Node pos="l" depth="2" Seq="1" IVar="-1" Cut="0.0000000000000000e+00" cType="1" nS="8.3990351562500000e+03" nB="1.2219090576171875e+03" nEv="9.6209443359375000e+03" nSuw="8.3600000000000000e+03" nBuw="1.1120000000000000e+03" nEvuw="9.4720000000000000e+03" sepI="8.9274525642395020e-02" sepG="-1.0000000000000000e+00" res="2.4829708039760590e-02" rms="2.9878842830657959e-01" nType="1" CC="0.0000000000000000e+00"/>
          <Node pos="r" depth="2" Seq="3" IVar="-1" Cut="0.0000000000000000e+00" cType="1" nS="5.6292431640625000e+02" nB="5.3757513427734375e+02" nEv="1.1004995117187500e+03" nSuw="4.7800000000000000e+02" nBuw="5.0100000000000000e+02" nEvuw="9.7900000000000000e+02" sepI="1.9993564486503601e-01" sepG="-1.0000000000000000e+00" res="-2.3181779310107231e-02" rms="4.4714164733886719e-01" nType="1" CC="0.0000000000000000e+00"/>
        </Node>
      </Node>
    </BinaryTree>
    <BinaryTree type="DecisionTree" boostWeight="1.0000000000000000e+00" itree="15">
      <Node pos="s" depth="0" Seq="0" IVar="1" Cut="4.0614632889628410e-03" cType="1" nS="2.5947282812500000e+05" nB="3.8205737304687500e+03" nEv="2.6329340625000000e+05" nSuw="2.5944500000000000e+05" nBuw="3.8780000000000000e+03" nEvuw="2.6332300000000000e+05" sepI="1.2371241115033627e-02" sepG="2.3895691265352070e-04" res="1.7321799695491791e-01" rms="1.1122608184814453e-01" nType="0" CC="0.0000000000000000e+00">
        <Node pos="l" depth="1" Seq="0" IVar="-1" Cut="0.0000000000000000e+00" cType="1" nS="2.5777960937500000e+05" nB="3.3351140136718750e+03" nEv="2.6111471875000000e+05" nSuw="2.5800600000000000e+05" nBuw="3.4300000000000000e+03" nEvuw="2.6143600000000000e+05" sepI="1.1107520200312138e-02" sepG="-1.0000000000000000e+00" res="3.8882408291101456e-02" rms="1.0539221763610840e-01" nType="1" CC="0.0000000000000000e+00"/>
        <Node pos="r" depth="1" Seq="1" IVar="9" Cut="-1.3127556070685387e-02" cType="0" nS="1.6932148437500000e+03" nB="4.8545962524414062e+02" nEv="2.1786745605468750e+03" nSuw="1.4390000000000000e+03" nBuw="4.4800000000000000e+02" nEvuw="1.8870000000000000e+03" sepI="1.3495056331157684e-01" sepG="2.8908178210258484e-02" res="3.9872266352176666e-03" rms="3.6735618114471436e-01" nType="0" CC="0.0000000000000000e+00">
          <Node pos="l" depth="2" Seq="1" IVar="-1" Cut="0.0000000000000000e+00" cType="1" nS="1.3963021240234375e+03" nB="9.7536140441894531e+01" nEv="1.4938382568359375e+03" nSuw="1.1850000000000000e+03" nBuw="1.1500000000000000e+02" nEvuw="1.3000000000000000e+03" sepI="6.1033032834529877e-02" sepG="-1.0000000000000000e+00" res="2.1977290511131287e-02" rms="2.4704864621162415e-01" nType="1" CC="0.0000000000000000e+00"/>
          <Node pos="r" depth="2" Seq="3" IVar="-1" Cut="0.0000000000000000e+00" cType="1" nS="2.9691275024414062e+02" nB="3.8792349243164062e+02" nEv="6.8483624267578125e+02" nSuw="2.5400000000000000e+02" nBuw="3.3300000000000000e+02" nEvuw="5.8700000000000000e+02" sepI="2.0422159135341644e-01" sepG="-1.0000000000000000e+00" res="-3.3658988773822784e-02" rms="4.5190882682800293e-01" nType="-1" CC="0.0000000000000000e+00"/>
        </Node>
      </Node>
    </BinaryTree>
    <BinaryTree type="DecisionTree" boostWeight="1.0000000000000000e+00" itree="16">
      <Node pos="s" depth="0" Seq="0" IVar="2" Cut="-8.4250032901763916e-02" cType="0" nS="2.5947282812500000e+05" nB="3.8205737304687500e+03" nEv="2.6329340625000000e+05" nSuw="2.5944500000000000e+05" nBuw="3.8780000000000000e+03" nEvuw="2.6332300000000000e+05" sepI="1.2339255772531033e-02" sepG="2.2401500609703362e-04" res="1.6179949045181274e-01" rms="1.1108220368623734e-01" nType="0" CC="0.0000000000000000e+00">
        <Node pos="l" depth="1" Seq="0" IVar="-1" Cut="0.0000000000000000e+00" cType="1" nS="2.5903462500000000e+05" nB="3.4620854492187500e+03" nEv="2.6249671875000000e+05" nSuw="2.5903900000000000e+05" nBuw="3.5560000000000000e+03" nEvuw="2.6259500000000000e+05" sepI="1.1540359817445278e-02" sepG="-1.0000000000000000e+00" res="3.7989683449268341e-02" rms="1.0742606967687607e-01" nType="1" CC="0.0000000000000000e+00"/>
        <Node pos="r" depth="1" Seq="1" IVar="3" Cut="-1.0408184025436640e-03" cType="1" nS="4.3820123291015625e+02" nB="3.5848812866210938e+02" nEv="7.9668939208984375e+02" nSuw="4.0600000000000000e+02" nBuw="3.2200000000000000e+02" nEvuw="7.2800000000000000e+02" sepI="2.0152962207794189e-01" sepG="3.7876918911933899e-02" res="-1.0987945646047592e-01" rms="4.4892051815986633e-01" nType="0" CC="0.0000000000000000e+00">
          <Node pos="l" depth="2" Seq="1" IVar="-1" Cut="0.0000000000000000e+00" cType="1" nS="2.9252441406250000e+02" nB="6.8618026733398438e+01" nEv="3.6114245605468750e+02" nSuw="2.7600000000000000e+02" nBuw="6.0000000000000000e+01" nEvuw="3.3600000000000000e+02" sepI="1.2300992012023926e-01" sepG="-1.0000000000000000e+00" res="1.5891365706920624e-02" rms="3.5072770714759827e-01" nType="1" CC="0.0000000000000000e+00"/>
          <Node pos="r" depth="2" Seq="3" IVar="-1" Cut="0.0000000000000000e+00" cType="1" nS="1.4567680358886719e+02" nB="2.8987011718750000e+02" nEv="4.3554690551757812e+02" nSuw="1.3000000000000000e+02" nBuw="2.6200000000000000e+02" nEvuw="3.9200000000000000e+02" sepI="1.9735248386859894e-01" sepG="-1.0000000000000000e+00" res="-3.7858460098505020e-02" rms="4.4424372911453247e-01" nType="-1" CC="0.0000000000000000e+00"/>
        </Node>
      </Node>
    </BinaryTree>
    <BinaryTree type="DecisionTree" boostWeight="1.0000000000000000e+00" itree="17">
      <Node pos="s" depth="0" Seq="0" IVar="2" Cut="5.5249955505132675e-02" cType="1" nS="2.5947282812500000e+05" nB="3.8205737304687500e+03" nEv="2.6329340625000000e+05" nSuw="2.5944500000000000e+05" nBuw="3.8780000000000000e+03" nEvuw="2.6332300000000000e+05" sepI="1.2326599098742008e-02" sepG="2.3518974194303155e-04" res="1.5115001797676086e-01" rms="1.1102522164583206e-01" nType="0" CC="0.0000000000000000e+00">
        <Node pos="l" depth="1" Seq="0" IVar="-1" Cut="0.0000000000000000e+00" cType="1" nS="2.5829345312500000e+05" nB="3.1955771484375000e+03" nEv="2.6148903125000000e+05" nSuw="2.5833000000000000e+05" nBuw="3.2890000000000000e+03" nEvuw="2.6161900000000000e+05" sepI="1.0913880541920662e-02" sepG="-1.0000000000000000e+00" res="3.7473797798156738e-02" rms="1.0446952283382416e-01" nType="1" CC="0.0000000000000000e+00"/>
        <Node pos="r" depth="1" Seq="1" IVar="3" Cut="2.9960323590785265e-03" cType="0" nS="1.1793670654296875e+03" nB="6.2499645996093750e+02" nEv="1.8043635253906250e+03" nSuw="1.1150000000000000e+03" nBuw="5.8900000000000000e+02" nEvuw="1.7040000000000000e+03" sepI="1.8273936212062836e-01" sepG="3.1351651996374130e-02" res="-3.3467929810285568e-02" rms="4.2748025059700012e-01" nType="0" CC="0.0000000000000000e+00">
          <Node pos="l" depth="2" Seq="1" IVar="-1" Cut="0.0000000000000000e+00" cType="1" nS="6.9270269775390625e+02" nB="5.7214164733886719e+01" nEv="7.4991687011718750e+02" nSuw="6.7000000000000000e+02" nBuw="6.4000000000000000e+01" nEvuw="7.3400000000000000e+02" sepI="7.0373751223087311e-02" sepG="-1.0000000000000000e+00" res="3.3166918903589249e-02" rms="2.6528051495552063e-01" nType="1" CC="0.0000000000000000e+00"/>
          <Node pos="r" depth="2" Seq="3" IVar="-1" Cut="0.0000000000000000e+00" cType="1" nS="4.8666433715820312e+02" nB="5.6778228759765625e+02" nEv="1.0544466552734375e+03" nSuw="4.4500000000000000e+02" nBuw="5.2500000000000000e+02" nEvuw="9.7000000000000000e+02" sepI="2.0900441706180573e-01" sepG="-1.0000000000000000e+00" res="-2.6952624320983887e-02" rms="4.5717000961303711e-01" nType="-1" CC="0.0000000000000000e+00"/>
        </Node>
      </Node>
    </BinaryTree>
    <BinaryTree type="DecisionTree" boostWeight="1.0000000000000000e+00" itree="18">
      <Node pos="s" depth="0" Seq="0" IVar="9" Cut="-2.5920635089278221e-02" cType="0" nS="2.5947282812500000e+05" nB="3.8205737304687500e+03" nEv="2.6329340625000000e+05" nSuw="2.5944500000000000e+05" nBuw="3.8780000000000000e+03" nEvuw="2.6332300000000000e+05" sepI="1.2291886843740940e-02" sepG="2.2920062474440783e-04" res="1.4120951294898987e-01" rms="1.1086878180503845e-01" nType="0" CC="0.0000000000000000e+00">
        <Node pos="l" depth="1" Seq="0" IVar="-1" Cut="0.0000000000000000e+00" cType="1" nS="2.5250256250000000e+05" nB="2.1800949707031250e+03" nEv="2.5468267187500000e+05" nSuw="2.5252000000000000e+05" nBuw="2.3690000000000000e+03" nEvuw="2.5488900000000000e+05" sepI="8.4519144147634506e-03" sepG="-1.0000000000000000e+00" res="3.7592831999063492e-02" rms="9.1934293508529663e-02" nType="1" CC="0.0000000000000000e+00"/>
        <Node pos="r" depth="1" Seq="1" IVar="4" Cut="7.9694755375385284e-02" cType="0" nS="6.9702578125000000e+03" nB="1.6404786376953125e+03" nEv="8.6107363281250000e+03" nSuw="6.9250000000000000e+03" nBuw="1.5090000000000000e+03" nEvuw="8.4340000000000000e+03" sepI="1.1885969340801239e-01" sepG="8.7354602292180061e-03" res="5.8873955160379410e-02" rms="3.4476032853126526e-01" nType="0" CC="0.0000000000000000e+00">
          <Node pos="l" depth="2" Seq="1" IVar="-1" Cut="0.0000000000000000e+00" cType="1" nS="5.2398872070312500e+03" nB="3.2827087402343750e+02" nEv="5.5681582031250000e+03" nSuw="5.2470000000000000e+03" nBuw="3.1100000000000000e+02" nEvuw="5.5580000000000000e+03" sepI="5.3579404950141907e-02" sepG="-1.0000000000000000e+00" res="2.8264861553907394e-02" rms="2.3147225379943848e-01" nType="1" CC="0.0000000000000000e+00"/>
          <Node pos="r" depth="2" Seq="3" IVar="-1" Cut="0.0000000000000000e+00" cType="1" nS="1.7303706054687500e+03" nB="1.3122077636718750e+03" nEv="3.0425783691406250e+03" nSuw="1.6780000000000000e+03" nBuw="1.1980000000000000e+03" nEvuw="2.8760000000000000e+03" sepI="2.1360573172569275e-01" sepG="-1.0000000000000000e+00" res="-9.6461502835154533e-03" rms="4.6217498183250427e-01" nType="1" CC="0.0000000000000000e+00"/>
        </Node>
      </Node>
    </BinaryTree>
    <BinaryTree type="DecisionTree" boostWeight="1.0000000000000000e+00" itree="19">
      <Node pos="s" depth="0" Seq="0" IVar="1" Cut="5.1738074980676174e-03" cType="1" nS="2.5947282812500000e+05" nB="3.8205737304687500e+03" nEv="2.6329340625000000e+05" nSuw="2.5944500000000000e+05" nBuw="3.8780000000000000e+03" nEvuw="2.6332300000000000e+05" sepI="1.2228632345795631e-02" sepG="2.0625985052902251e-04" res="1.3192234933376312e-01" rms="1.1058314889669418e-01" nType="0" CC="0.0000000000000000e+00">
        <Node pos="l" depth="1" Seq="0" IVar="-1" Cut="0.0000000000000000e+00" cType="1" nS="2.5883973437500000e+05" nB="3.5070166015625000e+03" nEv="2.6234675000000000e+05" nSuw="2.5894100000000000e+05" nBuw="3.6070000000000000e+03" nEvuw="2.6254800000000000e+05" sepI="1.1483700945973396e-02" sepG="-1.0000000000000000e+00" res="3.6095742136240005e-02" rms="1.0716202855110168e-01" nType="1" CC="0.0000000000000000e+00"/>
        <Node pos="r" depth="1" Seq="1" IVar="4" Cut="9.0029112994670868e-02" cType="0" nS="6.3309979248046875e+02" nB="3.1355703735351562e+02" nEv="9.4665679931640625e+02" nSuw="5.0400000000000000e+02" nBuw="2.7100000000000000e+02" nEvuw="7.7500000000000000e+02" sepI="1.6130426526069641e-01" sepG="4.4343758374452591e-02" res="-1.0716076195240021e-01" rms="4.0162700414657593e-01" nType="0" CC="0.0000000000000000e+00">
          <Node pos="l" depth="2" Seq="1" IVar="-1" Cut="0.0000000000000000e+00" cType="1" nS="5.0544470214843750e+02" nB="4.8811080932617188e+01" nEv="5.5425579833984375e+02" nSuw="3.9700000000000000e+02" nBuw="4.7000000000000000e+01" nEvuw="4.4400000000000000e+02" sepI="7.3480412364006042e-02" sepG="-1.0000000000000000e+00" res="1.3725336641073227e-02" rms="2.7107271552085876e-01" nType="1" CC="0.0000000000000000e+00"/>
          <Node pos="r" depth="2" Seq="3" IVar="-1" Cut="0.0000000000000000e+00" cType="1" nS="1.2765508270263672e+02" nB="2.6474597167968750e+02" nEv="3.9240103149414062e+02" nSuw="1.0700000000000000e+02" nBuw="2.2400000000000000e+02" nEvuw="3.3100000000000000e+02" sepI="1.7837494611740112e-01" sepG="-1.0000000000000000e+00" res="-4.6517327427864075e-02" rms="4.2234456539154053e-01" nType="-1" CC="0.0000000000000000e+00"/>
        </Node>
      </Node>
    </BinaryTree>
    <BinaryTree type="DecisionTree" boostWeight="1.0000000000000000e+00" itree="20">
      <Node pos="s" depth="0" Seq="0" IVar="9" Cut="-2.9221506789326668e-02" cType="0" nS="2.5947282812500000e+05" nB="3.8205737304687500e+03" nEv="2.6329340625000000e+05" nSuw="2.5944500000000000e+05" nBuw="3.8780000000000000e+03" nEvuw="2.6332300000000000e+05" sepI="1.2221441604197025e-02" sepG="2.1447859762702137e-04" res="1.2323659658432007e-01" rms="1.1055062711238861e-01" nType="0" CC="0.0000000000000000e+00">
        <Node pos="l" depth="1" Seq="0" IVar="-1" Cut="0.0000000000000000e+00" cType="1" nS="2.5348559375000000e+05" nB="2.2641098632812500e+03" nEv="2.5574970312500000e+05" nSuw="2.5352000000000000e+05" nBuw="2.4400000000000000e+03" nEvuw="2.5596000000000000e+05" sepI="8.6953211575746536e-03" sepG="-1.0000000000000000e+00" res="3.6432951688766479e-02" rms="9.3248702585697174e-02" nType="1" CC="0.0000000000000000e+00"/>
