<?xml version="1.0"?>
<MethodSetup Method="BDT::BDTG">
  <GeneralInfo>
    <Info name="TMVA Release" value="4.0.7 [262151]"/>
    <Info name="ROOT Release" value="5.27/06 [334598]"/>
    <Info name="Creator" value="sixie"/>
    <Info name="Date" value="Fri Oct  7 10:37:26 2011"/>
    <Info name="Host" value="Linux lxbuild042.cern.ch 2.6.18-238.1.1.el5 #1 SMP Wed Jan 19 11:06:36 CET 2011 x86_64 x86_64 x86_64 GNU/Linux"/>
    <Info name="Dir" value="/build/sixie/releases/analysis/CMSSW_4_2_3_patch2/src/ElectronMVA"/>
    <Info name="Training events" value="8237"/>
    <Info name="TrainingTime" value="11.7336"/>
    <Info name="AnalysisType" value="Classification"/>
  </GeneralInfo>
  <Options>
    <Option name="V" modified="Yes">False</Option>
    <Option name="VerbosityLevel" modified="No">Default</Option>
    <Option name="VarTransform" modified="No">None</Option>
    <Option name="H" modified="Yes">False</Option>
    <Option name="CreateMVAPdfs" modified="Yes">True</Option>
    <Option name="IgnoreNegWeightsInTraining" modified="No">False</Option>
    <Option name="NTrees" modified="Yes">1000</Option>
    <Option name="BoostType" modified="Yes">Grad</Option>
    <Option name="AdaBoostR2Loss" modified="No">quadratic</Option>
    <Option name="UseBaggedGrad" modified="Yes">False</Option>
    <Option name="GradBaggingFraction" modified="No">6.000000e-01</Option>
    <Option name="Shrinkage" modified="Yes">1.000000e-01</Option>
    <Option name="AdaBoostBeta" modified="No">1.000000e+00</Option>
    <Option name="UseRandomisedTrees" modified="No">False</Option>
    <Option name="UseNvars" modified="Yes">4</Option>
    <Option name="UseNTrainEvents" modified="No">8237</Option>
    <Option name="UseWeightedTrees" modified="No">True</Option>
    <Option name="UseYesNoLeaf" modified="No">True</Option>
    <Option name="NodePurityLimit" modified="No">5.000000e-01</Option>
    <Option name="SeparationType" modified="No">giniindex</Option>
    <Option name="nEventsMin" modified="No">40</Option>
    <Option name="nCuts" modified="Yes">2000</Option>
    <Option name="PruneStrength" modified="Yes">0.000000e+00</Option>
    <Option name="PruneMethod" modified="Yes">nopruning</Option>
    <Option name="PruneBeforeBoost" modified="No">False</Option>
    <Option name="PruningValFraction" modified="No">5.000000e-01</Option>
    <Option name="NNodesMax" modified="Yes">5</Option>
    <Option name="MaxDepth" modified="No">3</Option>
  </Options>
  <Variables NVar="13">
    <Variable VarIndex="0" Expression="SigmaIEtaIEta" Label="SigmaIEtaIEta" Title="SigmaIEtaIEta" Unit="" Internal="SigmaIEtaIEta" Type="F" Min="0.000258684" Max="0.0205164"/>
    <Variable VarIndex="1" Expression="DEtaIn" Label="DEtaIn" Title="DEtaIn" Unit="" Internal="DEtaIn" Type="F" Min="-0.00699687" Max="0.00699973"/>
    <Variable VarIndex="2" Expression="DPhiIn" Label="DPhiIn" Title="DPhiIn" Unit="" Internal="DPhiIn" Type="F" Min="-0.148643" Max="0.149666"/>
    <Variable VarIndex="3" Expression="D0" Label="D0" Title="D0" Unit="" Internal="D0" Type="F" Min="-0.0199952" Max="0.0199422"/>
    <Variable VarIndex="4" Expression="FBrem" Label="FBrem" Title="FBrem" Unit="" Internal="FBrem" Type="F" Min="-3.76489" Max="0.998016"/>
    <Variable VarIndex="5" Expression="EOverP" Label="EOverP" Title="EOverP" Unit="" Internal="EOverP" Type="F" Min="0.0843277" Max="6.68506"/>
    <Variable VarIndex="6" Expression="ESeedClusterOverPout" Label="ESeedClusterOverPout" Title="ESeedClusterOverPout" Unit="" Internal="ESeedClusterOverPout" Type="F" Min="0.100666" Max="251.727"/>
    <Variable VarIndex="7" Expression="SigmaIPhiIPhi" Label="SigmaIPhiIPhi" Title="SigmaIPhiIPhi" Unit="" Internal="SigmaIPhiIPhi" Type="F" Min="0.00758294" Max="0.0486645"/>
    <Variable VarIndex="8" Expression="NBrem" Label="NBrem" Title="NBrem" Unit="" Internal="NBrem" Type="I" Min="0" Max="8"/>
    <Variable VarIndex="9" Expression="OneOverEMinusOneOverP" Label="OneOverEMinusOneOverP" Title="OneOverEMinusOneOverP" Unit="" Internal="OneOverEMinusOneOverP" Type="F" Min="-0.17092" Max="0.0773525"/>
    <Variable VarIndex="10" Expression="ESeedClusterOverPIn" Label="ESeedClusterOverPIn" Title="ESeedClusterOverPIn" Unit="" Internal="ESeedClusterOverPIn" Type="F" Min="0.0202531" Max="5.8015"/>
    <Variable VarIndex="11" Expression="IP3d" Label="IP3d" Title="IP3d" Unit="" Internal="IP3d" Type="F" Min="-0.0519371" Max="0.0566483"/>
    <Variable VarIndex="12" Expression="IP3dSig" Label="IP3dSig" Title="IP3dSig" Unit="" Internal="IP3dSig" Type="F" Min="-16.0981" Max="13.9437"/>
  </Variables>
  <Spectators NSpec="0"/>
  <Transformations NTransformations="0"/>
  <MVAPdfs>
    <PDF Name="BDTG_PDFSig" MinNSmooth="0" MaxNSmooth="0" InterpolMethod="2" KDE_type="1" KDE_iter="1" KDE_border="1" KDE_finefactor="1.0000000000000000e+00">
      <Histogram Name="BDT_tr_S_original" NBins="164" XMin="-9.9896979331970215e-01" XMax="9.5220351219177246e-01" HasEquidistantBins="1">
        0 0 0.0106623 0.080527 0.0648796 0.0476343 0.036972 0.0631744 0 0.134483 0.115687 0.116055 0.0525121 0.0739439 0 0.0694965 0.106729 0.101483 0.0648796 0.0213246 0.0276467 0.0476343 0.0790827 0.0213246 0.089745 0.0635426 0.0638036 0.0106623 0.0908211 0.158443 0.0648796 0.170011 0.0631744 0.0478953 0.154364 0.0894841 0.0605394 0.0911893 0.206615 0.084499 0.21283 0.0635426 0.0960671 0.036972 0.0846062 0.163689 0.0975113 0.164765 0.129237 0.0922653 0.112514 0.191336 0.08294 0.0213246 0.100407 0.192134 0.206876 0.129498 0.043555 0.0213246 0.192949 0.112514 0.043555 0.145407 0.0106623 0.146114 0.209918 0.081864 0.128161 0.0859433 0.166731 0.0968666 0.167807 0.0659557 0.243848 0.139085 0.154993 0.202429 0.0807879 0.114128 0.111699 0.141237 0.101852 0.107359 0.139792 0.130574 0.257291 0.140698 0.131112 0.193839 0.116854 0.267415 0.122638 0.346328 0.199102 0.348742 0.210994 0.206393 0.210025 0.325604 0.429937 0.325542 0.282303 0.275703 0.3068 0.28874 0.112775 0.354327 0.390699 0.452207 0.416533 0.247705 0.469176 0.449624 0.487304 0.448888 0.449687 0.551792 0.460234 0.467094 0.635884 0.848619 0.692146 0.852132 0.843982 0.587904 0.600134 0.885241 1.41161 1.0461 1.17707 1.27682 1.08817 1.41855 1.71549 1.32324 1.51045 2.1456 2.06879 2.28389 2.51089 2.60353 2.5658 2.86091 2.93152 2.91871 3.01282 2.81519 2.92437 2.85529 2.59839 2.02809 1.77818 1.34866 1.17619 1.04508 0.690033 0.662034 0.484839 0.23569 0.193733 0.0988484 0.0872803 0.0585576 
      </Histogram>
    </PDF>
    <PDF Name="BDTG_PDFBkg" MinNSmooth="0" MaxNSmooth="0" InterpolMethod="2" KDE_type="1" KDE_iter="1" KDE_border="1" KDE_finefactor="1.0000000000000000e+00">
      <Histogram Name="BDT_tr_B_original" NBins="164" XMin="-9.9896979331970215e-01" XMax="9.5220351219177246e-01" HasEquidistantBins="1">
        1.45304 3.70297 3.92364 3.93793 3.7364 3.19306 3.2935 3.19917 2.7764 2.7002 2.20381 1.98685 1.5907 1.68004 1.04849 1.31081 1.30148 1.33185 1.16529 1.18002 1.03567 0.920054 0.968903 0.582164 0.737595 0.645027 0.577757 0.708739 0.528233 0.620793 0.56032 0.401538 0.599839 0.750025 0.476878 0.439688 0.259694 0.220192 0.293494 0.422261 0.349326 0.502839 0.231669 0.215536 0.31336 0.26786 0.419708 0.249449 0.377488 0.283504 0.270138 0.194358 0.14422 0.132614 0.237468 0.0983428 0.233253 0.151489 0.145123 0.137333 0.244049 0.14737 0.0761007 0.219335 0.182881 0.229709 0.16974 0.170453 0.163534 0.197285 0.251065 0.180186 0.162935 0.0744852 0.163518 0.181218 0.230581 0.105229 0.101238 0.165358 0.123641 0.231117 0.184241 0.160607 0.107605 0.193911 0.1705 0.239635 0.079028 0.165894 0.152089 0.221984 0.156632 0.0950641 0.24057 0.179554 0.154968 0.221871 0.163566 0.216649 0.226318 0.114315 0.255815 0.0537461 0.20346 0.246409 0.224327 0.0806435 0.191431 0.168237 0.255526 0.172245 0.133677 0.281888 0.293157 0.251112 0.28464 0.287111 0.263013 0.197966 0.289374 0.241138 0.284151 0.290086 0.337689 0.345336 0.171213 0.296531 0.159671 0.339113 0.338674 0.31727 0.320831 0.430889 0.230405 0.307912 0.290086 0.385853 0.403866 0.418333 0.418509 0.174995 0.289582 0.436792 0.261149 0.325877 0.215697 0.265916 0.333858 0.247705 0.079028 0.0859623 0.0229542 0.0674384 0.0691664 0.0222421 0.0337192 0.0114771 0 0.0114771 0 0 0 0 
      </Histogram>
    </PDF>
  </MVAPdfs>
  <Weights NTrees="1000" TreeType="1">
    <BinaryTree type="DecisionTree" boostWeight="1.0000000000000000e+00" itree="0">
      <Node pos="s" depth="0" Seq="0" IVar="4" Cut="1.8634621798992157e-01" cType="0" nS="4.0712067871093750e+03" nB="4.1788784179687500e+03" nEv="8.2500849609375000e+03" nSuw="4.0560000000000000e+03" nBuw="4.1810000000000000e+03" nEvuw="8.2370000000000000e+03" sepI="2.4995741248130798e-01" sepG="9.1216117143630981e-02" res="-6.5254801884293556e-03" rms="4.9995741248130798e-01" nType="0" CC="0.0000000000000000e+00">
        <Node pos="l" depth="1" Seq="0" IVar="-1" Cut="0.0000000000000000e+00" cType="1" nS="3.6385246582031250e+03" nB="1.2542198486328125e+03" nEv="4.8927446289062500e+03" nSuw="3.6880000000000000e+03" nBuw="1.2890000000000000e+03" nEvuw="4.9770000000000000e+03" sepI="1.9063118100166321e-01" sepG="-1.0000000000000000e+00" res="3.8886610418558121e-02" rms="4.3661329150199890e-01" nType="1" CC="0.0000000000000000e+00"/>
        <Node pos="r" depth="1" Seq="1" IVar="7" Cut="1.2370361015200615e-02" cType="0" nS="4.3268218994140625e+02" nB="2.9246584472656250e+03" nEv="3.3573405761718750e+03" nSuw="3.6800000000000000e+02" nBuw="2.8920000000000000e+03" nEvuw="3.2600000000000000e+03" sepI="1.1226732283830643e-01" sepG="4.9244510009884834e-03" res="-3.7112352252006531e-01" rms="3.3506315946578979e-01" nType="0" CC="0.0000000000000000e+00">
          <Node pos="l" depth="2" Seq="1" IVar="-1" Cut="0.0000000000000000e+00" cType="1" nS="2.5429560852050781e+02" nB="8.5835406494140625e+02" nEv="1.1126496582031250e+03" nSuw="2.2500000000000000e+02" nBuw="8.5900000000000000e+02" nEvuw="1.0840000000000000e+03" sepI="1.7631466686725616e-01" sepG="-1.0000000000000000e+00" res="-4.6198662370443344e-02" rms="4.1989839076995850e-01" nType="-1" CC="0.0000000000000000e+00"/>
          <Node pos="r" depth="2" Seq="3" IVar="-1" Cut="0.0000000000000000e+00" cType="1" nS="1.7838659667968750e+02" nB="2.0663044433593750e+03" nEv="2.2446909179687500e+03" nSuw="1.4300000000000000e+02" nBuw="2.0330000000000000e+03" nEvuw="2.1760000000000000e+03" sepI="7.3154896497726440e-02" sepG="-1.0000000000000000e+00" res="-7.4947871267795563e-02" rms="2.7047160267829895e-01" nType="-1" CC="0.0000000000000000e+00"/>
        </Node>
      </Node>
    </BinaryTree>
    <BinaryTree type="DecisionTree" boostWeight="1.0000000000000000e+00" itree="1">
      <Node pos="s" depth="0" Seq="0" IVar="4" Cut="1.8634621798992157e-01" cType="0" nS="4.0712067871093750e+03" nB="4.1788784179687500e+03" nEv="8.2500849609375000e+03" nSuw="4.0560000000000000e+03" nBuw="4.1810000000000000e+03" nEvuw="8.2370000000000000e+03" sepI="2.3478800058364868e-01" sepG="7.6413229107856750e-02" res="-4.7606085427105427e-03" rms="4.8454928398132324e-01" nType="0" CC="0.0000000000000000e+00">
        <Node pos="l" depth="1" Seq="0" IVar="-1" Cut="0.0000000000000000e+00" cType="1" nS="3.6385246582031250e+03" nB="1.2542198486328125e+03" nEv="4.8927446289062500e+03" nSuw="3.6880000000000000e+03" nBuw="1.2890000000000000e+03" nEvuw="4.9770000000000000e+03" sepI="1.9063118100166321e-01" sepG="-1.0000000000000000e+00" res="3.5839252173900604e-02" rms="4.3661329150199890e-01" nType="1" CC="0.0000000000000000e+00"/>
        <Node pos="r" depth="1" Seq="1" IVar="7" Cut="1.2472024187445641e-02" cType="0" nS="4.3268218994140625e+02" nB="2.9246584472656250e+03" nEv="3.3573405761718750e+03" nSuw="3.6800000000000000e+02" nBuw="2.8920000000000000e+03" nEvuw="3.2600000000000000e+03" sepI="1.1136664450168610e-01" sepG="4.0356488898396492e-03" res="-3.3846569061279297e-01" rms="3.3371642231941223e-01" nType="0" CC="0.0000000000000000e+00">
          <Node pos="l" depth="2" Seq="1" IVar="-1" Cut="0.0000000000000000e+00" cType="1" nS="2.4810696411132812e+02" nB="8.2545281982421875e+02" nEv="1.0735598144531250e+03" nSuw="2.2000000000000000e+02" nBuw="8.2700000000000000e+02" nEvuw="1.0470000000000000e+03" sepI="1.7769645154476166e-01" sepG="-1.0000000000000000e+00" res="-4.1946414858102798e-02" rms="4.2154055833816528e-01" nType="-1" CC="0.0000000000000000e+00"/>
          <Node pos="r" depth="2" Seq="3" IVar="-1" Cut="0.0000000000000000e+00" cType="1" nS="1.8457522583007812e+02" nB="2.0992055664062500e+03" nEv="2.2837807617187500e+03" nSuw="1.4800000000000000e+02" nBuw="2.0650000000000000e+03" nEvuw="2.2130000000000000e+03" sepI="7.4253603816032410e-02" sepG="-1.0000000000000000e+00" res="-6.8390622735023499e-02" rms="2.7249515056610107e-01" nType="-1" CC="0.0000000000000000e+00"/>
        </Node>
      </Node>
    </BinaryTree>
    <BinaryTree type="DecisionTree" boostWeight="1.0000000000000000e+00" itree="2">
      <Node pos="s" depth="0" Seq="0" IVar="4" Cut="1.8634621798992157e-01" cType="0" nS="4.0712067871093750e+03" nB="4.1788784179687500e+03" nEv="8.2500849609375000e+03" nSuw="4.0560000000000000e+03" nBuw="4.1810000000000000e+03" nEvuw="8.2370000000000000e+03" sepI="2.2213147580623627e-01" sepG="6.4053058624267578e-02" res="-3.2846771646291018e-03" rms="4.7130826115608215e-01" nType="0" CC="0.0000000000000000e+00">
        <Node pos="l" depth="1" Seq="0" IVar="-1" Cut="0.0000000000000000e+00" cType="1" nS="3.6385246582031250e+03" nB="1.2542198486328125e+03" nEv="4.8927446289062500e+03" nSuw="3.6880000000000000e+03" nBuw="1.2890000000000000e+03" nEvuw="4.9770000000000000e+03" sepI="1.9063118100166321e-01" sepG="-1.0000000000000000e+00" res="3.3118974417448044e-02" rms="4.3661329150199890e-01" nType="1" CC="0.0000000000000000e+00"/>
        <Node pos="r" depth="1" Seq="1" IVar="4" Cut="1.3894169032573700e-01" cType="0" nS="4.3268218994140625e+02" nB="2.9246584472656250e+03" nEv="3.3573405761718750e+03" nSuw="3.6800000000000000e+02" nBuw="2.8920000000000000e+03" nEvuw="3.2600000000000000e+03" sepI="1.1063840240240097e-01" sepG="3.8189906626939774e-03" res="-3.0881091952323914e-01" rms="3.3262351155281067e-01" nType="0" CC="0.0000000000000000e+00">
          <Node pos="l" depth="2" Seq="1" IVar="-1" Cut="0.0000000000000000e+00" cType="1" nS="1.0258547210693359e+02" nB="2.1560202026367188e+02" nEv="3.1818750000000000e+02" nSuw="1.0000000000000000e+02" nBuw="2.2000000000000000e+02" nEvuw="3.2000000000000000e+02" sepI="2.1366384625434875e-01" sepG="-1.0000000000000000e+00" res="-2.0357245579361916e-02" rms="4.6223786473274231e-01" nType="-1" CC="0.0000000000000000e+00"/>
          <Node pos="r" depth="2" Seq="3" IVar="-1" Cut="0.0000000000000000e+00" cType="1" nS="3.3009671020507812e+02" nB="2.7090563964843750e+03" nEv="3.0391530761718750e+03" nSuw="2.6800000000000000e+02" nBuw="2.6720000000000000e+03" nEvuw="2.9400000000000000e+03" sepI="9.5633216202259064e-02" sepG="-1.0000000000000000e+00" res="-5.8837782591581345e-02" rms="3.0924621224403381e-01" nType="-1" CC="0.0000000000000000e+00"/>
        </Node>
      </Node>
    </BinaryTree>
    <BinaryTree type="DecisionTree" boostWeight="1.0000000000000000e+00" itree="3">
      <Node pos="s" depth="0" Seq="0" IVar="4" Cut="1.8634621798992157e-01" cType="0" nS="4.0712067871093750e+03" nB="4.1788784179687500e+03" nEv="8.2500849609375000e+03" nSuw="4.0560000000000000e+03" nBuw="4.1810000000000000e+03" nEvuw="8.2370000000000000e+03" sepI="2.1155071258544922e-01" sepG="5.3728230297565460e-02" res="-2.0666380878537893e-03" rms="4.5994642376899719e-01" nType="0" CC="0.0000000000000000e+00">
        <Node pos="l" depth="1" Seq="0" IVar="-1" Cut="0.0000000000000000e+00" cType="1" nS="3.6385246582031250e+03" nB="1.2542198486328125e+03" nEv="4.8927446289062500e+03" nSuw="3.6880000000000000e+03" nBuw="1.2890000000000000e+03" nEvuw="4.9770000000000000e+03" sepI="1.9063118100166321e-01" sepG="-1.0000000000000000e+00" res="3.0667977407574654e-02" rms="4.3661329150199890e-01" nType="1" CC="0.0000000000000000e+00"/>
        <Node pos="r" depth="1" Seq="1" IVar="4" Cut="-1.3355660438537598e-01" cType="1" nS="4.3268218994140625e+02" nB="2.9246584472656250e+03" nEv="3.3573405761718750e+03" nSuw="3.6800000000000000e+02" nBuw="2.8920000000000000e+03" nEvuw="3.2600000000000000e+03" sepI="1.1000949144363403e-01" sepG="3.5655682440847158e-03" res="-2.8188732266426086e-01" rms="3.3167678117752075e-01" nType="0" CC="0.0000000000000000e+00">
          <Node pos="l" depth="2" Seq="1" IVar="-1" Cut="0.0000000000000000e+00" cType="1" nS="4.0089424133300781e+01" nB="3.5817081451416016e+01" nEv="7.5906509399414062e+01" nSuw="3.8000000000000000e+01" nBuw="3.6000000000000000e+01" nEvuw="7.4000000000000000e+01" sepI="2.4563120305538177e-01" sepG="-1.0000000000000000e+00" res="1.8581038340926170e-02" rms="4.9561193585395813e-01" nType="1" CC="0.0000000000000000e+00"/>
          <Node pos="r" depth="2" Seq="3" IVar="-1" Cut="0.0000000000000000e+00" cType="1" nS="3.9259277343750000e+02" nB="2.8888413085937500e+03" nEv="3.2814340820312500e+03" nSuw="3.3000000000000000e+02" nBuw="2.8560000000000000e+03" nEvuw="3.1860000000000000e+03" sepI="1.0322422534227371e-01" sepG="-1.0000000000000000e+00" res="-5.2868738770484924e-02" rms="3.2128527760505676e-01" nType="-1" CC="0.0000000000000000e+00"/>
        </Node>
      </Node>
    </BinaryTree>
    <BinaryTree type="DecisionTree" boostWeight="1.0000000000000000e+00" itree="4">
      <Node pos="s" depth="0" Seq="0" IVar="4" Cut="1.7682516574859619e-01" cType="0" nS="4.0712067871093750e+03" nB="4.1788784179687500e+03" nEv="8.2500849609375000e+03" nSuw="4.0560000000000000e+03" nBuw="4.1810000000000000e+03" nEvuw="8.2370000000000000e+03" sepI="2.0268064737319946e-01" sepG="4.5140344649553299e-02" res="-1.0410220129415393e-03" rms="4.5020067691802979e-01" nType="0" CC="0.0000000000000000e+00">
        <Node pos="l" depth="1" Seq="0" IVar="-1" Cut="0.0000000000000000e+00" cType="1" nS="3.6565444335937500e+03" nB="1.2842711181640625e+03" nEv="4.9408154296875000e+03" nSuw="3.7070000000000000e+03" nBuw="1.3210000000000000e+03" nEvuw="5.0280000000000000e+03" sepI="1.9141668081283569e-01" sepG="-1.0000000000000000e+00" res="2.8153724968433380e-02" rms="4.3751192092895508e-01" nType="1" CC="0.0000000000000000e+00"/>
        <Node pos="r" depth="1" Seq="1" IVar="0" Cut="8.8995611295104027e-03" cType="1" nS="4.1466238403320312e+02" nB="2.8946071777343750e+03" nEv="3.3092695312500000e+03" nSuw="3.4900000000000000e+02" nBuw="2.8600000000000000e+03" nEvuw="3.2090000000000000e+03" sepI="1.0696210712194443e-01" sepG="3.1034355051815510e-03" res="-2.6064759492874146e-01" rms="3.2705062627792358e-01" nType="0" CC="0.0000000000000000e+00">
          <Node pos="l" depth="2" Seq="1" IVar="-1" Cut="0.0000000000000000e+00" cType="1" nS="1.9449597167968750e+02" nB="6.8428521728515625e+02" nEv="8.7878118896484375e+02" nSuw="1.7100000000000000e+02" nBuw="6.8700000000000000e+02" nEvuw="8.5800000000000000e+02" sepI="1.6762432456016541e-01" sepG="-1.0000000000000000e+00" res="-3.0265357345342636e-02" rms="4.0941950678825378e-01" nType="-1" CC="0.0000000000000000e+00"/>
          <Node pos="r" depth="2" Seq="3" IVar="-1" Cut="0.0000000000000000e+00" cType="1" nS="2.2016641235351562e+02" nB="2.2103220214843750e+03" nEv="2.4304882812500000e+03" nSuw="1.7800000000000000e+02" nBuw="2.1730000000000000e+03" nEvuw="2.3510000000000000e+03" sepI="8.0803200602531433e-02" sepG="-1.0000000000000000e+00" res="-5.5006533861160278e-02" rms="2.8425902128219604e-01" nType="-1" CC="0.0000000000000000e+00"/>
        </Node>
      </Node>
    </BinaryTree>
    <BinaryTree type="DecisionTree" boostWeight="1.0000000000000000e+00" itree="5">
      <Node pos="s" depth="0" Seq="0" IVar="4" Cut="2.0062780380249023e-01" cType="0" nS="4.0712067871093750e+03" nB="4.1788784179687500e+03" nEv="8.2500849609375000e+03" nSuw="4.0560000000000000e+03" nBuw="4.1810000000000000e+03" nEvuw="8.2370000000000000e+03" sepI="1.9521987438201904e-01" sepG="3.8035977631807327e-02" res="-1.9408280786592513e-04" rms="4.4183692336082458e-01" nType="0" CC="0.0000000000000000e+00">
        <Node pos="l" depth="1" Seq="0" IVar="-1" Cut="0.0000000000000000e+00" cType="1" nS="3.6046701660156250e+03" nB="1.2237430419921875e+03" nEv="4.8284130859375000e+03" nSuw="3.6510000000000000e+03" nBuw="1.2580000000000000e+03" nEvuw="4.9090000000000000e+03" sepI="1.8921123445034027e-01" sepG="-1.0000000000000000e+00" res="2.6873653754591942e-02" rms="4.3498417735099792e-01" nType="1" CC="0.0000000000000000e+00"/>
        <Node pos="r" depth="1" Seq="1" IVar="7" Cut="1.2277940288186073e-02" cType="0" nS="4.6653659057617188e+02" nB="2.9551352539062500e+03" nEv="3.4216718750000000e+03" nSuw="4.0500000000000000e+02" nBuw="2.9230000000000000e+03" nEvuw="3.3280000000000000e+03" sepI="1.1198925226926804e-01" sepG="3.7272935733199120e-03" res="-2.3186969757080078e-01" rms="3.3464795351028442e-01" nType="0" CC="0.0000000000000000e+00">
          <Node pos="l" depth="2" Seq="1" IVar="-1" Cut="0.0000000000000000e+00" cType="1" nS="2.8710467529296875e+02" nB="8.9912780761718750e+02" nEv="1.1862325439453125e+03" nSuw="2.5900000000000000e+02" nBuw="8.9900000000000000e+02" nEvuw="1.1580000000000000e+03" sepI="1.7504055798053741e-01" sepG="-1.0000000000000000e+00" res="-2.6660012081265450e-02" rms="4.1837850213050842e-01" nType="-1" CC="0.0000000000000000e+00"/>
          <Node pos="r" depth="2" Seq="3" IVar="-1" Cut="0.0000000000000000e+00" cType="1" nS="1.7943191528320312e+02" nB="2.0560073242187500e+03" nEv="2.2354394531250000e+03" nSuw="1.4600000000000000e+02" nBuw="2.0240000000000000e+03" nEvuw="2.1700000000000000e+03" sepI="7.2825998067855835e-02" sepG="-1.0000000000000000e+00" res="-5.3835164755582809e-02" rms="2.6986292004585266e-01" nType="-1" CC="0.0000000000000000e+00"/>
        </Node>
      </Node>
    </BinaryTree>
    <BinaryTree type="DecisionTree" boostWeight="1.0000000000000000e+00" itree="6">
      <Node pos="s" depth="0" Seq="0" IVar="4" Cut="2.0062780380249023e-01" cType="0" nS="4.0712067871093750e+03" nB="4.1788784179687500e+03" nEv="8.2500849609375000e+03" nSuw="4.0560000000000000e+03" nBuw="4.1810000000000000e+03" nEvuw="8.2370000000000000e+03" sepI="1.8885110318660736e-01" sepG="3.1924653798341751e-02" res="5.6296383263543248e-04" rms="4.3457001447677612e-01" nType="0" CC="0.0000000000000000e+00">
        <Node pos="l" depth="1" Seq="0" IVar="-1" Cut="0.0000000000000000e+00" cType="1" nS="3.6046701660156250e+03" nB="1.2237430419921875e+03" nEv="4.8284130859375000e+03" nSuw="3.6510000000000000e+03" nBuw="1.2580000000000000e+03" nEvuw="4.9090000000000000e+03" sepI="1.8921124935150146e-01" sepG="-1.0000000000000000e+00" res="2.4979721754789352e-02" rms="4.3498417735099792e-01" nType="1" CC="0.0000000000000000e+00"/>
        <Node pos="r" depth="1" Seq="1" IVar="4" Cut="1.3908264040946960e-01" cType="0" nS="4.6653659057617188e+02" nB="2.9551352539062500e+03" nEv="3.4216718750000000e+03" nSuw="4.0500000000000000e+02" nBuw="2.9230000000000000e+03" nEvuw="3.3280000000000000e+03" sepI="1.1136852204799652e-01" sepG="3.4770185593515635e-03" res="-2.1168626844882965e-01" rms="3.3371922373771667e-01" nType="0" CC="0.0000000000000000e+00">
          <Node pos="l" depth="2" Seq="1" IVar="-1" Cut="0.0000000000000000e+00" cType="1" nS="1.3592350769042969e+02" nB="2.4607881164550781e+02" nEv="3.8200231933593750e+02" nSuw="1.3600000000000000e+02" nBuw="2.5100000000000000e+02" nEvuw="3.8700000000000000e+02" sepI="2.1589979529380798e-01" sepG="-1.0000000000000000e+00" res="-8.2591818645596504e-03" rms="4.6465018391609192e-01" nType="-1" CC="0.0000000000000000e+00"/>
          <Node pos="r" depth="2" Seq="3" IVar="-1" Cut="0.0000000000000000e+00" cType="1" nS="3.3061306762695312e+02" nB="2.7090563964843750e+03" nEv="3.0396694335937500e+03" nSuw="2.6900000000000000e+02" nBuw="2.6720000000000000e+03" nEvuw="2.9410000000000000e+03" sepI="9.4317846000194550e-02" sepG="-1.0000000000000000e+00" res="-4.5591402798891068e-02" rms="3.0711209774017334e-01" nType="-1" CC="0.0000000000000000e+00"/>
        </Node>
      </Node>
    </BinaryTree>
    <BinaryTree type="DecisionTree" boostWeight="1.0000000000000000e+00" itree="7">
      <Node pos="s" depth="0" Seq="0" IVar="4" Cut="1.7682516574859619e-01" cType="0" nS="4.0712067871093750e+03" nB="4.1788784179687500e+03" nEv="8.2500849609375000e+03" nSuw="4.0560000000000000e+03" nBuw="4.1810000000000000e+03" nEvuw="8.2370000000000000e+03" sepI="1.8352080881595612e-01" sepG="2.6814892888069153e-02" res="1.1620984878391027e-03" rms="4.2839327454566956e-01" nType="0" CC="0.0000000000000000e+00">
        <Node pos="l" depth="1" Seq="0" IVar="-1" Cut="0.0000000000000000e+00" cType="1" nS="3.6565444335937500e+03" nB="1.2842711181640625e+03" nEv="4.9408154296875000e+03" nSuw="3.7070000000000000e+03" nBuw="1.3210000000000000e+03" nEvuw="5.0280000000000000e+03" sepI="1.9096697866916656e-01" sepG="-1.0000000000000000e+00" res="2.2637449204921722e-02" rms="4.3699768185615540e-01" nType="1" CC="0.0000000000000000e+00"/>
        <Node pos="r" depth="1" Seq="1" IVar="4" Cut="-1.3442073762416840e-01" cType="1" nS="4.1466238403320312e+02" nB="2.8946071777343750e+03" nEv="3.3092695312500000e+03" nSuw="3.4900000000000000e+02" nBuw="2.8600000000000000e+03" nEvuw="3.2090000000000000e+03" sepI="1.0555335134267807e-01" sepG="3.0488416086882353e-03" res="-1.9892600178718567e-01" rms="3.2488974928855896e-01" nType="0" CC="0.0000000000000000e+00">
          <Node pos="l" depth="2" Seq="1" IVar="-1" Cut="0.0000000000000000e+00" cType="1" nS="4.0089424133300781e+01" nB="3.5817081451416016e+01" nEv="7.5906509399414062e+01" nSuw="3.8000000000000000e+01" nBuw="3.6000000000000000e+01" nEvuw="7.4000000000000000e+01" sepI="2.4363304674625397e-01" sepG="-1.0000000000000000e+00" res="2.8439242392778397e-02" rms="4.9359196424484253e-01" nType="1" CC="0.0000000000000000e+00"/>
          <Node pos="r" depth="2" Seq="3" IVar="-1" Cut="0.0000000000000000e+00" cType="1" nS="3.7457296752929688e+02" nB="2.8587900390625000e+03" nEv="3.2333630371093750e+03" nSuw="3.1100000000000000e+02" nBuw="2.8240000000000000e+03" nEvuw="3.1350000000000000e+03" sepI="9.9191367626190186e-02" sepG="-1.0000000000000000e+00" res="-4.1692156344652176e-02" rms="3.1494662165641785e-01" nType="-1" CC="0.0000000000000000e+00"/>
        </Node>
      </Node>
    </BinaryTree>
    <BinaryTree type="DecisionTree" boostWeight="1.0000000000000000e+00" itree="8">
      <Node pos="s" depth="0" Seq="0" IVar="4" Cut="1.3874092698097229e-01" cType="0" nS="4.0712067871093750e+03" nB="4.1788784179687500e+03" nEv="8.2500849609375000e+03" nSuw="4.0560000000000000e+03" nBuw="4.1810000000000000e+03" nEvuw="8.2370000000000000e+03" sepI="1.7905274033546448e-01" sepG="2.2646021097898483e-02" res="1.6311680665239692e-03" rms="4.2314624786376953e-01" nType="0" CC="0.0000000000000000e+00">
        <Node pos="l" depth="1" Seq="0" IVar="-1" Cut="0.0000000000000000e+00" cType="1" nS="3.7411101074218750e+03" nB="1.4709277343750000e+03" nEv="5.2120375976562500e+03" nSuw="3.7880000000000000e+03" nBuw="1.5100000000000000e+03" nEvuw="5.2980000000000000e+03" sepI="1.9291251897811890e-01" sepG="-1.0000000000000000e+00" res="1.9811699166893959e-02" rms="4.3921807408332825e-01" nType="1" CC="0.0000000000000000e+00"/>
        <Node pos="r" depth="1" Seq="1" IVar="4" Cut="-1.3445527851581573e-01" cType="1" nS="3.3009671020507812e+02" nB="2.7079506835937500e+03" nEv="3.0380473632812500e+03" nSuw="2.6800000000000000e+02" nBuw="2.6710000000000000e+03" nEvuw="2.9390000000000000e+03" sepI="9.3777805566787720e-02" sepG="3.0261490028351545e-03" res="-1.9547601044178009e-01" rms="3.0623161792755127e-01" nType="0" CC="0.0000000000000000e+00">
          <Node pos="l" depth="2" Seq="1" IVar="-1" Cut="0.0000000000000000e+00" cType="1" nS="4.0089424133300781e+01" nB="3.5817081451416016e+01" nEv="7.5906509399414062e+01" nSuw="3.8000000000000000e+01" nBuw="3.6000000000000000e+01" nEvuw="7.4000000000000000e+01" sepI="2.4355465173721313e-01" sepG="-1.0000000000000000e+00" res="2.5723587721586227e-02" rms="4.9351257085800171e-01" nType="1" CC="0.0000000000000000e+00"/>
          <Node pos="r" depth="2" Seq="3" IVar="-1" Cut="0.0000000000000000e+00" cType="1" nS="2.9000729370117188e+02" nB="2.6721335449218750e+03" nEv="2.9621408691406250e+03" nSuw="2.3000000000000000e+02" nBuw="2.6350000000000000e+03" nEvuw="2.8650000000000000e+03" sepI="8.6835995316505432e-02" sepG="-1.0000000000000000e+00" res="-4.2760375887155533e-02" rms="2.9467946290969849e-01" nType="-1" CC="0.0000000000000000e+00"/>
        </Node>
      </Node>
    </BinaryTree>
    <BinaryTree type="DecisionTree" boostWeight="1.0000000000000000e+00" itree="9">
      <Node pos="s" depth="0" Seq="0" IVar="4" Cut="2.0062780380249023e-01" cType="0" nS="4.0712067871093750e+03" nB="4.1788784179687500e+03" nEv="8.2500849609375000e+03" nSuw="4.0560000000000000e+03" nBuw="4.1810000000000000e+03" nEvuw="8.2370000000000000e+03" sepI="1.7523020505905151e-01" sepG="1.9300460815429688e-02" res="2.0027805585414171e-03" rms="4.1860508918762207e-01" nType="0" CC="0.0000000000000000e+00">
        <Node pos="l" depth="1" Seq="0" IVar="-1" Cut="0.0000000000000000e+00" cType="1" nS="3.6046701660156250e+03" nB="1.2237430419921875e+03" nEv="4.8284130859375000e+03" nSuw="3.6510000000000000e+03" nBuw="1.2580000000000000e+03" nEvuw="4.9090000000000000e+03" sepI="1.8921123445034027e-01" sepG="-1.0000000000000000e+00" res="2.0283404737710953e-02" rms="4.3498417735099792e-01" nType="1" CC="0.0000000000000000e+00"/>
        <Node pos="r" depth="1" Seq="1" IVar="6" Cut="9.9662542343139648e-01" cType="0" nS="4.6653659057617188e+02" nB="2.9551352539062500e+03" nEv="3.4216718750000000e+03" nSuw="4.0500000000000000e+02" nBuw="2.9230000000000000e+03" nEvuw="3.3280000000000000e+03" sepI="1.0896535217761993e-01" sepG="2.9779840260744095e-03" res="-1.6302873194217682e-01" rms="3.3009901642799377e-01" nType="0" CC="0.0000000000000000e+00">
          <Node pos="l" depth="2" Seq="1" IVar="-1" Cut="0.0000000000000000e+00" cType="1" nS="2.5677331542968750e+02" nB="8.5748956298828125e+02" nEv="1.1142628173828125e+03" nSuw="2.4900000000000000e+02" nBuw="8.9500000000000000e+02" nEvuw="1.1440000000000000e+03" sepI="1.6391512751579285e-01" sepG="-1.0000000000000000e+00" res="-1.7739633098244667e-02" rms="4.0486434102058411e-01" nType="-1" CC="0.0000000000000000e+00"/>
          <Node pos="r" depth="2" Seq="3" IVar="-1" Cut="0.0000000000000000e+00" cType="1" nS="2.0976327514648438e+02" nB="2.0976457519531250e+03" nEv="2.3074089355468750e+03" nSuw="1.5600000000000000e+02" nBuw="2.0280000000000000e+03" nEvuw="2.1840000000000000e+03" sepI="7.8013673424720764e-02" sepG="-1.0000000000000000e+00" res="-4.2638141661882401e-02" rms="2.7930927276611328e-01" nType="-1" CC="0.0000000000000000e+00"/>
        </Node>
      </Node>
    </BinaryTree>
    <BinaryTree type="DecisionTree" boostWeight="1.0000000000000000e+00" itree="10">
      <Node pos="s" depth="0" Seq="0" IVar="4" Cut="2.0062780380249023e-01" cType="0" nS="4.0712067871093750e+03" nB="4.1788784179687500e+03" nEv="8.2500849609375000e+03" nSuw="4.0560000000000000e+03" nBuw="4.1810000000000000e+03" nEvuw="8.2370000000000000e+03" sepI="1.7199762165546417e-01" sepG="1.6223439946770668e-02" res="2.2987301927059889e-03" rms="4.1472595930099487e-01" nType="0" CC="0.0000000000000000e+00">
        <Node pos="l" depth="1" Seq="0" IVar="-1" Cut="0.0000000000000000e+00" cType="1" nS="3.6046701660156250e+03" nB="1.2237430419921875e+03" nEv="4.8284130859375000e+03" nSuw="3.6510000000000000e+03" nBuw="1.2580000000000000e+03" nEvuw="4.9090000000000000e+03" sepI="1.8921121954917908e-01" sepG="-1.0000000000000000e+00" res="1.8876830115914345e-02" rms="4.3498414754867554e-01" nType="1" CC="0.0000000000000000e+00"/>
        <Node pos="r" depth="1" Seq="1" IVar="7" Cut="1.2277940288186073e-02" cType="0" nS="4.6653659057617188e+02" nB="2.9551352539062500e+03" nEv="3.4216718750000000e+03" nSuw="4.0500000000000000e+02" nBuw="2.9230000000000000e+03" nEvuw="3.3280000000000000e+03" sepI="1.0859026759862900e-01" sepG="2.9338300228118896e-03" res="-1.4900669455528259e-01" rms="3.2953038811683655e-01" nType="0" CC="0.0000000000000000e+00">
          <Node pos="l" depth="2" Seq="1" IVar="-1" Cut="0.0000000000000000e+00" cType="1" nS="2.8710467529296875e+02" nB="8.9912780761718750e+02" nEv="1.1862325439453125e+03" nSuw="2.5900000000000000e+02" nBuw="8.9900000000000000e+02" nEvuw="1.1580000000000000e+03" sepI="1.6904966533184052e-01" sepG="-1.0000000000000000e+00" res="-1.4917647466063499e-02" rms="4.1115650534629822e-01" nType="-1" CC="0.0000000000000000e+00"/>
          <Node pos="r" depth="2" Seq="3" IVar="-1" Cut="0.0000000000000000e+00" cType="1" nS="1.7943191528320312e+02" nB="2.0560073242187500e+03" nEv="2.2354394531250000e+03" nSuw="1.4600000000000000e+02" nBuw="2.0240000000000000e+03" nEvuw="2.1700000000000000e+03" sepI="7.2016917169094086e-02" sepG="-1.0000000000000000e+00" res="-4.3045334517955780e-02" rms="2.6835969090461731e-01" nType="-1" CC="0.0000000000000000e+00"/>
        </Node>
      </Node>
    </BinaryTree>
    <BinaryTree type="DecisionTree" boostWeight="1.0000000000000000e+00" itree="11">
      <Node pos="s" depth="0" Seq="0" IVar="4" Cut="1.3874092698097229e-01" cType="0" nS="4.0712067871093750e+03" nB="4.1788784179687500e+03" nEv="8.2500849609375000e+03" nSuw="4.0560000000000000e+03" nBuw="4.1810000000000000e+03" nEvuw="8.2370000000000000e+03" sepI="1.6920982301235199e-01" sepG="1.3815425336360931e-02" res="2.5880185421556234e-03" rms="4.1135123372077942e-01" nType="0" CC="0.0000000000000000e+00">
        <Node pos="l" depth="1" Seq="0" IVar="-1" Cut="0.0000000000000000e+00" cType="1" nS="3.7411101074218750e+03" nB="1.4709277343750000e+03" nEv="5.2120375976562500e+03" nSuw="3.7880000000000000e+03" nBuw="1.5100000000000000e+03" nEvuw="5.2980000000000000e+03" sepI="1.9188590347766876e-01" sepG="-1.0000000000000000e+00" res="1.6181508079171181e-02" rms="4.3804782629013062e-01" nType="1" CC="0.0000000000000000e+00"/>
        <Node pos="r" depth="1" Seq="1" IVar="4" Cut="-1.3445527851581573e-01" cType="1" nS="3.3009671020507812e+02" nB="2.7079506835937500e+03" nEv="3.0380473632812500e+03" nSuw="2.6800000000000000e+02" nBuw="2.6710000000000000e+03" nEvuw="2.9390000000000000e+03" sepI="9.2790000140666962e-02" sepG="2.5862171314656734e-03" res="-1.5136514604091644e-01" rms="3.0461451411247253e-01" nType="0" CC="0.0000000000000000e+00">
          <Node pos="l" depth="2" Seq="1" IVar="-1" Cut="0.0000000000000000e+00" cType="1" nS="4.0089424133300781e+01" nB="3.5817081451416016e+01" nEv="7.5906509399414062e+01" nSuw="3.8000000000000000e+01" nBuw="3.6000000000000000e+01" nEvuw="7.4000000000000000e+01" sepI="2.4168898165225983e-01" sepG="-1.0000000000000000e+00" res="2.9517741873860359e-02" rms="4.9161875247955322e-01" nType="1" CC="0.0000000000000000e+00"/>
          <Node pos="r" depth="2" Seq="3" IVar="-1" Cut="0.0000000000000000e+00" cType="1" nS="2.9000729370117188e+02" nB="2.6721335449218750e+03" nEv="2.9621408691406250e+03" nSuw="2.3000000000000000e+02" nBuw="2.6350000000000000e+03" nEvuw="2.8650000000000000e+03" sepI="8.6321890354156494e-02" sepG="-1.0000000000000000e+00" res="-3.6862138658761978e-02" rms="2.9380586743354797e-01" nType="-1" CC="0.0000000000000000e+00"/>
        </Node>
      </Node>
    </BinaryTree>
    <BinaryTree type="DecisionTree" boostWeight="1.0000000000000000e+00" itree="12">
      <Node pos="s" depth="0" Seq="0" IVar="4" Cut="2.2681070864200592e-01" cType="0" nS="4.0712067871093750e+03" nB="4.1788784179687500e+03" nEv="8.2500849609375000e+03" nSuw="4.0560000000000000e+03" nBuw="4.1810000000000000e+03" nEvuw="8.2370000000000000e+03" sepI="1.6684514284133911e-01" sepG="1.1691443622112274e-02" res="2.7670150157064199e-03" rms="4.0846681594848633e-01" nType="0" CC="0.0000000000000000e+00">
        <Node pos="l" depth="1" Seq="0" IVar="-1" Cut="0.0000000000000000e+00" cType="1" nS="3.5341770019531250e+03" nB="1.1814444580078125e+03" nEv="4.7156215820312500e+03" nSuw="3.5780000000000000e+03" nBuw="1.2160000000000000e+03" nEvuw="4.7940000000000000e+03" sepI="1.8776893615722656e-01" sepG="-1.0000000000000000e+00" res="1.6942445188760757e-02" rms="4.3332314491271973e-01" nType="1" CC="0.0000000000000000e+00"/>
        <Node pos="r" depth="1" Seq="1" IVar="5" Cut="9.1550463438034058e-01" cType="0" nS="5.3702978515625000e+02" nB="2.9974338378906250e+03" nEv="3.5344636230468750e+03" nSuw="4.7800000000000000e+02" nBuw="2.9650000000000000e+03" nEvuw="3.4430000000000000e+03" sepI="1.1163900047540665e-01" sepG="2.9397134203463793e-03" res="-1.2212704122066498e-01" rms="3.3412423729896545e-01" nType="0" CC="0.0000000000000000e+00">
          <Node pos="l" depth="2" Seq="1" IVar="-1" Cut="0.0000000000000000e+00" cType="1" nS="4.7721337890625000e+02" nB="1.9555588378906250e+03" nEv="2.4327722167968750e+03" nSuw="4.2800000000000000e+02" nBuw="1.9700000000000000e+03" nEvuw="2.3980000000000000e+03" sepI="1.3511779904365540e-01" sepG="-1.0000000000000000e+00" res="-1.9269758835434914e-02" rms="3.6758372187614441e-01" nType="-1" CC="0.0000000000000000e+00"/>
          <Node pos="r" depth="2" Seq="3" IVar="-1" Cut="0.0000000000000000e+00" cType="1" nS="5.9816371917724609e+01" nB="1.0418750000000000e+03" nEv="1.1016914062500000e+03" nSuw="5.0000000000000000e+01" nBuw="9.9500000000000000e+02" nEvuw="1.0450000000000000e+03" sepI="5.0361525267362595e-02" sepG="-1.0000000000000000e+00" res="-4.8110589385032654e-02" rms="2.2441373765468597e-01" nType="-1" CC="0.0000000000000000e+00"/>
        </Node>
      </Node>
    </BinaryTree>
    <BinaryTree type="DecisionTree" boostWeight="1.0000000000000000e+00" itree="13">
      <Node pos="s" depth="0" Seq="0" IVar="7" Cut="1.3331482186913490e-02" cType="0" nS="4.0712067871093750e+03" nB="4.1788784179687500e+03" nEv="8.2500849609375000e+03" nSuw="4.0560000000000000e+03" nBuw="4.1810000000000000e+03" nEvuw="8.2370000000000000e+03" sepI="1.6480885446071625e-01" sepG="1.0306405834853649e-02" res="2.9210152570158243e-03" rms="4.0596657991409302e-01" nType="0" CC="0.0000000000000000e+00">
        <Node pos="l" depth="1" Seq="0" IVar="-1" Cut="0.0000000000000000e+00" cType="1" nS="3.2958923339843750e+03" nB="1.5279995117187500e+03" nEv="4.8238920898437500e+03" nSuw="3.3310000000000000e+03" nBuw="1.5610000000000000e+03" nEvuw="4.8920000000000000e+03" sepI="1.7768453061580658e-01" sepG="-1.0000000000000000e+00" res="1.6115734353661537e-02" rms="4.2152643203735352e-01" nType="1" CC="0.0000000000000000e+00"/>
        <Node pos="r" depth="1" Seq="1" IVar="6" Cut="9.8184925317764282e-01" cType="0" nS="7.7531439208984375e+02" nB="2.6508789062500000e+03" nEv="3.4261933593750000e+03" nSuw="7.2500000000000000e+02" nBuw="2.6200000000000000e+03" nEvuw="3.3450000000000000e+03" sepI="1.2186336517333984e-01" sepG="4.0064118802547455e-03" res="-1.1753998696804047e-01" rms="3.4908932447433472e-01" nType="0" CC="0.0000000000000000e+00">
          <Node pos="l" depth="2" Seq="1" IVar="-1" Cut="0.0000000000000000e+00" cType="1" nS="6.6812811279296875e+02" nB="9.8176696777343750e+02" nEv="1.6498950195312500e+03" nSuw="6.5500000000000000e+02" nBuw="1.0130000000000000e+03" nEvuw="1.6680000000000000e+03" sepI="1.8418970704078674e-01" sepG="-1.0000000000000000e+00" res="-1.0734408162534237e-02" rms="4.2917329072952271e-01" nType="-1" CC="0.0000000000000000e+00"/>
          <Node pos="r" depth="2" Seq="3" IVar="-1" Cut="0.0000000000000000e+00" cType="1" nS="1.0718628692626953e+02" nB="1.6691119384765625e+03" nEv="1.7762982177734375e+03" nSuw="7.0000000000000000e+01" nBuw="1.6070000000000000e+03" nEvuw="1.6770000000000000e+03" sepI="5.6244499981403351e-02" sepG="-1.0000000000000000e+00" res="-4.4359207153320312e-02" rms="2.3715923726558685e-01" nType="-1" CC="0.0000000000000000e+00"/>
        </Node>
      </Node>
    </BinaryTree>
    <BinaryTree type="DecisionTree" boostWeight="1.0000000000000000e+00" itree="14">
      <Node pos="s" depth="0" Seq="0" IVar="4" Cut="1.3874092698097229e-01" cType="0" nS="4.0712067871093750e+03" nB="4.1788784179687500e+03" nEv="8.2500849609375000e+03" nSuw="4.0560000000000000e+03" nBuw="4.1810000000000000e+03" nEvuw="8.2370000000000000e+03" sepI="1.6286320984363556e-01" sepG="8.8915275409817696e-03" res="2.9525361023843288e-03" rms="4.0356314182281494e-01" nType="0" CC="0.0000000000000000e+00">
        <Node pos="l" depth="1" Seq="0" IVar="-1" Cut="0.0000000000000000e+00" cType="1" nS="3.7411101074218750e+03" nB="1.4709277343750000e+03" nEv="5.2120375976562500e+03" nSuw="3.7880000000000000e+03" nBuw="1.5100000000000000e+03" nEvuw="5.2980000000000000e+03" sepI="1.9044239819049835e-01" sepG="-1.0000000000000000e+00" res="1.3483961112797260e-02" rms="4.3639704585075378e-01" nType="1" CC="0.0000000000000000e+00"/>
        <Node pos="r" depth="1" Seq="1" IVar="4" Cut="-1.3445527851581573e-01" cType="1" nS="3.3009671020507812e+02" nB="2.7079506835937500e+03" nEv="3.0380473632812500e+03" nSuw="2.6800000000000000e+02" nBuw="2.6710000000000000e+03" nEvuw="2.9390000000000000e+03" sepI="9.1402962803840637e-02" sepG="2.1075434051454067e-03" res="-1.2055535614490509e-01" rms="3.0232921242713928e-01" nType="0" CC="0.0000000000000000e+00">
          <Node pos="l" depth="2" Seq="1" IVar="-1" Cut="0.0000000000000000e+00" cType="1" nS="4.0089424133300781e+01" nB="3.5817081451416016e+01" nEv="7.5906509399414062e+01" nSuw="3.8000000000000000e+01" nBuw="3.6000000000000000e+01" nEvuw="7.4000000000000000e+01" sepI="2.3898066580295563e-01" sepG="-1.0000000000000000e+00" res="2.9618596658110619e-02" rms="4.8885649442672729e-01" nType="1" CC="0.0000000000000000e+00"/>
          <Node pos="r" depth="2" Seq="3" IVar="-1" Cut="0.0000000000000000e+00" cType="1" nS="2.9000729370117188e+02" nB="2.6721335449218750e+03" nEv="2.9621408691406250e+03" nSuw="2.3000000000000000e+02" nBuw="2.6350000000000000e+03" nEvuw="2.8650000000000000e+03" sepI="8.5459649562835693e-02" sepG="-1.0000000000000000e+00" res="-3.2382402569055557e-02" rms="2.9233482480049133e-01" nType="-1" CC="0.0000000000000000e+00"/>
        </Node>
      </Node>
    </BinaryTree>
    <BinaryTree type="DecisionTree" boostWeight="1.0000000000000000e+00" itree="15">
      <Node pos="s" depth="0" Seq="0" IVar="7" Cut="1.3105646707117558e-02" cType="0" nS="4.0712067871093750e+03" nB="4.1788784179687500e+03" nEv="8.2500849609375000e+03" nSuw="4.0560000000000000e+03" nBuw="4.1810000000000000e+03" nEvuw="8.2370000000000000e+03" sepI="1.6132980585098267e-01" sepG="7.9376418143510818e-03" res="3.0239175539463758e-03" rms="4.0165883302688599e-01" nType="0" CC="0.0000000000000000e+00">
        <Node pos="l" depth="1" Seq="0" IVar="-1" Cut="0.0000000000000000e+00" cType="1" nS="3.3527839355468750e+03" nB="1.6001156005859375e+03" nEv="4.9528999023437500e+03" nSuw="3.3870000000000000e+03" nBuw="1.6300000000000000e+03" nEvuw="5.0170000000000000e+03" sepI="1.7661322653293610e-01" sepG="-1.0000000000000000e+00" res="1.4072763733565807e-02" rms="4.2025375366210938e-01" nType="1" CC="0.0000000000000000e+00"/>
        <Node pos="r" depth="1" Seq="1" IVar="6" Cut="9.8184925317764282e-01" cType="0" nS="7.1842272949218750e+02" nB="2.5787626953125000e+03" nEv="3.2971855468750000e+03" nSuw="6.6900000000000000e+02" nBuw="2.5510000000000000e+03" nEvuw="3.2200000000000000e+03" sepI="1.1851043254137039e-01" sepG="2.4505604524165392e-03" res="-1.0617135465145111e-01" rms="3.4425345063209534e-01" nType="0" CC="0.0000000000000000e+00">
          <Node pos="l" depth="2" Seq="1" IVar="-1" Cut="0.0000000000000000e+00" cType="1" nS="6.1226916503906250e+02" nB="9.4814758300781250e+02" nEv="1.5604167480468750e+03" nSuw="6.0100000000000000e+02" nBuw="9.8100000000000000e+02" nEvuw="1.5820000000000000e+03" sepI="1.8180735409259796e-01" sepG="-1.0000000000000000e+00" res="-1.1446814984083176e-02" rms="4.2638874053955078e-01" nType="-1" CC="0.0000000000000000e+00"/>
          <Node pos="r" depth="2" Seq="3" IVar="-1" Cut="0.0000000000000000e+00" cType="1" nS="1.0615360260009766e+02" nB="1.6306151123046875e+03" nEv="1.7367686767578125e+03" nSuw="6.8000000000000000e+01" nBuw="1.5700000000000000e+03" nEvuw="1.6380000000000000e+03" sepI="5.6988410651683807e-02" sepG="-1.0000000000000000e+00" res="-4.1177544742822647e-02" rms="2.3872245848178864e-01" nType="-1" CC="0.0000000000000000e+00"/>
        </Node>
      </Node>
    </BinaryTree>
    <BinaryTree type="DecisionTree" boostWeight="1.0000000000000000e+00" itree="16">
      <Node pos="s" depth="0" Seq="0" IVar="4" Cut="2.7917653322219849e-01" cType="0" nS="4.0712067871093750e+03" nB="4.1788784179687500e+03" nEv="8.2500849609375000e+03" nSuw="4.0560000000000000e+03" nBuw="4.1810000000000000e+03" nEvuw="8.2370000000000000e+03" sepI="1.5987092256546021e-01" sepG="6.7786597646772861e-03" res="3.0018077231943607e-03" rms="3.9983862638473511e-01" nType="0" CC="0.0000000000000000e+00">
        <Node pos="l" depth="1" Seq="0" IVar="-1" Cut="0.0000000000000000e+00" cType="1" nS="3.4124453125000000e+03" nB="1.1146971435546875e+03" nEv="4.5271425781250000e+03" nSuw="3.4540000000000000e+03" nBuw="1.1450000000000000e+03" nEvuw="4.5990000000000000e+03" sepI="1.8452477455139160e-01" sepG="-1.0000000000000000e+00" res="1.4083055779337883e-02" rms="4.2956346273422241e-01" nType="1" CC="0.0000000000000000e+00"/>
        <Node pos="r" depth="1" Seq="1" IVar="0" Cut="8.8995611295104027e-03" cType="1" nS="6.5876147460937500e+02" nB="3.0641811523437500e+03" nEv="3.7229426269531250e+03" nSuw="6.0200000000000000e+02" nBuw="3.0360000000000000e+03" nEvuw="3.6380000000000000e+03" sepI="1.1486995220184326e-01" sepG="2.6243473403155804e-03" res="-8.7788775563240051e-02" rms="3.3892470598220825e-01" nType="0" CC="0.0000000000000000e+00">
          <Node pos="l" depth="2" Seq="1" IVar="-1" Cut="0.0000000000000000e+00" cType="1" nS="3.3255203247070312e+02" nB="7.5178710937500000e+02" nEv="1.0843391113281250e+03" nSuw="3.1800000000000000e+02" nBuw="7.5800000000000000e+02" nEvuw="1.0760000000000000e+03" sepI="1.6648600995540619e-01" sepG="-1.0000000000000000e+00" res="-1.7955232178792357e-03" rms="4.0802696347236633e-01" nType="-1" CC="0.0000000000000000e+00"/>
          <Node pos="r" depth="2" Seq="3" IVar="-1" Cut="0.0000000000000000e+00" cType="1" nS="3.2620947265625000e+02" nB="2.3123940429687500e+03" nEv="2.6386035156250000e+03" nSuw="2.8400000000000000e+02" nBuw="2.2780000000000000e+03" nEvuw="2.5620000000000000e+03" sepI="8.9955404400825500e-02" sepG="-1.0000000000000000e+00" res="-3.1000083312392235e-02" rms="2.9992565512657166e-01" nType="-1" CC="0.0000000000000000e+00"/>
        </Node>
      </Node>
    </BinaryTree>
    <BinaryTree type="DecisionTree" boostWeight="1.0000000000000000e+00" itree="17">
      <Node pos="s" depth="0" Seq="0" IVar="7" Cut="1.3762622140347958e-02" cType="0" nS="4.0712067871093750e+03" nB="4.1788784179687500e+03" nEv="8.2500849609375000e+03" nSuw="4.0560000000000000e+03" nBuw="4.1810000000000000e+03" nEvuw="8.2370000000000000e+03" sepI="1.5863412618637085e-01" sepG="6.1102574691176414e-03" res="3.0686359386891127e-03" rms="3.9828899502754211e-01" nType="0" CC="0.0000000000000000e+00">
        <Node pos="l" depth="1" Seq="0" IVar="-1" Cut="0.0000000000000000e+00" cType="1" nS="3.1777568359375000e+03" nB="1.4054071044921875e+03" nEv="4.5831640625000000e+03" nSuw="3.2180000000000000e+03" nBuw="1.4390000000000000e+03" nEvuw="4.6570000000000000e+03" sepI="1.7549897730350494e-01" sepG="-1.0000000000000000e+00" res="1.3762123882770538e-02" rms="4.1892597079277039e-01" nType="1" CC="0.0000000000000000e+00"/>
        <Node pos="r" depth="1" Seq="1" IVar="6" Cut="9.8184925317764282e-01" cType="0" nS="8.9344989013671875e+02" nB="2.7734711914062500e+03" nEv="3.6669211425781250e+03" nSuw="8.3800000000000000e+02" nBuw="2.7420000000000000e+03" nEvuw="3.5800000000000000e+03" sepI="1.2380803376436234e-01" sepG="2.6574041694402695e-03" res="-8.4321349859237671e-02" rms="3.5186365246772766e-01" nType="0" CC="0.0000000000000000e+00">
          <Node pos="l" depth="2" Seq="1" IVar="-1" Cut="0.0000000000000000e+00" cType="1" nS="7.7617529296875000e+02" nB="1.0429869384765625e+03" nEv="1.8191621093750000e+03" nSuw="7.6000000000000000e+02" nBuw="1.0740000000000000e+03" nEvuw="1.8340000000000000e+03" sepI="1.8489922583103180e-01" sepG="-1.0000000000000000e+00" res="-6.7879566922783852e-03" rms="4.2999911308288574e-01" nType="-1" CC="0.0000000000000000e+00"/>
          <Node pos="r" depth="2" Seq="3" IVar="-1" Cut="0.0000000000000000e+00" cType="1" nS="1.1727459716796875e+02" nB="1.7304842529296875e+03" nEv="1.8477589111328125e+03" nSuw="7.8000000000000000e+01" nBuw="1.6680000000000000e+03" nEvuw="1.7460000000000000e+03" sepI="5.8388628065586090e-02" sepG="-1.0000000000000000e+00" res="-3.8817297667264938e-02" rms="2.4163739383220673e-01" nType="-1" CC="0.0000000000000000e+00"/>
        </Node>
      </Node>
    </BinaryTree>
    <BinaryTree type="DecisionTree" boostWeight="1.0000000000000000e+00" itree="18">
      <Node pos="s" depth="0" Seq="0" IVar="7" Cut="1.3105646707117558e-02" cType="0" nS="4.0712067871093750e+03" nB="4.1788784179687500e+03" nEv="8.2500849609375000e+03" nSuw="4.0560000000000000e+03" nBuw="4.1810000000000000e+03" nEvuw="8.2370000000000000e+03" sepI="1.5744107961654663e-01" sepG="5.1661413162946701e-03" res="3.0153128318488598e-03" rms="3.9678844809532166e-01" nType="0" CC="0.0000000000000000e+00">
        <Node pos="l" depth="1" Seq="0" IVar="-1" Cut="0.0000000000000000e+00" cType="1" nS="3.3527839355468750e+03" nB="1.6001156005859375e+03" nEv="4.9528999023437500e+03" nSuw="3.3870000000000000e+03" nBuw="1.6300000000000000e+03" nEvuw="5.0170000000000000e+03" sepI="1.7556338012218475e-01" sepG="-1.0000000000000000e+00" res="1.1741265654563904e-02" rms="4.1900286078453064e-01" nType="1" CC="0.0000000000000000e+00"/>
        <Node pos="r" depth="1" Seq="1" IVar="6" Cut="9.8184925317764282e-01" cType="0" nS="7.1842272949218750e+02" nB="2.5787626953125000e+03" nEv="3.2971855468750000e+03" nSuw="6.6900000000000000e+02" nBuw="2.5510000000000000e+03" nEvuw="3.2200000000000000e+03" sepI="1.1729196459054947e-01" sepG="1.4755834126845002e-03" res="-8.5077650845050812e-02" rms="3.4247913956642151e-01" nType="0" CC="0.0000000000000000e+00">
          <Node pos="l" depth="2" Seq="1" IVar="-1" Cut="0.0000000000000000e+00" cType="1" nS="6.1226916503906250e+02" nB="9.4814758300781250e+02" nEv="1.5604167480468750e+03" nSuw="6.0100000000000000e+02" nBuw="9.8100000000000000e+02" nEvuw="1.5820000000000000e+03" sepI="1.8156240880489349e-01" sepG="-1.0000000000000000e+00" res="-9.6052568405866623e-03" rms="4.2610138654708862e-01" nType="-1" CC="0.0000000000000000e+00"/>
          <Node pos="r" depth="2" Seq="3" IVar="-1" Cut="0.0000000000000000e+00" cType="1" nS="1.0615360260009766e+02" nB="1.6306151123046875e+03" nEv="1.7367686767578125e+03" nSuw="6.8000000000000000e+01" nBuw="1.5700000000000000e+03" nEvuw="1.6380000000000000e+03" sepI="5.6746229529380798e-02" sepG="-1.0000000000000000e+00" res="-3.6893513053655624e-02" rms="2.3821467161178589e-01" nType="-1" CC="0.0000000000000000e+00"/>
        </Node>
      </Node>
    </BinaryTree>
    <BinaryTree type="DecisionTree" boostWeight="1.0000000000000000e+00" itree="19">
      <Node pos="s" depth="0" Seq="0" IVar="4" Cut="1.3874092698097229e-01" cType="0" nS="4.0712067871093750e+03" nB="4.1788784179687500e+03" nEv="8.2500849609375000e+03" nSuw="4.0560000000000000e+03" nBuw="4.1810000000000000e+03" nEvuw="8.2370000000000000e+03" sepI="1.5649376809597015e-01" sepG="4.6325162984430790e-03" res="2.9461500234901905e-03" rms="3.9559292793273926e-01" nType="0" CC="0.0000000000000000e+00">
        <Node pos="l" depth="1" Seq="0" IVar="-1" Cut="0.0000000000000000e+00" cType="1" nS="3.7411101074218750e+03" nB="1.4709277343750000e+03" nEv="5.2120375976562500e+03" nSuw="3.7880000000000000e+03" nBuw="1.5100000000000000e+03" nEvuw="5.2980000000000000e+03" sepI="1.8798919022083282e-01" sepG="-1.0000000000000000e+00" res="1.0259366594254971e-02" rms="4.3357720971107483e-01" nType="1" CC="0.0000000000000000e+00"/>
        <Node pos="r" depth="1" Seq="1" IVar="4" Cut="-1.3445527851581573e-01" cType="1" nS="3.3009671020507812e+02" nB="2.7079506835937500e+03" nEv="3.0380473632812500e+03" nSuw="2.6800000000000000e+02" nBuw="2.6710000000000000e+03" nEvuw="2.9390000000000000e+03" sepI="8.9880585670471191e-02" sepG="1.6586657147854567e-03" res="-8.6202539503574371e-02" rms="2.9980090260505676e-01" nType="0" CC="0.0000000000000000e+00">
          <Node pos="l" depth="2" Seq="1" IVar="-1" Cut="0.0000000000000000e+00" cType="1" nS="4.0089424133300781e+01" nB="3.5817081451416016e+01" nEv="7.5906509399414062e+01" nSuw="3.8000000000000000e+01" nBuw="3.6000000000000000e+01" nEvuw="7.4000000000000000e+01" sepI="2.3379038274288177e-01" sepG="-1.0000000000000000e+00" res="3.0638461932539940e-02" rms="4.8351874947547913e-01" nType="1" CC="0.0000000000000000e+00"/>
          <Node pos="r" depth="2" Seq="3" IVar="-1" Cut="0.0000000000000000e+00" cType="1" nS="2.9000729370117188e+02" nB="2.6721335449218750e+03" nEv="2.9621408691406250e+03" nSuw="2.3000000000000000e+02" nBuw="2.6350000000000000e+03" nEvuw="2.8650000000000000e+03" sepI="8.4491640329360962e-02" sepG="-1.0000000000000000e+00" res="-2.6822123676538467e-02" rms="2.9067447781562805e-01" nType="-1" CC="0.0000000000000000e+00"/>
        </Node>
      </Node>
    </BinaryTree>
    <BinaryTree type="DecisionTree" boostWeight="1.0000000000000000e+00" itree="20">
      <Node pos="s" depth="0" Seq="0" IVar="7" Cut="1.3762622140347958e-02" cType="0" nS="4.0712067871093750e+03" nB="4.1788784179687500e+03" nEv="8.2500849609375000e+03" nSuw="4.0560000000000000e+03" nBuw="4.1810000000000000e+03" nEvuw="8.2370000000000000e+03" sepI="1.5567012131214142e-01" sepG="4.0235253982245922e-03" res="2.9325049836188555e-03" rms="3.9455053210258484e-01" nType="0" CC="0.0000000000000000e+00">
        <Node pos="l" depth="1" Seq="0" IVar="-1" Cut="0.0000000000000000e+00" cType="1" nS="3.1777568359375000e+03" nB="1.4054071044921875e+03" nEv="4.5831640625000000e+03" nSuw="3.2180000000000000e+03" nBuw="1.4390000000000000e+03" nEvuw="4.6570000000000000e+03" sepI="1.7490673065185547e-01" sepG="-1.0000000000000000e+00" res="1.1515822261571884e-02" rms="4.1821852326393127e-01" nType="1" CC="0.0000000000000000e+00"/>
        <Node pos="r" depth="1" Seq="1" IVar="6" Cut="9.8184925317764282e-01" cType="0" nS="8.9344989013671875e+02" nB="2.7734711914062500e+03" nEv="3.6669211425781250e+03" nSuw="8.3800000000000000e+02" nBuw="2.7420000000000000e+03" nEvuw="3.5800000000000000e+03" sepI="1.2257451564073563e-01" sepG="1.6803984763100743e-03" res="-6.7982032895088196e-02" rms="3.5010644793510437e-01" nType="0" CC="0.0000000000000000e+00">
          <Node pos="l" depth="2" Seq="1" IVar="-1" Cut="0.0000000000000000e+00" cType="1" nS="7.7617529296875000e+02" nB="1.0429869384765625e+03" nEv="1.8191621093750000e+03" nSuw="7.6000000000000000e+02" nBuw="1.0740000000000000e+03" nEvuw="1.8340000000000000e+03" sepI="1.8438169360160828e-01" sepG="-1.0000000000000000e+00" res="-5.6720874272286892e-03" rms="4.2939689755439758e-01" nType="-1" CC="0.0000000000000000e+00"/>
          <Node pos="r" depth="2" Seq="3" IVar="-1" Cut="0.0000000000000000e+00" cType="1" nS="1.1727459716796875e+02" nB="1.7304842529296875e+03" nEv="1.8477589111328125e+03" nSuw="7.8000000000000000e+01" nBuw="1.6680000000000000e+03" nEvuw="1.7460000000000000e+03" sepI="5.8389097452163696e-02" sepG="-1.0000000000000000e+00" res="-3.4988753497600555e-02" rms="2.4163836240768433e-01" nType="-1" CC="0.0000000000000000e+00"/>
        </Node>
      </Node>
    </BinaryTree>
    <BinaryTree type="DecisionTree" boostWeight="1.0000000000000000e+00" itree="21">
      <Node pos="s" depth="0" Seq="0" IVar="0" Cut="8.9651467278599739e-03" cType="1" nS="4.0712067871093750e+03" nB="4.1788784179687500e+03" nEv="8.2500849609375000e+03" nSuw="4.0560000000000000e+03" nBuw="4.1810000000000000e+03" nEvuw="8.2370000000000000e+03" sepI="1.5488015115261078e-01" sepG="3.5679040011018515e-03" res="2.8500654734671116e-03" rms="3.9354816079139709e-01" nType="0" CC="0.0000000000000000e+00">
        <Node pos="l" depth="1" Seq="0" IVar="-1" Cut="0.0000000000000000e+00" cType="1" nS="2.6443354492187500e+03" nB="1.4601198730468750e+03" nEv="4.1044550781250000e+03" nSuw="2.7540000000000000e+03" nBuw="1.4950000000000000e+03" nEvuw="4.2490000000000000e+03" sepI="1.6398568451404572e-01" sepG="-1.0000000000000000e+00" res="1.3069957494735718e-02" rms="4.0495145320892334e-01" nType="1" CC="0.0000000000000000e+00"/>
        <Node pos="r" depth="1" Seq="1" IVar="9" Cut="-3.3096548169851303e-02" cType="0" nS="1.4268714599609375e+03" nB="2.7187583007812500e+03" nEv="4.1456298828125000e+03" nSuw="1.3020000000000000e+03" nBuw="2.6860000000000000e+03" nEvuw="3.9880000000000000e+03" sepI="1.3876469433307648e-01" sepG="2.2587750572711229e-03" res="-5.6584499776363373e-02" rms="3.7251132726669312e-01" nType="0" CC="0.0000000000000000e+00">
          <Node pos="l" depth="2" Seq="1" IVar="-1" Cut="0.0000000000000000e+00" cType="1" nS="1.3857154541015625e+03" nB="2.4801999511718750e+03" nEv="3.8659152832031250e+03" nSuw="1.2640000000000000e+03" nBuw="2.4340000000000000e+03" nEvuw="3.6980000000000000e+03" sepI="1.3828173279762268e-01" sepG="-1.0000000000000000e+00" res="-1.0121493600308895e-02" rms="3.7186253070831299e-01" nType="-1" CC="0.0000000000000000e+00"/>
          <Node pos="r" depth="2" Seq="3" IVar="-1" Cut="0.0000000000000000e+00" cType="1" nS="4.1155982971191406e+01" nB="2.3855856323242188e+02" nEv="2.7971453857421875e+02" nSuw="3.8000000000000000e+01" nBuw="2.5200000000000000e+02" nEvuw="2.9000000000000000e+02" sepI="1.1196250468492508e-01" sepG="-1.0000000000000000e+00" res="-5.6302554905414581e-02" rms="3.3460798859596252e-01" nType="-1" CC="0.0000000000000000e+00"/>
        </Node>
      </Node>
    </BinaryTree>
    <BinaryTree type="DecisionTree" boostWeight="1.0000000000000000e+00" itree="22">
      <Node pos="s" depth="0" Seq="0" IVar="4" Cut="2.7917653322219849e-01" cType="0" nS="4.0712067871093750e+03" nB="4.1788784179687500e+03" nEv="8.2500849609375000e+03" nSuw="4.0560000000000000e+03" nBuw="4.1810000000000000e+03" nEvuw="8.2370000000000000e+03" sepI="1.5409934520721436e-01" sepG="3.3113965764641762e-03" res="2.6398072950541973e-03" rms="3.9255487918853760e-01" nType="0" CC="0.0000000000000000e+00">
        <Node pos="l" depth="1" Seq="0" IVar="-1" Cut="0.0000000000000000e+00" cType="1" nS="3.4124453125000000e+03" nB="1.1146971435546875e+03" nEv="4.5271425781250000e+03" nSuw="3.4540000000000000e+03" nBuw="1.1450000000000000e+03" nEvuw="4.5990000000000000e+03" sepI="1.8277762830257416e-01" sepG="-1.0000000000000000e+00" res="1.0363980196416378e-02" rms="4.2752501368522644e-01" nType="1" CC="0.0000000000000000e+00"/>
        <Node pos="r" depth="1" Seq="1" IVar="5" Cut="9.1550463438034058e-01" cType="0" nS="6.5876147460937500e+02" nB="3.0641811523437500e+03" nEv="3.7229426269531250e+03" nSuw="6.0200000000000000e+02" nBuw="3.0360000000000000e+03" nEvuw="3.6380000000000000e+03" sepI="1.1188811063766479e-01" sepG="1.6347009222954512e-03" res="-6.0816455632448196e-02" rms="3.3449679613113403e-01" nType="0" CC="0.0000000000000000e+00">
          <Node pos="l" depth="2" Seq="1" IVar="-1" Cut="0.0000000000000000e+00" cType="1" nS="5.8823260498046875e+02" nB="2.0078024902343750e+03" nEv="2.5960351562500000e+03" nSuw="5.3900000000000000e+02" nBuw="2.0260000000000000e+03" nEvuw="2.5650000000000000e+03" sepI="1.3487108051776886e-01" sepG="-1.0000000000000000e+00" res="-8.8735669851303101e-03" rms="3.6724799871444702e-01" nType="-1" CC="0.0000000000000000e+00"/>
          <Node pos="r" depth="2" Seq="3" IVar="-1" Cut="0.0000000000000000e+00" cType="1" nS="7.0528877258300781e+01" nB="1.0563786621093750e+03" nEv="1.1269074707031250e+03" nSuw="6.3000000000000000e+01" nBuw="1.0100000000000000e+03" nEvuw="1.0730000000000000e+03" sepI="5.3542137145996094e-02" sepG="-1.0000000000000000e+00" res="-3.8954406976699829e-02" rms="2.3139174282550812e-01" nType="-1" CC="0.0000000000000000e+00"/>
        </Node>
      </Node>
    </BinaryTree>
    <BinaryTree type="DecisionTree" boostWeight="1.0000000000000000e+00" itree="23">
      <Node pos="s" depth="0" Seq="0" IVar="7" Cut="1.2284426949918270e-02" cType="0" nS="4.0712067871093750e+03" nB="4.1788784179687500e+03" nEv="8.2500849609375000e+03" nSuw="4.0560000000000000e+03" nBuw="4.1810000000000000e+03" nEvuw="8.2370000000000000e+03" sepI="1.5346039831638336e-01" sepG="3.0141903553158045e-03" res="2.6396776083856821e-03" rms="3.9174020290374756e-01" nType="0" CC="0.0000000000000000e+00">
        <Node pos="l" depth="1" Seq="0" IVar="-1" Cut="0.0000000000000000e+00" cType="1" nS="3.5286254882812500e+03" nB="1.8743480224609375e+03" nEv="5.4029736328125000e+03" nSuw="3.5490000000000000e+03" nBuw="1.9050000000000000e+03" nEvuw="5.4540000000000000e+03" sepI="1.7402778565883636e-01" sepG="-1.0000000000000000e+00" res="8.4580387920141220e-03" rms="4.1716638207435608e-01" nType="1" CC="0.0000000000000000e+00"/>
        <Node pos="r" depth="1" Seq="1" IVar="4" Cut="8.6472153663635254e-01" cType="0" nS="5.4258129882812500e+02" nB="2.3045302734375000e+03" nEv="2.8471115722656250e+03" nSuw="5.0700000000000000e+02" nBuw="2.2760000000000000e+03" nEvuw="2.7830000000000000e+03" sepI="1.0569536685943604e-01" sepG="9.8264333792030811e-04" res="-7.2991266846656799e-02" rms="3.2510823011398315e-01" nType="0" CC="0.0000000000000000e+00">
          <Node pos="l" depth="2" Seq="1" IVar="-1" Cut="0.0000000000000000e+00" cType="1" nS="1.1606079101562500e+02" nB="4.6092868804931641e+01" nEv="1.6215365600585938e+02" nSuw="1.1700000000000000e+02" nBuw="4.6000000000000000e+01" nEvuw="1.6300000000000000e+02" sepI="2.0350228250026703e-01" sepG="-1.0000000000000000e+00" res="9.7090508788824081e-03" rms="4.5111227035522461e-01" nType="1" CC="0.0000000000000000e+00"/>
          <Node pos="r" depth="2" Seq="3" IVar="-1" Cut="0.0000000000000000e+00" cType="1" nS="4.2652047729492188e+02" nB="2.2584375000000000e+03" nEv="2.6849580078125000e+03" nSuw="3.9000000000000000e+02" nBuw="2.2300000000000000e+03" nEvuw="2.6200000000000000e+03" sepI="9.8746486008167267e-02" sepG="-1.0000000000000000e+00" res="-2.4087177589535713e-02" rms="3.1423953175544739e-01" nType="-1" CC="0.0000000000000000e+00"/>
        </Node>
      </Node>
    </BinaryTree>
    <BinaryTree type="DecisionTree" boostWeight="1.0000000000000000e+00" itree="24">
      <Node pos="s" depth="0" Seq="0" IVar="9" Cut="-1.7440231516957283e-02" cType="0" nS="4.0712067871093750e+03" nB="4.1788784179687500e+03" nEv="8.2500849609375000e+03" nSuw="4.0560000000000000e+03" nBuw="4.1810000000000000e+03" nEvuw="8.2370000000000000e+03" sepI="1.5290336310863495e-01" sepG="2.9438030906021595e-03" res="2.6014628820121288e-03" rms="3.9102858304977417e-01" nType="0" CC="0.0000000000000000e+00">
        <Node pos="l" depth="1" Seq="0" IVar="-1" Cut="0.0000000000000000e+00" cType="1" nS="3.8851328125000000e+03" nB="3.6314860839843750e+03" nEv="7.5166186523437500e+03" nSuw="3.8710000000000000e+03" nBuw="3.5840000000000000e+03" nEvuw="7.4550000000000000e+03" sepI="1.4951075613498688e-01" sepG="-1.0000000000000000e+00" res="4.3651745654642582e-03" rms="3.8666620850563049e-01" nType="1" CC="0.0000000000000000e+00"/>
        <Node pos="r" depth="1" Seq="1" IVar="6" Cut="1.1526007652282715e+00" cType="1" nS="1.8607405090332031e+02" nB="5.4739221191406250e+02" nEv="7.3346624755859375e+02" nSuw="1.8500000000000000e+02" nBuw="5.9700000000000000e+02" nEvuw="7.8200000000000000e+02" sepI="1.5455889701843262e-01" sepG="5.3000906482338905e-03" res="-1.7108884453773499e-01" rms="3.9313980937004089e-01" nType="0" CC="0.0000000000000000e+00">
          <Node pos="l" depth="2" Seq="1" IVar="-1" Cut="0.0000000000000000e+00" cType="1" nS="4.5653816223144531e+01" nB="1.3185729980468750e+02" nEv="1.7751110839843750e+02" nSuw="3.3000000000000000e+01" nBuw="1.3600000000000000e+02" nEvuw="1.6900000000000000e+02" sepI="1.6559101641178131e-01" sepG="-1.0000000000000000e+00" res="-9.4457697123289108e-03" rms="4.0692877769470215e-01" nType="-1" CC="0.0000000000000000e+00"/>
          <Node pos="r" depth="2" Seq="3" IVar="-1" Cut="0.0000000000000000e+00" cType="1" nS="1.4042022705078125e+02" nB="4.1553491210937500e+02" nEv="5.5595513916015625e+02" nSuw="1.5200000000000000e+02" nBuw="4.6100000000000000e+02" nEvuw="6.1300000000000000e+02" sepI="1.4404408633708954e-01" sepG="-1.0000000000000000e+00" res="-5.1391176879405975e-02" rms="3.7953141331672668e-01" nType="-1" CC="0.0000000000000000e+00"/>
        </Node>
      </Node>
    </BinaryTree>
    <BinaryTree type="DecisionTree" boostWeight="1.0000000000000000e+00" itree="25">
      <Node pos="s" depth="0" Seq="0" IVar="0" Cut="8.9651467278599739e-03" cType="1" nS="4.0712067871093750e+03" nB="4.1788784179687500e+03" nEv="8.2500849609375000e+03" nSuw="4.0560000000000000e+03" nBuw="4.1810000000000000e+03" nEvuw="8.2370000000000000e+03" sepI="1.5224793553352356e-01" sepG="2.6629837229847908e-03" res="2.5729958433657885e-03" rms="3.9018961787223816e-01" nType="0" CC="0.0000000000000000e+00">
        <Node pos="l" depth="1" Seq="0" IVar="-1" Cut="0.0000000000000000e+00" cType="1" nS="2.6443354492187500e+03" nB="1.4601198730468750e+03" nEv="4.1044550781250000e+03" nSuw="2.7540000000000000e+03" nBuw="1.4950000000000000e+03" nEvuw="4.2490000000000000e+03" sepI="1.6246892511844635e-01" sepG="-1.0000000000000000e+00" res="1.1595238931477070e-02" rms="4.0307435393333435e-01" nType="1" CC="0.0000000000000000e+00"/>
        <Node pos="r" depth="1" Seq="1" IVar="8" Cut="3.9980011060833931e-03" cType="0" nS="1.4268714599609375e+03" nB="2.7187583007812500e+03" nEv="4.1456298828125000e+03" nSuw="1.3020000000000000e+03" nBuw="2.6860000000000000e+03" nEvuw="3.9880000000000000e+03" sepI="1.3682892918586731e-01" sepG="1.7562421271577477e-03" res="-4.8774205148220062e-02" rms="3.6990395188331604e-01" nType="0" CC="0.0000000000000000e+00">
          <Node pos="l" depth="2" Seq="1" IVar="-1" Cut="0.0000000000000000e+00" cType="1" nS="1.2222178955078125e+03" nB="1.2226961669921875e+03" nEv="2.4449140625000000e+03" nSuw="1.1300000000000000e+03" nBuw="1.2340000000000000e+03" nEvuw="2.3640000000000000e+03" sepI="1.6900111734867096e-01" sepG="-1.0000000000000000e+00" res="-2.8549588751047850e-03" rms="4.1109746694564819e-01" nType="-1" CC="0.0000000000000000e+00"/>
          <Node pos="r" depth="2" Seq="3" IVar="-1" Cut="0.0000000000000000e+00" cType="1" nS="2.0465354919433594e+02" nB="1.4960622558593750e+03" nEv="1.7007158203125000e+03" nSuw="1.7200000000000000e+02" nBuw="1.4520000000000000e+03" nEvuw="1.6240000000000000e+03" sepI="8.6297877132892609e-02" sepG="-1.0000000000000000e+00" res="-3.0034409835934639e-02" rms="2.9376500844955444e-01" nType="-1" CC="0.0000000000000000e+00"/>
        </Node>
      </Node>
    </BinaryTree>
    <BinaryTree type="DecisionTree" boostWeight="1.0000000000000000e+00" itree="26">
      <Node pos="s" depth="0" Seq="0" IVar="9" Cut="-2.1782828494906425e-02" cType="0" nS="4.0712067871093750e+03" nB="4.1788784179687500e+03" nEv="8.2500849609375000e+03" nSuw="4.0560000000000000e+03" nBuw="4.1810000000000000e+03" nEvuw="8.2370000000000000e+03" sepI="1.5162967145442963e-01" sepG="2.4556377902626991e-03" res="2.4043323937803507e-03" rms="3.8939654827117920e-01" nType="0" CC="0.0000000000000000e+00">
        <Node pos="l" depth="1" Seq="0" IVar="-1" Cut="0.0000000000000000e+00" cType="1" nS="3.9324702148437500e+03" nB="3.6981437988281250e+03" nEv="7.6306142578125000e+03" nSuw="3.9150000000000000e+03" nBuw="3.6560000000000000e+03" nEvuw="7.5710000000000000e+03" sepI="1.4932596683502197e-01" sepG="-1.0000000000000000e+00" res="3.7167663685977459e-03" rms="3.8642716407775879e-01" nType="1" CC="0.0000000000000000e+00"/>
        <Node pos="r" depth="1" Seq="1" IVar="6" Cut="1.2192102670669556e+00" cType="1" nS="1.3873646545410156e+02" nB="4.8073446655273438e+02" nEv="6.1947094726562500e+02" nSuw="1.4100000000000000e+02" nBuw="5.2500000000000000e+02" nEvuw="6.6600000000000000e+02" sepI="1.4730256795883179e-01" sepG="4.3428973294794559e-03" res="-1.7151643335819244e-01" rms="3.8380017876625061e-01" nType="0" CC="0.0000000000000000e+00">
          <Node pos="l" depth="2" Seq="1" IVar="-1" Cut="0.0000000000000000e+00" cType="1" nS="3.5817050933837891e+01" nB="1.1572418975830078e+02" nEv="1.5154124450683594e+02" nSuw="3.1000000000000000e+01" nBuw="1.1800000000000000e+02" nEvuw="1.4900000000000000e+02" sepI="1.6164264082908630e-01" sepG="-1.0000000000000000e+00" res="-1.2951320037245750e-02" rms="4.0204805135726929e-01" nType="-1" CC="0.0000000000000000e+00"/>
          <Node pos="r" depth="2" Seq="3" IVar="-1" Cut="0.0000000000000000e+00" cType="1" nS="1.0291941833496094e+02" nB="3.6501028442382812e+02" nEv="4.6792968750000000e+02" nSuw="1.1000000000000000e+02" nBuw="4.0700000000000000e+02" nEvuw="5.1700000000000000e+02" sepI="1.3690911233425140e-01" sepG="-1.0000000000000000e+00" res="-5.1823217421770096e-02" rms="3.7001231312751770e-01" nType="-1" CC="0.0000000000000000e+00"/>
        </Node>
      </Node>
    </BinaryTree>
    <BinaryTree type="DecisionTree" boostWeight="1.0000000000000000e+00" itree="27">
      <Node pos="s" depth="0" Seq="0" IVar="4" Cut="1.3874092698097229e-01" cType="0" nS="4.0712067871093750e+03" nB="4.1788784179687500e+03" nEv="8.2500849609375000e+03" nSuw="4.0560000000000000e+03" nBuw="4.1810000000000000e+03" nEvuw="8.2370000000000000e+03" sepI="1.5108352899551392e-01" sepG="2.3489210288971663e-03" res="2.3721395991742611e-03" rms="3.8869464397430420e-01" nType="0" CC="0.0000000000000000e+00">
        <Node pos="l" depth="1" Seq="0" IVar="-1" Cut="0.0000000000000000e+00" cType="1" nS="3.7411101074218750e+03" nB="1.4709277343750000e+03" nEv="5.2120375976562500e+03" nSuw="3.7880000000000000e+03" nBuw="1.5100000000000000e+03" nEvuw="5.2980000000000000e+03" sepI="1.8417765200138092e-01" sepG="-1.0000000000000000e+00" res="7.6298159547150135e-03" rms="4.2915925383567810e-01" nType="1" CC="0.0000000000000000e+00"/>
        <Node pos="r" depth="1" Seq="1" IVar="4" Cut="-1.3445527851581573e-01" cType="1" nS="3.3009671020507812e+02" nB="2.7079506835937500e+03" nEv="3.0380473632812500e+03" nSuw="2.6800000000000000e+02" nBuw="2.6710000000000000e+03" nEvuw="2.9390000000000000e+03" sepI="8.7928958237171173e-02" sepG="1.2860575225204229e-03" res="-6.1108417809009552e-02" rms="2.9652819037437439e-01" nType="0" CC="0.0000000000000000e+00">
          <Node pos="l" depth="2" Seq="1" IVar="-1" Cut="0.0000000000000000e+00" cType="1" nS="4.0089424133300781e+01" nB="3.5817081451416016e+01" nEv="7.5906509399414062e+01" nSuw="3.8000000000000000e+01" nBuw="3.6000000000000000e+01" nEvuw="7.4000000000000000e+01" sepI="2.3206648230552673e-01" sepG="-1.0000000000000000e+00" res="3.0103530734777451e-02" rms="4.8173278570175171e-01" nType="1" CC="0.0000000000000000e+00"/>
          <Node pos="r" depth="2" Seq="3" IVar="-1" Cut="0.0000000000000000e+00" cType="1" nS="2.9000729370117188e+02" nB="2.6721335449218750e+03" nEv="2.9621408691406250e+03" nSuw="2.3000000000000000e+02" nBuw="2.6350000000000000e+03" nEvuw="2.8650000000000000e+03" sepI="8.2916341722011566e-02" sepG="-1.0000000000000000e+00" res="-2.1745948120951653e-02" rms="2.8795197606086731e-01" nType="-1" CC="0.0000000000000000e+00"/>
        </Node>
      </Node>
    </BinaryTree>
    <BinaryTree type="DecisionTree" boostWeight="1.0000000000000000e+00" itree="28">
      <Node pos="s" depth="0" Seq="0" IVar="12" Cut="-2.8863289356231689e+00" cType="0" nS="4.0712067871093750e+03" nB="4.1788784179687500e+03" nEv="8.2500849609375000e+03" nSuw="4.0560000000000000e+03" nBuw="4.1810000000000000e+03" nEvuw="8.2370000000000000e+03" sepI="1.5066207945346832e-01" sepG="2.3630114737898111e-03" res="2.3382338695228100e-03" rms="3.8815215229988098e-01" nType="0" CC="0.0000000000000000e+00">
        <Node pos="l" depth="1" Seq="0" IVar="-1" Cut="0.0000000000000000e+00" cType="1" nS="4.0095073242187500e+03" nB="4.0160163574218750e+03" nEv="8.0255234375000000e+03" nSuw="3.9950000000000000e+03" nBuw="4.0150000000000000e+03" nEvuw="8.0100000000000000e+03" sepI="1.4699985086917877e-01" sepG="-1.0000000000000000e+00" res="2.3992389906197786e-03" rms="3.8340559601783752e-01" nType="-1" CC="0.0000000000000000e+00"/>
        <Node pos="r" depth="1" Seq="1" IVar="5" Cut="8.8727259635925293e-01" cType="1" nS="6.1699523925781250e+01" nB="1.6286196899414062e+02" nEv="2.2456149291992188e+02" nSuw="6.1000000000000000e+01" nBuw="1.6600000000000000e+02" nEvuw="2.2700000000000000e+02" sepI="1.9473174214363098e-01" sepG="1.5251755714416504e-02" res="-2.8826600313186646e-01" rms="4.4128420948982239e-01" nType="0" CC="0.0000000000000000e+00">
          <Node pos="l" depth="2" Seq="1" IVar="-1" Cut="0.0000000000000000e+00" cType="1" nS="2.3536972045898438e+01" nB="2.0858648300170898e+01" nEv="4.4395622253417969e+01" nSuw="2.4000000000000000e+01" nBuw="1.9000000000000000e+01" nEvuw="4.3000000000000000e+01" sepI="1.5321137011051178e-01" sepG="-1.0000000000000000e+00" res="-8.0485772341489792e-03" rms="3.9142224192619324e-01" nType="1" CC="0.0000000000000000e+00"/>
          <Node pos="r" depth="2" Seq="3" IVar="-1" Cut="0.0000000000000000e+00" cType="1" nS="3.8162551879882812e+01" nB="1.4200332641601562e+02" nEv="1.8016587829589844e+02" nSuw="3.7000000000000000e+01" nBuw="1.4700000000000000e+02" nEvuw="1.8400000000000000e+02" sepI="1.8595297634601593e-01" sepG="-1.0000000000000000e+00" res="-8.0822117626667023e-02" rms="4.3122264742851257e-01" nType="-1" CC="0.0000000000000000e+00"/>
        </Node>
      </Node>
    </BinaryTree>
    <BinaryTree type="DecisionTree" boostWeight="1.0000000000000000e+00" itree="29">
      <Node pos="s" depth="0" Seq="0" IVar="12" Cut="4.2900629043579102e+00" cType="1" nS="4.0712067871093750e+03" nB="4.1788784179687500e+03" nEv="8.2500849609375000e+03" nSuw="4.0560000000000000e+03" nBuw="4.1810000000000000e+03" nEvuw="8.2370000000000000e+03" sepI="1.5013672411441803e-01" sepG="2.1846119780093431e-03" res="2.2077590692788363e-03" rms="3.8747480511665344e-01" nType="0" CC="0.0000000000000000e+00">
        <Node pos="l" depth="1" Seq="0" IVar="-1" Cut="0.0000000000000000e+00" cType="1" nS="4.0547438964843750e+03" nB="4.0998022460937500e+03" nEv="8.1545458984375000e+03" nSuw="4.0350000000000000e+03" nBuw="4.1040000000000000e+03" nEvuw="8.1390000000000000e+03" sepI="1.4780217409133911e-01" sepG="-1.0000000000000000e+00" res="1.6636699438095093e-03" rms="3.8445046544075012e-01" nType="-1" CC="0.0000000000000000e+00"/>
        <Node pos="r" depth="1" Seq="1" IVar="10" Cut="7.4760687351226807e-01" cType="0" nS="1.6462980270385742e+01" nB="7.9076049804687500e+01" nEv="9.5539031982421875e+01" nSuw="2.1000000000000000e+01" nBuw="7.7000000000000000e+01" nEvuw="9.8000000000000000e+01" sepI="1.6074985265731812e-01" sepG="1.9992757588624954e-02" res="-4.2960613965988159e-01" rms="4.0093621611595154e-01" nType="0" CC="0.0000000000000000e+00">
          <Node pos="l" depth="2" Seq="1" IVar="-1" Cut="0.0000000000000000e+00" cType="1" nS="1.0222995758056641e+01" nB="3.3799858093261719e+01" nEv="4.4022853851318359e+01" nSuw="1.1000000000000000e+01" nBuw="3.4000000000000000e+01" nEvuw="4.5000000000000000e+01" sepI="1.7409941554069519e-01" sepG="-1.0000000000000000e+00" res="-6.8954400718212128e-02" rms="4.1725221276283264e-01" nType="-1" CC="0.0000000000000000e+00"/>
          <Node pos="r" depth="2" Seq="3" IVar="-1" Cut="0.0000000000000000e+00" cType="1" nS="6.2399845123291016e+00" nB="4.5276195526123047e+01" nEv="5.1516181945800781e+01" nSuw="1.0000000000000000e+01" nBuw="4.3000000000000000e+01" nEvuw="5.3000000000000000e+01" sepI="1.1226461827754974e-01" sepG="-1.0000000000000000e+00" res="-1.2890654802322388e-01" rms="3.3505913615226746e-01" nType="-1" CC="0.0000000000000000e+00"/>
        </Node>
      </Node>
    </BinaryTree>
    <BinaryTree type="DecisionTree" boostWeight="1.0000000000000000e+00" itree="30">
      <Node pos="s" depth="0" Seq="0" IVar="7" Cut="1.2284426949918270e-02" cType="0" nS="4.0712067871093750e+03" nB="4.1788784179687500e+03" nEv="8.2500849609375000e+03" nSuw="4.0560000000000000e+03" nBuw="4.1810000000000000e+03" nEvuw="8.2370000000000000e+03" sepI="1.4967165887355804e-01" sepG="2.1648446563631296e-03" res="2.0948552992194891e-03" rms="3.8687419891357422e-01" nType="0" CC="0.0000000000000000e+00">
        <Node pos="l" depth="1" Seq="0" IVar="-1" Cut="0.0000000000000000e+00" cType="1" nS="3.5286254882812500e+03" nB="1.8743480224609375e+03" nEv="5.4029736328125000e+03" nSuw="3.5490000000000000e+03" nBuw="1.9050000000000000e+03" nEvuw="5.4540000000000000e+03" sepI="1.7016595602035522e-01" sepG="-1.0000000000000000e+00" res="7.3036369867622852e-03" rms="4.1251176595687866e-01" nType="1" CC="0.0000000000000000e+00"/>
        <Node pos="r" depth="1" Seq="1" IVar="5" Cut="9.1906571388244629e-01" cType="0" nS="5.4258129882812500e+02" nB="2.3045302734375000e+03" nEv="2.8471115722656250e+03" nSuw="5.0700000000000000e+02" nBuw="2.2760000000000000e+03" nEvuw="2.7830000000000000e+03" sepI="1.0450647026300430e-01" sepG="9.5282756956294179e-04" res="-6.2000643461942673e-02" rms="3.2327461242675781e-01" nType="0" CC="0.0000000000000000e+00">
          <Node pos="l" depth="2" Seq="1" IVar="-1" Cut="0.0000000000000000e+00" cType="1" nS="4.5202316284179688e+02" nB="1.4841534423828125e+03" nEv="1.9361765136718750e+03" nSuw="4.2200000000000000e+02" nBuw="1.4850000000000000e+03" nEvuw="1.9070000000000000e+03" sepI="1.2015355378389359e-01" sepG="-1.0000000000000000e+00" res="-1.1508048512041569e-02" rms="3.4663173556327820e-01" nType="-1" CC="0.0000000000000000e+00"/>
          <Node pos="r" depth="2" Seq="3" IVar="-1" Cut="0.0000000000000000e+00" cType="1" nS="9.0558135986328125e+01" nB="8.2037689208984375e+02" nEv="9.1093505859375000e+02" nSuw="8.5000000000000000e+01" nBuw="7.9100000000000000e+02" nEvuw="8.7600000000000000e+02" sepI="6.8270839750766754e-02" sepG="-1.0000000000000000e+00" res="-3.7146531045436859e-02" rms="2.6128688454627991e-01" nType="-1" CC="0.0000000000000000e+00"/>
        </Node>
      </Node>
    </BinaryTree>
    <BinaryTree type="DecisionTree" boostWeight="1.0000000000000000e+00" itree="31">
      <Node pos="s" depth="0" Seq="0" IVar="0" Cut="8.8436612859368324e-03" cType="1" nS="4.0712067871093750e+03" nB="4.1788784179687500e+03" nEv="8.2500849609375000e+03" nSuw="4.0560000000000000e+03" nBuw="4.1810000000000000e+03" nEvuw="8.2370000000000000e+03" sepI="1.4923606812953949e-01" sepG="2.0477198995649815e-03" res="2.0599449053406715e-03" rms="3.8631084561347961e-01" nType="0" CC="0.0000000000000000e+00">
        <Node pos="l" depth="1" Seq="0" IVar="-1" Cut="0.0000000000000000e+00" cType="1" nS="2.2960212402343750e+03" nB="1.1518348388671875e+03" nEv="3.4478562011718750e+03" nSuw="2.3790000000000000e+03" nBuw="1.1790000000000000e+03" nEvuw="3.5580000000000000e+03" sepI="1.5738256275653839e-01" sepG="-1.0000000000000000e+00" res="1.1902497150003910e-02" rms="3.9671471714973450e-01" nType="1" CC="0.0000000000000000e+00"/>
        <Node pos="r" depth="1" Seq="1" IVar="5" Cut="8.6637163162231445e-01" cType="0" nS="1.7751855468750000e+03" nB="3.0270434570312500e+03" nEv="4.8022290039062500e+03" nSuw="1.6770000000000000e+03" nBuw="3.0020000000000000e+03" nEvuw="4.6790000000000000e+03" sepI="1.3986919820308685e-01" sepG="1.3996884226799011e-03" res="-3.6283258348703384e-02" rms="3.7399092316627502e-01" nType="0" CC="0.0000000000000000e+00">
          <Node pos="l" depth="2" Seq="1" IVar="-1" Cut="0.0000000000000000e+00" cType="1" nS="1.5964659423828125e+03" nB="2.3052680664062500e+03" nEv="3.9017338867187500e+03" nSuw="1.5150000000000000e+03" nBuw="2.3170000000000000e+03" nEvuw="3.8320000000000000e+03" sepI="1.4852525293827057e-01" sepG="-1.0000000000000000e+00" res="-4.3364269658923149e-03" rms="3.8538974523544312e-01" nType="-1" CC="0.0000000000000000e+00"/>
          <Node pos="r" depth="2" Seq="3" IVar="-1" Cut="0.0000000000000000e+00" cType="1" nS="1.7871960449218750e+02" nB="7.2177545166015625e+02" nEv="9.0049505615234375e+02" nSuw="1.6200000000000000e+02" nBuw="6.8500000000000000e+02" nEvuw="8.4700000000000000e+02" sepI="9.4899222254753113e-02" sepG="-1.0000000000000000e+00" res="-3.1624276190996170e-02" rms="3.0805715918540955e-01" nType="-1" CC="0.0000000000000000e+00"/>
        </Node>
      </Node>
    </BinaryTree>
    <BinaryTree type="DecisionTree" boostWeight="1.0000000000000000e+00" itree="32">
      <Node pos="s" depth="0" Seq="0" IVar="9" Cut="-1.6943933442234993e-02" cType="0" nS="4.0712067871093750e+03" nB="4.1788784179687500e+03" nEv="8.2500849609375000e+03" nSuw="4.0560000000000000e+03" nBuw="4.1810000000000000e+03" nEvuw="8.2370000000000000e+03" sepI="1.4875975251197815e-01" sepG="2.0497476216405630e-03" res="1.8927482888102531e-03" rms="3.8569387793540955e-01" nType="0" CC="0.0000000000000000e+00">
        <Node pos="l" depth="1" Seq="0" IVar="-1" Cut="0.0000000000000000e+00" cType="1" nS="3.8752292480468750e+03" nB="3.6196018066406250e+03" nEv="7.4948310546875000e+03" nSuw="3.8620000000000000e+03" nBuw="3.5730000000000000e+03" nEvuw="7.4350000000000000e+03" sepI="1.4618326723575592e-01" sepG="-1.0000000000000000e+00" res="3.7470590323209763e-03" rms="3.8233920931816101e-01" nType="1" CC="0.0000000000000000e+00"/>
        <Node pos="r" depth="1" Seq="1" IVar="6" Cut="1.1526007652282715e+00" cType="0" nS="1.9597744750976562e+02" nB="5.5927655029296875e+02" nEv="7.5525396728515625e+02" nSuw="1.9400000000000000e+02" nBuw="6.0800000000000000e+02" nEvuw="8.0200000000000000e+02" sepI="1.5193720161914825e-01" sepG="2.9689965303987265e-03" res="-1.4072862267494202e-01" rms="3.8979122042655945e-01" nType="0" CC="0.0000000000000000e+00">
          <Node pos="l" depth="2" Seq="1" IVar="-1" Cut="0.0000000000000000e+00" cType="1" nS="1.5032363891601562e+02" nB="4.2076669311523438e+02" nEv="5.7109033203125000e+02" nSuw="1.6100000000000000e+02" nBuw="4.6600000000000000e+02" nEvuw="6.2700000000000000e+02" sepI="1.4393344521522522e-01" sepG="-1.0000000000000000e+00" res="-4.2119760066270828e-02" rms="3.7938562035560608e-01" nType="-1" CC="0.0000000000000000e+00"/>
          <Node pos="r" depth="2" Seq="3" IVar="-1" Cut="0.0000000000000000e+00" cType="1" nS="4.5653816223144531e+01" nB="1.3850984191894531e+02" nEv="1.8416365051269531e+02" nSuw="3.3000000000000000e+01" nBuw="1.4200000000000000e+02" nEvuw="1.7500000000000000e+02" sepI="1.6458094120025635e-01" sepG="-1.0000000000000000e+00" res="-1.0384497232735157e-02" rms="4.0568578243255615e-01" nType="-1" CC="0.0000000000000000e+00"/>
        </Node>
      </Node>
    </BinaryTree>
    <BinaryTree type="DecisionTree" boostWeight="1.0000000000000000e+00" itree="33">
      <Node pos="s" depth="0" Seq="0" IVar="12" Cut="-2.8863289356231689e+00" cType="0" nS="4.0712067871093750e+03" nB="4.1788784179687500e+03" nEv="8.2500849609375000e+03" nSuw="4.0560000000000000e+03" nBuw="4.1810000000000000e+03" nEvuw="8.2370000000000000e+03" sepI="1.4831224083900452e-01" sepG="1.9750159699469805e-03" res="1.8800323596224189e-03" rms="3.8511329889297485e-01" nType="0" CC="0.0000000000000000e+00">
        <Node pos="l" depth="1" Seq="0" IVar="-1" Cut="0.0000000000000000e+00" cType="1" nS="4.0095073242187500e+03" nB="4.0160163574218750e+03" nEv="8.0255234375000000e+03" nSuw="3.9950000000000000e+03" nBuw="4.0150000000000000e+03" nEvuw="8.0100000000000000e+03" sepI="1.4504918456077576e-01" sepG="-1.0000000000000000e+00" res="2.1601726766675711e-03" rms="3.8085323572158813e-01" nType="-1" CC="0.0000000000000000e+00"/>
        <Node pos="r" depth="1" Seq="1" IVar="4" Cut="1.2054975330829620e-01" cType="0" nS="6.1699523925781250e+01" nB="1.6286196899414062e+02" nEv="2.2456149291992188e+02" nSuw="6.1000000000000000e+01" nBuw="1.6600000000000000e+02" nEvuw="2.2700000000000000e+02" sepI="1.9237022101879120e-01" sepG="1.3899794779717922e-02" res="-2.6379722356796265e-01" rms="4.3860030174255371e-01" nType="0" CC="0.0000000000000000e+00">
          <Node pos="l" depth="2" Seq="1" IVar="-1" Cut="0.0000000000000000e+00" cType="1" nS="5.6613517761230469e+01" nB="1.1987548828125000e+02" nEv="1.7648901367187500e+02" nSuw="5.9000000000000000e+01" nBuw="1.2500000000000000e+02" nEvuw="1.8400000000000000e+02" sepI="2.0481233298778534e-01" sepG="-1.0000000000000000e+00" res="-6.7288808524608612e-02" rms="4.5256197452545166e-01" nType="-1" CC="0.0000000000000000e+00"/>
          <Node pos="r" depth="2" Seq="3" IVar="-1" Cut="0.0000000000000000e+00" cType="1" nS="5.0860047340393066e+00" nB="4.2986484527587891e+01" nEv="4.8072490692138672e+01" nSuw="2.0000000000000000e+00" nBuw="4.1000000000000000e+01" nEvuw="4.3000000000000000e+01" sepI="8.1761129200458527e-02" sepG="-1.0000000000000000e+00" res="-1.1828508228063583e-02" rms="2.8593903779983521e-01" nType="-1" CC="0.0000000000000000e+00"/>
        </Node>
      </Node>
    </BinaryTree>
    <BinaryTree type="DecisionTree" boostWeight="1.0000000000000000e+00" itree="34">
      <Node pos="s" depth="0" Seq="0" IVar="12" Cut="3.3141939640045166e+00" cType="1" nS="4.0712067871093750e+03" nB="4.1788784179687500e+03" nEv="8.2500849609375000e+03" nSuw="4.0560000000000000e+03" nBuw="4.1810000000000000e+03" nEvuw="8.2370000000000000e+03" sepI="1.4789015054702759e-01" sepG="1.8779877573251724e-03" res="1.7817793413996696e-03" rms="3.8456487655639648e-01" nType="0" CC="0.0000000000000000e+00">
        <Node pos="l" depth="1" Seq="0" IVar="-1" Cut="0.0000000000000000e+00" cType="1" nS="4.0227050781250000e+03" nB="4.0610126953125000e+03" nEv="8.0837177734375000e+03" nSuw="4.0010000000000000e+03" nBuw="4.0650000000000000e+03" nEvuw="8.0660000000000000e+03" sepI="1.4509274065494537e-01" sepG="-1.0000000000000000e+00" res="1.8529632361605763e-03" rms="3.8091042637825012e-01" nType="-1" CC="0.0000000000000000e+00"/>
        <Node pos="r" depth="1" Seq="1" IVar="12" Cut="4.8547110557556152e+00" cType="1" nS="4.8501647949218750e+01" nB="1.1786557006835938e+02" nEv="1.6636721801757812e+02" nSuw="5.5000000000000000e+01" nBuw="1.1600000000000000e+02" nEvuw="1.7100000000000000e+02" sepI="1.9068634510040283e-01" sepG="1.7899926751852036e-02" res="-3.0029550194740295e-01" rms="4.3667647242546082e-01" nType="0" CC="0.0000000000000000e+00">
          <Node pos="l" depth="2" Seq="1" IVar="-1" Cut="0.0000000000000000e+00" cType="1" nS="4.2113582611083984e+01" nB="6.0598144531250000e+01" nEv="1.0271173095703125e+02" nSuw="4.5000000000000000e+01" nBuw="6.1000000000000000e+01" nEvuw="1.0600000000000000e+02" sepI="2.1233989298343658e-01" sepG="-1.0000000000000000e+00" res="-4.4263888150453568e-02" rms="4.6080353856086731e-01" nType="-1" CC="0.0000000000000000e+00"/>
          <Node pos="r" depth="2" Seq="3" IVar="-1" Cut="0.0000000000000000e+00" cType="1" nS="6.3880667686462402e+00" nB="5.7267425537109375e+01" nEv="6.3655490875244141e+01" nSuw="1.0000000000000000e+01" nBuw="5.5000000000000000e+01" nEvuw="6.5000000000000000e+01" sepI="1.0896465182304382e-01" sepG="-1.0000000000000000e+00" res="-1.0834056884050369e-01" rms="3.3009794354438782e-01" nType="-1" CC="0.0000000000000000e+00"/>
        </Node>
      </Node>
    </BinaryTree>
    <BinaryTree type="DecisionTree" boostWeight="1.0000000000000000e+00" itree="35">
      <Node pos="s" depth="0" Seq="0" IVar="4" Cut="1.3874092698097229e-01" cType="0" nS="4.0712067871093750e+03" nB="4.1788784179687500e+03" nEv="8.2500849609375000e+03" nSuw="4.0560000000000000e+03" nBuw="4.1810000000000000e+03" nEvuw="8.2370000000000000e+03" sepI="1.4745232462882996e-01" sepG="1.7903196858242154e-03" res="1.7020683735609055e-03" rms="3.8399520516395569e-01" nType="0" CC="0.0000000000000000e+00">
        <Node pos="l" depth="1" Seq="0" IVar="-1" Cut="0.0000000000000000e+00" cType="1" nS="3.7411101074218750e+03" nB="1.4709277343750000e+03" nEv="5.2120375976562500e+03" nSuw="3.7880000000000000e+03" nBuw="1.5100000000000000e+03" nEvuw="5.2980000000000000e+03" sepI="1.7975594103336334e-01" sepG="-1.0000000000000000e+00" res="6.6923717968165874e-03" rms="4.2397636175155640e-01" nType="1" CC="0.0000000000000000e+00"/>
        <Node pos="r" depth="1" Seq="1" IVar="4" Cut="-1.3445527851581573e-01" cType="1" nS="3.3009671020507812e+02" nB="2.7079506835937500e+03" nEv="3.0380473632812500e+03" nSuw="2.6800000000000000e+02" nBuw="2.6710000000000000e+03" nEvuw="2.9390000000000000e+03" sepI="8.7170839309692383e-02" sepG="1.0432978160679340e-03" res="-5.3718604147434235e-02" rms="2.9524707794189453e-01" nType="0" CC="0.0000000000000000e+00">
          <Node pos="l" depth="2" Seq="1" IVar="-1" Cut="0.0000000000000000e+00" cType="1" nS="4.0089424133300781e+01" nB="3.5817081451416016e+01" nEv="7.5906509399414062e+01" nSuw="3.8000000000000000e+01" nBuw="3.6000000000000000e+01" nEvuw="7.4000000000000000e+01" sepI="2.3002381622791290e-01" sepG="-1.0000000000000000e+00" res="2.7188628911972046e-02" rms="4.7960799932479858e-01" nType="1" CC="0.0000000000000000e+00"/>
          <Node pos="r" depth="2" Seq="3" IVar="-1" Cut="0.0000000000000000e+00" cType="1" nS="2.9000729370117188e+02" nB="2.6721335449218750e+03" nEv="2.9621408691406250e+03" nSuw="2.3000000000000000e+02" nBuw="2.6350000000000000e+03" nEvuw="2.8650000000000000e+03" sepI="8.2440115511417389e-02" sepG="-1.0000000000000000e+00" res="-1.9974162802100182e-02" rms="2.8712385892868042e-01" nType="-1" CC="0.0000000000000000e+00"/>
        </Node>
      </Node>
    </BinaryTree>
    <BinaryTree type="DecisionTree" boostWeight="1.0000000000000000e+00" itree="36">
      <Node pos="s" depth="0" Seq="0" IVar="9" Cut="-9.6235563978552818e-03" cType="0" nS="4.0712067871093750e+03" nB="4.1788784179687500e+03" nEv="8.2500849609375000e+03" nSuw="4.0560000000000000e+03" nBuw="4.1810000000000000e+03" nEvuw="8.2370000000000000e+03" sepI="1.4714407920837402e-01" sepG="1.6940558562055230e-03" res="1.7010285519063473e-03" rms="3.8359364867210388e-01" nType="0" CC="0.0000000000000000e+00">
        <Node pos="l" depth="1" Seq="0" IVar="-1" Cut="0.0000000000000000e+00" cType="1" nS="3.7362775878906250e+03" nB="3.4767509765625000e+03" nEv="7.2130288085937500e+03" nSuw="3.7160000000000000e+03" nBuw="3.4240000000000000e+03" nEvuw="7.1400000000000000e+03" sepI="1.4280000329017639e-01" sepG="-1.0000000000000000e+00" res="4.0358235128223896e-03" rms="3.7788885831832886e-01" nType="1" CC="0.0000000000000000e+00"/>
        <Node pos="r" depth="1" Seq="1" IVar="4" Cut="7.9650622606277466e-01" cType="0" nS="3.3492913818359375e+02" nB="7.0212731933593750e+02" nEv="1.0370565185546875e+03" nSuw="3.4000000000000000e+02" nBuw="7.5700000000000000e+02" nEvuw="1.0970000000000000e+03" sepI="1.6388176381587982e-01" sepG="2.5555111933499575e-03" res="-1.0684688389301300e-01" rms="4.0482312440872192e-01" nType="0" CC="0.0000000000000000e+00">
          <Node pos="l" depth="2" Seq="1" IVar="-1" Cut="0.0000000000000000e+00" cType="1" nS="8.7381103515625000e+01" nB="3.5415882110595703e+01" nEv="1.2279698181152344e+02" nSuw="9.2000000000000000e+01" nBuw="4.2000000000000000e+01" nEvuw="1.3400000000000000e+02" sepI="1.9413454830646515e-01" sepG="-1.0000000000000000e+00" res="5.8720614761114120e-03" rms="4.4060701131820679e-01" nType="1" CC="0.0000000000000000e+00"/>
          <Node pos="r" depth="2" Seq="3" IVar="-1" Cut="0.0000000000000000e+00" cType="1" nS="2.4754801940917969e+02" nB="6.6671148681640625e+02" nEv="9.1425952148437500e+02" nSuw="2.4800000000000000e+02" nBuw="7.1500000000000000e+02" nEvuw="9.6300000000000000e+02" sepI="1.5691965818405151e-01" sepG="-1.0000000000000000e+00" res="-3.1030137091875076e-02" rms="3.9613085985183716e-01" nType="-1" CC="0.0000000000000000e+00"/>
        </Node>
      </Node>
    </BinaryTree>
    <BinaryTree type="DecisionTree" boostWeight="1.0000000000000000e+00" itree="37">
      <Node pos="s" depth="0" Seq="0" IVar="12" Cut="-2.8863289356231689e+00" cType="0" nS="4.0712067871093750e+03" nB="4.1788784179687500e+03" nEv="8.2500849609375000e+03" nSuw="4.0560000000000000e+03" nBuw="4.1810000000000000e+03" nEvuw="8.2370000000000000e+03" sepI="1.4675593376159668e-01" sepG="1.6629080055281520e-03" res="1.6807266511023045e-03" rms="3.8308736681938171e-01" nType="0" CC="0.0000000000000000e+00">
        <Node pos="l" depth="1" Seq="0" IVar="-1" Cut="0.0000000000000000e+00" cType="1" nS="4.0095073242187500e+03" nB="4.0160163574218750e+03" nEv="8.0255234375000000e+03" nSuw="3.9950000000000000e+03" nBuw="4.0150000000000000e+03" nEvuw="8.0100000000000000e+03" sepI="1.4381448924541473e-01" sepG="-1.0000000000000000e+00" res="1.9959066994488239e-03" rms="3.7922880053520203e-01" nType="-1" CC="0.0000000000000000e+00"/>
        <Node pos="r" depth="1" Seq="1" IVar="2" Cut="-1.5641784295439720e-02" cType="1" nS="6.1699523925781250e+01" nB="1.6286196899414062e+02" nEv="2.2456149291992188e+02" nSuw="6.1000000000000000e+01" nBuw="1.6600000000000000e+02" nEvuw="2.2700000000000000e+02" sepI="1.9078615307807922e-01" sepG="1.3123942539095879e-02" res="-2.4210213124752045e-01" rms="4.3679073452949524e-01" nType="0" CC="0.0000000000000000e+00">
          <Node pos="l" depth="2" Seq="1" IVar="-1" Cut="0.0000000000000000e+00" cType="1" nS="2.4772354125976562e+01" nB="2.1811431884765625e+01" nEv="4.6583786010742188e+01" nSuw="2.0000000000000000e+01" nBuw="2.3000000000000000e+01" nEvuw="4.3000000000000000e+01" sepI="2.2138509154319763e-01" sepG="-1.0000000000000000e+00" res="-3.1379968859255314e-03" rms="4.7051578760147095e-01" nType="1" CC="0.0000000000000000e+00"/>
          <Node pos="r" depth="2" Seq="3" IVar="-1" Cut="0.0000000000000000e+00" cType="1" nS="3.6927169799804688e+01" nB="1.4105053710937500e+02" nEv="1.7797770690917969e+02" nSuw="4.1000000000000000e+01" nBuw="1.4300000000000000e+02" nEvuw="1.8400000000000000e+02" sepI="1.6621820628643036e-01" sepG="-1.0000000000000000e+00" res="-7.0661604404449463e-02" rms="4.0769869089126587e-01" nType="-1" CC="0.0000000000000000e+00"/>
        </Node>
      </Node>
    </BinaryTree>
    <BinaryTree type="DecisionTree" boostWeight="1.0000000000000000e+00" itree="38">
      <Node pos="s" depth="0" Seq="0" IVar="7" Cut="1.2284426949918270e-02" cType="0" nS="4.0712067871093750e+03" nB="4.1788784179687500e+03" nEv="8.2500849609375000e+03" nSuw="4.0560000000000000e+03" nBuw="4.1810000000000000e+03" nEvuw="8.2370000000000000e+03" sepI="1.4635066688060760e-01" sepG="1.6409339150413871e-03" res="1.6104608075693250e-03" rms="3.8255804777145386e-01" nType="0" CC="0.0000000000000000e+00">
        <Node pos="l" depth="1" Seq="0" IVar="-1" Cut="0.0000000000000000e+00" cType="1" nS="3.5286254882812500e+03" nB="1.8743480224609375e+03" nEv="5.4029736328125000e+03" nSuw="3.5490000000000000e+03" nBuw="1.9050000000000000e+03" nEvuw="5.4540000000000000e+03" sepI="1.6646641492843628e-01" sepG="-1.0000000000000000e+00" res="6.4467019401490688e-03" rms="4.0800297260284424e-01" nType="1" CC="0.0000000000000000e+00"/>
        <Node pos="r" depth="1" Seq="1" IVar="8" Cut="2.9985008295625448e-03" cType="0" nS="5.4258129882812500e+02" nB="2.3045302734375000e+03" nEv="2.8471115722656250e+03" nSuw="5.0700000000000000e+02" nBuw="2.2760000000000000e+03" nEvuw="2.7830000000000000e+03" sepI="1.0342199355363846e-01" sepG="8.6275493958964944e-04" res="-5.4192818701267242e-02" rms="3.2159289717674255e-01" nType="0" CC="0.0000000000000000e+00">
          <Node pos="l" depth="2" Seq="1" IVar="-1" Cut="0.0000000000000000e+00" cType="1" nS="3.7149377441406250e+02" nB="7.4047845458984375e+02" nEv="1.1119722900390625e+03" nSuw="3.5700000000000000e+02" nBuw="7.5300000000000000e+02" nEvuw="1.1100000000000000e+03" sepI="1.3906176388263702e-01" sepG="-1.0000000000000000e+00" res="-4.4823125936090946e-03" rms="3.7290984392166138e-01" nType="-1" CC="0.0000000000000000e+00"/>
          <Node pos="r" depth="2" Seq="3" IVar="-1" Cut="0.0000000000000000e+00" cType="1" nS="1.7108750915527344e+02" nB="1.5640518798828125e+03" nEv="1.7351392822265625e+03" nSuw="1.5000000000000000e+02" nBuw="1.5230000000000000e+03" nEvuw="1.6730000000000000e+03" sepI="7.9166419804096222e-02" sepG="-1.0000000000000000e+00" res="-2.7676876634359360e-02" rms="2.8136527538299561e-01" nType="-1" CC="0.0000000000000000e+00"/>
        </Node>
      </Node>
    </BinaryTree>
    <BinaryTree type="DecisionTree" boostWeight="1.0000000000000000e+00" itree="39">
      <Node pos="s" depth="0" Seq="0" IVar="12" Cut="3.1790735721588135e+00" cType="1" nS="4.0712067871093750e+03" nB="4.1788784179687500e+03" nEv="8.2500849609375000e+03" nSuw="4.0560000000000000e+03" nBuw="4.1810000000000000e+03" nEvuw="8.2370000000000000e+03" sepI="1.4600795507431030e-01" sepG="1.6019097529351711e-03" res="1.6052558785304427e-03" rms="3.8210988044738770e-01" nType="0" CC="0.0000000000000000e+00">
        <Node pos="l" depth="1" Seq="0" IVar="-1" Cut="0.0000000000000000e+00" cType="1" nS="4.0137822265625000e+03" nB="4.0510908203125000e+03" nEv="8.0648730468750000e+03" nSuw="3.9930000000000000e+03" nBuw="4.0550000000000000e+03" nEvuw="8.0480000000000000e+03" sepI="1.4323395490646362e-01" sepG="-1.0000000000000000e+00" res="1.8123353365808725e-03" rms="3.7846261262893677e-01" nType="-1" CC="0.0000000000000000e+00"/>
        <Node pos="r" depth="1" Seq="1" IVar="11" Cut="1.6923343762755394e-02" cType="1" nS="5.7424468994140625e+01" nB="1.2778750610351562e+02" nEv="1.8521197509765625e+02" nSuw="6.3000000000000000e+01" nBuw="1.2600000000000000e+02" nEvuw="1.8900000000000000e+02" sepI="1.9544380903244019e-01" sepG="1.6274547204375267e-02" res="-2.6250377297401428e-01" rms="4.4209027290344238e-01" nType="0" CC="0.0000000000000000e+00">
          <Node pos="l" depth="2" Seq="1" IVar="-1" Cut="0.0000000000000000e+00" cType="1" nS="3.3171718597412109e+01" nB="3.8951351165771484e+01" nEv="7.2123069763183594e+01" nSuw="3.3000000000000000e+01" nBuw="3.8000000000000000e+01" nEvuw="7.1000000000000000e+01" sepI="1.9347329437732697e-01" sepG="-1.0000000000000000e+00" res="-2.3005748167634010e-02" rms="4.3985599279403687e-01" nType="-1" CC="0.0000000000000000e+00"/>
          <Node pos="r" depth="2" Seq="3" IVar="-1" Cut="0.0000000000000000e+00" cType="1" nS="2.4252752304077148e+01" nB="8.8836158752441406e+01" nEv="1.1308890533447266e+02" nSuw="3.0000000000000000e+01" nBuw="8.8000000000000000e+01" nEvuw="1.1800000000000000e+02" sepI="1.7004679143428802e-01" sepG="-1.0000000000000000e+00" res="-8.1320382654666901e-02" rms="4.1236731410026550e-01" nType="-1" CC="0.0000000000000000e+00"/>
        </Node>
      </Node>
    </BinaryTree>
    <BinaryTree type="DecisionTree" boostWeight="1.0000000000000000e+00" itree="40">
      <Node pos="s" depth="0" Seq="0" IVar="0" Cut="8.9651467278599739e-03" cType="1" nS="4.0712067871093750e+03" nB="4.1788784179687500e+03" nEv="8.2500849609375000e+03" nSuw="4.0560000000000000e+03" nBuw="4.1810000000000000e+03" nEvuw="8.2370000000000000e+03" sepI="1.4562048017978668e-01" sepG="1.5434861415997148e-03" res="1.5352884074673057e-03" rms="3.8160252571105957e-01" nType="0" CC="0.0000000000000000e+00">
        <Node pos="l" depth="1" Seq="0" IVar="-1" Cut="0.0000000000000000e+00" cType="1" nS="2.6443354492187500e+03" nB="1.4601198730468750e+03" nEv="4.1044550781250000e+03" nSuw="2.7540000000000000e+03" nBuw="1.4950000000000000e+03" nEvuw="4.2490000000000000e+03" sepI="1.5633390843868256e-01" sepG="-1.0000000000000000e+00" res="9.1646760702133179e-03" rms="3.9539083838462830e-01" nType="1" CC="0.0000000000000000e+00"/>
        <Node pos="r" depth="1" Seq="1" IVar="5" Cut="8.6805713176727295e-01" cType="0" nS="1.4268714599609375e+03" nB="2.7187583007812500e+03" nEv="4.1456298828125000e+03" nSuw="1.3020000000000000e+03" nBuw="2.6860000000000000e+03" nEvuw="3.9880000000000000e+03" sepI="1.3194182515144348e-01" sepG="1.2616009917110205e-03" res="-3.7556350231170654e-02" rms="3.6323797702789307e-01" nType="0" CC="0.0000000000000000e+00">
